{"layers": [{"weights": [[-0.03397275704956384, 0.08199097066699947, -0.008837663183546703, -0.07432945173968161, 0.06747099169189155, 0.0501002528240872, -0.020563757404014452, 0.07481947218359415, -0.028483253438667273, 0.028749120523322652, -0.018963746542092156, 0.029425279053212038, 0.04876988690537334, -0.013791630504618551, -0.023741568584798388, 0.06757841399828937, 0.010641593727147357, 0.07747834228102812, -0.035551166437986996, -0.07163839542313409, -0.015090031458152157, 0.04233738225173342, -0.05204268455964693, 0.03391423600799493, -0.05825025474406071, -0.03852596747567136, 0.0566224949763885, -0.01973048524475083, 0.06784594800172752, 0.047152502635580774, -0.024483309267991978, -0.058340034498077134, -0.061374785971549065, 0.07503237576014134, -0.07510062425188843, 0.033448139185717235, -0.04612164713082739, 0.05650408423825175, 0.04687029494406957, 0.04267925174701997, 0.030307921811788013, 0.06505269833713287, 0.03726255566544596, 0.022183200378644262, 0.060708746541803006, 0.019652256922792447, -0.0073587692805751085, 0.03870447589598293, -0.052590240296996195, 0.010151239037826333, 0.04395038623013249, 0.019907264026409112, 0.06339841595348558, -0.07700959194484511, 0.03636141436361126, 0.011808533774019957, -0.05171159189900571, 0.0032938816810074286, -0.026737097117190255, 0.04496881260399124, -0.04888452134843264, 0.044780323023912896, 0.058483335285285175, -0.039476521332653974, -0.07646302460300543, 0.04826870992653152, 0.07115079865779812, 0.06856483938335313, -0.05191265334254198, 0.05884530766800403, -0.05017918393522407, 0.060295431684263025, 0.04855028302742694, -0.024224128979011838, 0.01048903900611317, -0.04188463095942504, 0.07033250896389989, 0.05348548167469268, -0.0777806801879943, 0.002147753594087878, 0.022108223598297047, 0.021825491860387587, 0.06796649669937686, -0.05002766502830913, -0.0552745688577937, -0.05335819419870655, 0.03360127813881581, -0.021222595584760803, -0.035745686173041955, -0.07880395437656441, -0.06772168235444208, -0.005914053441920929, 0.07895631395661722, -0.05341450902010884, -0.002376501273768318, -0.017559118157697805, 0.007865377326531139, 0.05115706475773152, -0.026973482572024678, -0.05298599401434558, 0.052654944928651304, 0.021666832426053904, -0.05822910009790766, -0.08340452277923477, 0.05398285516126523, 0.013090496618814626, 0.04859878269968501, -0.003612122513495767, -0.040054721028277, 0.05292056746684182, 0.0382740630076039, -0.04677684662001174, -0.012960402572224609, -0.035576054822879954, 0.07199810010486543, 0.06853925399413946, -0.014500015986943714, -0.046301035900448935, -0.027237018463834077, -0.037482199485179106, 0.04956069262152624, 0.004439585546189109, 0.02035491721042084, 0.09020225770251787, 0.10565868160503931, 0.03240590982591683, 0.10044904334139178, 0.12871278692452828, 0.13762437142054634, 0.08221457089284953, -0.0575130346231584, 0.0910365670566774, 0.07457655338003111, -0.07692392704480601, 0.07225361913531736, -0.06425691403894107, -0.0683629519359505, 0.004609123511856068, 0.06051599795164162, 0.03934145410516174, -0.0460180307266949, -0.0574133496813366, -0.038690264201070516, 0.05300636217459151, 0.028206921865816668, -0.06723852987038512, 0.024345513329580345, 0.09224900505622748, 0.03280826094523249, 0.04110930927389854, 0.007404112597159173, 0.03769207219150108, 0.0625977505189447, 0.07958572018018206, 0.060059385890144514, 0.1339969627923006, 0.11286570391065867, 0.005474713568087896, 0.00706217805314099, -0.019198903399915215, 0.053898279639464995, -0.008147900802290423, -0.08108584499642565, 0.015167339180730932, 0.03221845959993241, -0.022042938278495225, -0.0015819101627186003, 0.01110992719546542, -0.06451545038980608, 0.052336642777695404, 0.00442230817985471, 0.07485987578123178, -0.0349535942828118, -0.039122362596761696, -0.01628527319692432, 0.04938750260860237, -0.055065374639883743, 0.051885187752536886, 0.012771367436672948, 0.029338254293436433, 0.09587673582524196, -0.012630051386400915, 0.04319566092907785, 0.05683755858651699, -0.03649747055493355, 0.012990476519251164, -0.03397967168621864, -0.01144627789272053, 0.05620821715349086, -0.09845249783073555, -0.05467086155683372, -0.012911915749143552, -0.07510703439666132, -0.07118818009639583, 0.014324968459462146, -0.06782541411035317, 0.07717333173367662, 0.04516268266227497, 0.05133303237564604, -0.001820373535813325, 0.08245921482800131, -0.07633914648302939, 0.05766701614501354, -0.04437133037365556, 0.037679197909898286, -0.009507596087541715, -0.14046490142524112, -0.06686070937497153, 0.007538816127682257, -0.14479753393017664, -0.13640988638636797, -0.06994549581318313, -0.07071282966145483, -0.07821808555810893, -0.05305827802411114, -0.0537094389724251, -0.06926405981029378, 0.04482003547665532, -0.028509624634485736, -0.05418520644593851, 0.038223718001938266, -0.034869338453370737, -0.00454530363845664, -0.0355452892701932, -0.059893468372038065, 0.028021773185504337, -0.04418793484270719, 0.039974825266085985, 0.06609966628799613, -0.04120890521087811, 0.022072056150308664, -0.060584286254306084, -0.10374922605866872, -0.02567848303677346, -0.12463074198546341, -0.12830718763713095, -0.12279443406073079, -0.10897965046801031, 0.0026607722401298453, -0.10562969363297596, -0.05749306990946853, -0.026372083795780106, -0.07310499051973843, 0.022108408756179886, 0.010050003406421384, -0.046123609176608356, -0.05739784960106106, -0.06308662277908565, -0.027865442169303, -0.041470263593199934, -0.036679123423905016, -0.005967295799392396, 0.03701563660115208, 0.07743189747741612, 0.03705550686867355, -0.02985878160383985, 0.04904380351539986, 0.07182202091563859, -0.013078813791938874, -0.01764580928293252, -0.06290844963322682, -0.11168019278757357, -0.003882652011717265, -0.06253494713069074, -0.08345243435305001, -0.027629839113254392, 0.03610365460888401, 0.02410268959456762, -0.034126584570265926, -0.11326424437967327, -0.1016708671685999, 0.006400868341307012, -0.07072051167106055, 0.04535379702745038, 0.03882322071753964, -0.05175720533147799, 0.06884923310705887, 0.06131600422966157, -0.007474603778684195, 0.06909837965935824, -0.07077903146100203, 0.016493669174869115, 0.006126700211103339, 0.0068514660232653415, -0.06416711843679243, 0.05612703613615923, -0.06575964114441582, -0.08505611119508259, -0.05534175902245813, 0.05898718658298541, -0.07429670027201442, 0.07044832548442133, -0.04726327594016261, -0.051614489662073285, 0.07795857637510584, 0.013567450574703089, 0.024745459931980927, -0.032339058760496635, -0.06430670434354982, 0.0064719033836786325, -0.07599894425487676, 0.06574656141922394, 0.06581339809635875, 0.0205480855993672, 0.04217530232062777, -0.03612410169744944, -0.05258649138271956, 0.023276044427588103, 0.06959025967912807, -0.055134041959018554, 0.04458910081814474, -0.0658582641249911, 0.04169360182347572, 0.03238992025904188, 0.04150757263524285, -0.01078580752575123, -0.05929594821161628, -0.049385716819432574, 0.031221693970284035, -0.046898673912559766, 0.06575269993744638, 0.12389470107931133, 0.1427792191131065, 0.034980404636332944, 0.00806796745147678, -0.005530975410052399, -0.05525348198708864, 0.07965430130882899, 0.020774032772645782, -0.04732505630027111, -0.012533014398771948, 0.03213960003055891, 0.06882146056720924, -0.01378457798452445, 0.001473732484525991, 0.02019582002939365, -0.04462513056305656, -0.040193976346273995, 0.024242022916616677, 0.00043928373403495603, -0.02780189558948761, -0.06284296180596989, -0.057729895170697994, 0.04474329489206438, -0.07050096919132182, -0.05126731951205643, 0.03838313982381351, -0.07568329659198175, 0.009820862020327857, 0.023939523538912332, 0.10622585127712632, -0.01608644720216379, -0.11897079546237446, -0.018543601503358157, -0.0006766667106351877, -0.026407019526709458, 0.04028682759500047, 0.10806936895186996, -0.05303964400915564, -0.0017014528222965228, 0.033834790499378195, 0.06216353582409169, 0.08156944962384216, 0.0328921144066705, -0.05699838499657394, -0.05694516804518456, 0.052783963167136, 0.06671345365964285, 0.060800206063035246, 0.02948407772991855, -0.08424682517226346, 0.005998983094300443, 0.0016038130344456785, 0.011957027338313168, -0.07025593103891958, -0.17939698258229758, -0.05661349397892422, -0.0447257114267431, 0.09291712187627933, 0.024959128921343523, -0.04177315406011118, -0.0116275213905233, 0.016378416969488573, -0.027963008425467006, 0.008187582066512726, -0.042461516670186265, -0.025281727723591732, -0.06307857342128213, -0.007790656874454993, 0.015261253123204628, 0.03264614244881691, -0.06928732747602857, 0.03590313775811731, 0.028416130809447288, 0.022690715236282744, -0.05684711657518412, 0.05746837348673221, -0.03555113516577683, -0.004821386374279432, -0.046619728246979575, 0.004615071187472016, -0.16247261141346062, -0.04102061240218235, -0.08067457136177698, -0.027942284841215012, 0.09550023160886831, 0.08216152448033412, 0.021761411680332767, -0.015317039720809446, -0.11004275521110518, -0.12002738820301657, -0.024319491599428728, 0.03314409897983862, -0.09012427621929713, -0.10774604261984859, 0.02055290034812406, -0.025177698333493766, 0.009718796092432203, -0.028280574884320658, -0.006504713680457701, -0.043581703420615146, 0.06127852012454079, -0.025896113445748298, -0.050875994510373834, -0.0372687896588151, -0.056283166020917465, -0.02781269741629084, 0.0040252714001025956, -0.12186063250900185, -0.12796613945646546, -0.07700824952461158, -0.10191375570729205, 0.045645363243278586, 0.028974275348617903, 0.1497483859737859, -0.06042377732282432, -0.07181028928155922, -0.06544221833307728, -0.025098227886293602, -0.051302585172366216, -0.12702212473493996, -0.11396574268173885, -0.04119719403240432, -0.06757341234193304, -0.07871998407424723, -0.026915729815841616, -0.0768000277083812, 0.04564223526092919, 0.009085956566231151, -0.07938355639829942, -0.030796263662789765, 0.08819736661340526, 0.04438552679893882, -0.04195402384098964, 0.03163208688172873, -0.07739060737932078, -0.07966514226121527, -0.009899983872281094, 0.06487228580688754, 0.08061830144198044, 0.02424441816794916, 0.07544166212787502, 0.059537299562345894, -0.08849527605609514, -0.007368223205143753, -0.040424344460681556, -0.14960386092809097, -0.0924597341658352, -0.03937103170036027, -0.07704210135757984, -0.06760369609802246, -0.06896214209361735, 0.06697551753079387, 0.04641254660840398, -0.030404402432812325, -0.06909404784505037, -0.05061429002530218, -0.07261119257850086, 0.026863225774088017, -0.03262616128996874, 0.07732535036753263, 0.039850259198986174, -0.058820888950922835, -0.06117761576086727, 0.08368292901993046, 0.12061286660942652, 0.09831868033505006, 0.13889915338166267, 0.17903368075315595, 0.09837148300309642, 0.016293108832924362, -0.01540243798244007, -0.09371948887754782, -0.04984186498848448, -0.038838860914478, 0.029079852883465842, -0.09408500940209172, 0.04555026759252785, -0.06214065799170486, 0.03306510773979403, -0.05839033783598382, 0.0163761557334153, -0.0024130477736392145, 0.03161310923438825, 0.06270893479930881, 0.018485833381035672, 0.05529003035540777, 0.06679947830563082, -0.012539000630748115, -0.08280422724856834, -0.05418069026088104, 0.04785273035663935, 0.0671868918492251, 0.06717080790225623, 0.07719540509885456, 0.09806089132340802, 0.06525187351034809, 0.1109398761814016, 0.04627155533919678, -0.07844023930112488, -0.12235488313956963, -0.020850541102688986, -0.053510885583500666, -0.040886922421511325, 0.04533127996022504, 0.06662750581457677, 0.04173539810722717, 0.0227926187781104, 0.032301892375894516, -0.019071770509496575, -0.018526918651355875, -0.014590201408241247, 0.07419925450067051, -0.004812632196356603, 0.04127761563782161, 0.06742245376348634, 0.006484412995009392, 0.03243720568487626, -0.045985406893772555, -0.0038632765557644446, 0.032192837810962896, 0.13973349343173722, 0.01398096553890971, 0.02260261054706188, -0.01681143612111826, -0.02032159838888655, -0.018959463784766848, 0.04651479030822288, -0.0755638513438606, -0.04282489512007973, 0.03926087903775542, 0.05388701981251711, 0.016090893224598425, -0.052153611154038104, -0.005531206511387715, -0.050623685533249356, -0.060509469816019366, -0.058985666296809645, -0.019285989662399694, -0.05689847339950308, -0.015669776885765558, -0.006797355988972483, -0.06521903749755627, -0.03939292306730889, 0.0759997258604036, 0.03904076452198915, -0.05323783165878507, 0.059961386684757124, 0.06812214983318639, 0.11552315898638364, 0.12028130180016376, 0.0019305492659126037, 0.017136317537591525, 0.018437566777204845, 0.007167984151526668, -0.059712209805437864, 0.0010420278105778857, 0.10117700003891852, 0.0590607118524222, -0.013348641900241556, 0.07301087219726356, 0.020212327272922367, 0.09064143272156996, 0.008595297731095936, -0.06273179229297214, 0.05382599393163553, 0.02372107767305315, -0.07283767448055203, -0.04788007694565495, -0.009260854534799063, 0.03219370142048244, -0.0014918066090219917, 0.03853853354467332, -0.03468269952153447, -0.04509855910612552, -0.036680984555713614, 0.058718961639228705, 0.040908181515882165, 0.09987352456410403, -0.021418154867465494, 0.02019596481209714, -0.1044139777078096, -0.06756594178533412, 0.09873085471350973, 0.08185110630491621, 0.10224107642762745, 0.08963883208168373, 0.09088336383719972, 0.029526820535631076, 0.08221703134128885, -0.050793557037890937, 0.010167438013654538, -0.0009705013778822706, 0.01646599081436436, -0.03265581514126707, -0.04976089189219439, 0.04342682309787635, -0.02945126904930823, 0.055276244441227126, -0.047310891927759974, 0.015318482588230329, 0.015909628281882107, 0.09337139412414902, 0.050455555628333856, 0.023123142087135774, -0.03695412117135335, 0.025822004248996923, -0.05655268748528746, 0.06274743311367086, -0.03800292506201418, 0.018871143164194453, 0.049776087860393614, 0.0015940176922588302, 0.009921031361064847, 0.022647634628862278, 0.08493325600339541, -0.052913031079892515, 0.017197122478550958, 0.013587922805599246, 0.06887169482816806, 0.01861700303093594, -0.013961834971087606, 0.003798992844623308, -0.021650958673703473, 0.03278292644122002, -0.034692417553698535, -0.042753466171607794, -0.004910785350796934, -0.013837269301890791, -0.047398846359718916, -0.09098866128433192, -0.10805912628423608, -0.009586186048936627, 0.018961588448251944, -0.035185479488268, -0.06867001719726168, 0.009570734003701127, -0.01042712587156164, -0.0011425818811054882, 0.05035005875163058, -0.02086729242756332, -0.02986443594430254, -0.04748310339262161, -0.019229038460243184, 0.032202848018207726, 0.004881601477330026, -0.020081426961099182, 0.015242510169234265, 0.024121171008189623, -0.004833360332071139, -0.023451003173726583, -0.014328047103563793, -0.0259850420328476, -0.003591353161163366, 0.0741823934191248, 0.058281322648434115, -0.07593222699038445, -0.026128944782647524, -0.05648205511222138, -0.09894910301556134, -0.05592972515446676, -0.09380539454374917, -0.11686836532185237, 0.009013154802091859, 0.030907990553836563, -0.008636461354470966, -0.07053318640072231, 0.0458275620301146, 0.01466772433580806, 0.034482128057408225, 0.06043799811408999, -0.01826573782815119, -0.06669541548770007, -0.06531400002455708, 0.0065256019560097425, 0.020334125481986084, -0.0011900377913150238, -0.0013852213273365663, -0.011694675236311023, -0.06183202532635908, -0.00559502281352123, 0.034697262503594326, -0.06538050358625404, 0.06415034864687594, 0.054987949132513335, -0.06444668980001675, 0.0018086320161885099, -0.06227433191780601, -0.0003901697361021136, -0.001902414884256268, -0.08307040500270318, -0.11025366322730981, 0.012159199124842233, 0.0041962279512, -0.013657502433205902, 0.013517854512143998, 0.009688038569567922, 0.05471630480382627, -0.035523916676282845, 0.044420750392741674, 0.07541291717228792, 0.05015460333174607, 0.0777083462751004, 0.03525367792009709, 0.05126302481653297, 0.06874271586555547, 0.052371223903035426, -0.0028797212632106165, -0.07796602055625164, 0.06761369401814449, 0.04224089684501793, 0.005047641813366827, 0.025417505984875802, -0.013603998339404006, -0.00025519195300578376, 0.04521230886070724, 0.02453382842647637, 0.053647144043915955, 0.06720476101508453, -0.053399566709844304, 0.05124838874799782, 0.03016462738218556, -0.04383511510260416, -0.004558452494737409, 0.010262766555440072, 0.03685753433803224, -0.01903386351142856, -0.05873840920589643, 0.05954566634267208, -0.07103190152022175, 0.007112786574733255, -0.04255989255524753, 0.05760630824523833, -0.04547201046701836, 0.04567996312198734, -0.00040270628320297953, 0.06277993833759392, -0.06678253290316193, -0.06772622162486736, -0.0124089115704074, 0.04459535998758687, -0.05142744428243264, 0.03265129698643618, -0.01210850889772127, 0.005341604714523722, 0.024808635803807523, -0.04458160119985062, 0.0018884898817883532, 0.025006455659983537, -0.04513359659963657, 0.019622673145293562, 0.027395227018245753, -0.0562506136835144, 0.0438702180563273, -0.047630828674056706, 0.07837769363851577, -0.03470727995144534, 0.04541275687779322, 0.0058523915626912774, 0.06192405516632445, -0.02072041692086108, -0.012945945688097885, 0.06351529765159597, -0.02204444772387466], [0.03511152171033081, -0.006465219101205036, 0.010258213788794513, 0.05234200018217394, 0.07674346646467087, -0.007195920303857179, 0.06251904764682643, 0.007335585738179351, 0.021568568092285082, 0.046113560680151634, 0.008680337128131295, 0.053495856567268255, 0.00625296745848201, -0.03943519498245809, 0.060343282337727726, -0.05271600931881711, 0.010524223730907348, 0.010402231751112172, -0.08185463302635153, 0.07706233321862892, 0.07564788253749812, 0.05885440072318758, 0.012421234695165333, -0.02593753291491081, 0.05431792316220237, -0.0061472014154693175, 0.08153749260492298, -0.03498913581511432, 0.052354483720174816, -0.07545134133910965, -0.052787799626329006, 0.021333642924000248, -0.07335886974123552, 0.06372897041426018, 0.046855372777216055, -0.05731761705750894, 0.02728215093054942, 0.047810732938943404, 0.01842991434355294, 0.08204709950497992, 0.06156380749527344, 0.03765910100357299, -0.06884134093589268, 0.048126803603131374, 0.08385584713562087, 0.033495390363732294, -0.07960740320539081, 0.04556613122076809, -0.07490082308534664, 0.03633746843503026, 0.016335009829084896, -0.06151631157691377, -0.02722977802816841, -0.051678407878784575, 0.05115235972186021, -0.05033950433598291, -0.05747460896575276, 0.07001773005569574, -0.04485983902798197, 0.06508217802796547, -0.03550028709788575, -0.04298391951172877, -0.02938137317587768, 0.05850031036863745, 0.05347945575986611, -0.02303649953267677, 0.025568201012500933, -0.009499387040604304, -0.06795694126351028, 0.030164884854622355, -0.014626256940168204, 0.008873005378468083, -0.03555298701137061, 0.07318655396366644, -0.08410180692099965, -0.07844608780498215, -0.041311552140214876, -0.008204020611716817, 0.010953879721627565, -0.0017643667231980202, -0.04829101999840631, -0.021377085853106652, 0.028666485735890437, -0.011264322869864044, -0.03969026976666773, 0.026622572896532984, -0.05678367271077551, 0.01946064394403002, 0.0434196336869447, -0.054326272541864576, 0.03083093022995119, 0.04443800601546818, 0.05691467528436453, 0.05225674761287341, -0.018632617682592088, -0.00053117835326962, 0.08591108357345698, -0.006557773063540034, 0.0029978833002750572, 0.07179895263529673, 0.03131367961491044, 0.045707579312932234, 0.02302397797940781, -0.03094706086701144, -0.04943448679569576, -0.004494009138454597, -0.058597358484759034, -0.048806406308083465, 0.06309470192097215, -0.054773686396912005, -0.00752054034198372, -0.07541533407687492, -0.06108938971478223, -0.08119764036078292, 0.06851722179760825, 0.08114267039220387, -0.027529829120969202, 0.022051258527298365, 0.07516357572337415, -0.015370110707362227, 0.025899953098231888, 0.08805735259990419, 0.007791877024748294, 0.069847766950287, 0.00543380008370853, 0.011959296537133249, 0.08755375947587808, 0.14855253521150535, 0.0021257976971518996, 0.06759068528315738, 0.06892856599133788, 0.0132565859065057, 0.03818339396858138, -0.05491157413764954, -0.07143591412560309, -0.09627536285200897, 0.029921150544248487, 0.0768755237134405, 0.07315279050433666, 0.0034354961283847305, 0.04743704729283081, 0.019804758600018214, -0.02912623028093501, -0.016378089159615722, 0.08563025169703227, -0.06028530136359252, 0.0652636901309832, -0.011110675958332695, 0.028708508149517573, 0.06297480455265828, 0.02047320861277118, 0.03431853888861438, 0.07623645497029194, 0.021893098500473503, 0.15824078633149674, 0.15279804440938502, 0.15347141610656131, 0.08789750771467959, 0.09993218895830613, -0.0055781695910390805, -0.04846763896774906, -0.010461529180081511, -0.07251041846931461, -0.07417351906911271, -0.08773085229111789, 0.04725750551632387, 0.018912628051613423, -0.03355153587248822, 0.0678043743370843, -0.025165315789584586, -0.061507572608412754, 0.021991208408309492, -0.06428879068981304, 0.013649386130027705, 0.024457132313156476, -0.04005742031113876, 0.08114836162726544, -0.035307902697619235, 0.06514980873527827, 0.12315551475595403, 0.07154693733536997, -0.0033937372107753438, -0.041942063227716035, 0.0046091847057946125, -0.0016678556939025541, -0.05585017885795736, 0.020290030585757353, 0.027817657762868032, 0.028026594852017552, 0.03391726691011565, -0.060776421196726396, -0.09946137649801282, 0.07578600066993434, 0.04548402463747818, -0.0437364284499352, -0.06760031592217292, 0.026814048864343337, 0.004824839223909084, 0.040601140622585775, -0.028396889114977678, -0.038400362035965856, 0.09291822331169566, 0.09399318533972117, 0.07677609587246774, -0.03772826941588164, -0.04915824597228893, -0.08851022782701284, 0.04865340959440337, -0.020818369838789045, 0.0076387237167920416, -0.07906654914226985, -0.07088088105249628, -0.1541846135993134, -0.07030917668334434, -0.026872275465649263, -0.030892065940125776, 0.026310223779307217, 0.000996573234303459, 0.016898536510517426, -0.01477151823273168, -0.010147893601683736, 0.004999620039694576, -0.0025522690833893655, -0.05885381398974015, 0.0465698630750976, -0.006707020768359255, 0.04988199982354537, -0.03703637598407157, -0.027464679402739785, -0.033008128902609235, 0.05831304001337626, -0.032111741937933265, 0.02676524168400904, 0.0006244076044723962, -0.10839357582238006, -0.13219894974637333, -0.05090398705274913, -0.14310119472180668, -0.10900394466701978, -0.10790551146048773, -0.0898740648973058, -0.08312025685421622, -0.0739298475862012, -0.047575570603074054, 0.04543172707552316, -0.061805613364419566, 0.07172478303022016, 0.06677272190547906, 0.029148535072271563, 0.09788617380667969, 0.05221487094124388, 0.009755038048713688, -0.05831043896233823, -0.03646503582559019, -0.01843991970572592, 0.03992815376509101, 0.07575201594491394, -0.06826897721471309, 0.06471533354905623, -0.09787601168831438, -0.01427081410189979, -0.07692981172865908, -0.07169311269127435, -0.15878916579614377, -0.14532596991887645, -0.043331215217645214, -0.04069687985202019, -0.06503280615205663, -0.011326651791023106, -0.08913009507208305, 0.035808681302051115, -0.06306638679287277, -0.01842634465462091, 0.051067493938103656, 0.009328113202944249, 0.019510524665253475, 0.056201155718074894, 0.05587550052418575, -0.06787735224138422, 0.06526492688949417, -0.011564619363447845, -0.059973041793908, 0.05272847653426579, -0.07390708972005362, 0.021029613829588536, 0.018059182637652608, 0.02512827286695074, 0.030718051712038345, -0.12337545234597562, -0.07136661361823385, -0.05811879633261283, -0.06531141281603715, -0.09476001665204108, 0.03035233386819492, -0.0008155951863463576, 0.05094118746972403, 0.014658558770982367, -0.04267270079966357, -0.005172663781046016, 0.0175123466422205, -0.0633780040294195, -0.03578015452754247, 0.08363583121565263, 0.00026380599696650565, -0.03505125640615423, -0.0017568010952789767, -0.048206429646917785, 0.0793453333274529, 0.08189284860833669, -0.0027699587613279576, 0.08011355642487328, -0.029202153608566487, -0.014900124148454255, -0.06284482850553433, 0.0014647009759179762, -0.145187271688203, -0.02247144227279961, -0.13322209264403984, -0.0602057237132137, -0.0540854305230532, -0.0933188717482599, 0.07911758252597509, 0.05498905061999687, 0.04257607863604917, 0.09993522695110453, -0.05049023442593686, 0.019980205669237548, -0.017848245204534086, 0.03941105240293145, 0.0010118573063681146, -0.09925094321849443, 0.010463364011721205, 0.06416148806676822, -0.016627261502503734, 0.00042946696483349585, -0.06824077996760092, 0.058227091068630735, 0.07318111268523278, 0.03306381726062901, 0.05757710613044571, -0.07923543866152524, 0.04228438387516897, -0.0016210830206570457, -0.025679169001749904, -0.09285517740406342, -0.13678016368882762, -0.08982029030515942, -0.029620367836822866, 0.002625073691616849, 0.13805893898633087, 0.21468613855926083, 0.16109276458174487, -0.017214086402300197, 0.02346670712992793, -0.07002935140955624, -0.011872315613677893, -0.09291673844771389, -0.0759769126572466, 0.022868912704314123, 0.0016669493540964018, -0.05175910664434199, -0.005160376997509791, -0.04426978368550549, 0.03646371319013051, 0.026862479333962016, 0.055180432350904404, 0.021679574641052624, 0.0695058767152434, 0.02719603641768706, -0.039949541013340605, -0.12628096509978357, -0.07679588725116507, -0.013660872519805039, -0.07654404711562392, -0.028977672210673263, -0.020396986694111354, 0.07871693641004528, 0.07151172942634974, 0.1365775835641324, 0.08281617759131622, 0.027565691473560913, -0.006232674591846674, -0.04779194111946388, -0.03602681151601158, -0.02905062830777689, -0.13094130759948383, -0.12168735534223692, -0.021490893661115465, -0.07580840351057559, -0.07799111144049875, -0.04044055620635373, 0.043364062464770904, -0.06652163288230648, 0.035936976607022345, -0.08135368854702092, -0.06801304357826492, 0.038235350778065336, -0.11832265328139031, -0.052798587631339065, -0.019025835561744458, 0.028984013394072475, 0.04957397586260791, 0.02417954707602858, 0.02546861820634579, 0.09149348747178115, 0.1782574718115842, 0.07897774573723276, 0.04056149765234597, -0.11269587644652689, -0.07090128307346265, -0.019290804359179264, -0.02305668270284522, 0.022518744516996425, -0.11350429959021921, -0.14465343191471108, -0.07067946847776763, -0.027235251483723966, -0.06660119695912127, -0.01061119443615456, 0.024989589062114934, -0.06671362369860577, 0.048622515771877074, 0.03719269992306766, -0.018739998482116483, -0.042144845897612894, 0.01028184436853728, -0.08927222476727507, 0.01433800414873505, -0.05450563501976276, 0.01283891988897598, 0.010883077038640467, 0.045146335613065976, 0.021653952893842886, 0.08406891892948468, 0.10342627393389536, 0.03385282913888894, 0.011820380781860942, -0.10045416780428161, 0.005544129696813638, 0.01327531903029286, -0.10318052821610027, -0.06167470205323621, -0.08420721373500889, 0.018518404733761724, -0.06696569559889545, -0.0663085909695228, -0.010849259505216527, -0.05928408687541353, 0.006390782251336993, -0.07379341172080088, 0.06066299768041105, -0.055934259016188995, -0.03874976977247186, 0.03282376397333892, 0.011112665113693921, -0.0071379683058946574, -0.10293906822798257, -0.10991970769516334, -0.06699117475570468, -0.015055001838908915, 0.0472697981763803, -0.015710975505104207, -0.07375468265838654, -0.01094125073424168, -0.07353967166976634, -0.03654864615043868, -0.07060022059252788, -0.08075562837067596, 0.01847336545980662, 0.028354646752024443, 0.0742461055287998, -0.04213683203276683, 0.0479883043857967, 0.08808446053795309, -0.07333544747909074, -0.06362623027685496, -0.04881399263533788, -0.04037496890262782, -0.044168265389945414, -0.05207799356688259, -0.031420610262415195, 0.01692635335006792, 0.05892519178461083, -0.022404871188486622, -0.012835452960348439, -0.09996183125167842, -0.0552347877122588, -0.06806198323317705, -0.012384555608326159, 0.012805242803250693, 0.0118064688032345, -0.08632320325921745, 0.009547673951346185, -0.05956866727587919, -0.0665625738328135, 0.026329247661244413, 0.06734750523589574, 0.09991496589850432, 0.0017289575293557649, 0.05888804955306654, -0.019810244320895346, 0.04146679945438177, 0.019260279831495513, 0.013565255664807235, 0.05226815122904205, 0.0038923159778745603, -0.024958128561550517, 0.04288217940719897, -0.022057718832807167, -0.03941006028470854, 0.1024722024839399, 0.03057599414105337, 0.03484333844253636, 0.05189997235573287, -0.05296039676491152, -0.006511614968678761, -0.08538488846079856, -0.10468319655662718, -0.09200177779897455, -0.05695903259478701, -0.03815507839098137, 0.032466948305772986, 0.08239668714580736, 0.019200074170855425, 0.07420598152174485, 0.08450482554753898, 0.014699990459794358, 0.02691131015171723, -0.06206986286125048, 0.0630284671271638, -0.07255086359717712, 0.05741330473250729, 0.05678486452767411, 0.047162258118214964, -0.014057588136514879, -0.012825317613335257, 0.04837665119113641, 0.038956134332307206, 0.11540416847509934, 0.012584997518590685, 0.07974525113204332, -0.03252744733764152, 0.00464550532947716, -0.006288540334881714, -0.0060322770534109015, -0.12381860574706825, -0.020323320802137456, -0.01794093822179673, -0.04320149867420975, 0.044979157075777355, -0.01832068294763182, -0.0189664960322146, -0.03843272203268171, -0.026519773762827714, 0.11779781721883574, 0.019912446365505036, -0.005945634232962996, 0.04502934133368581, -0.06477890905113314, -0.04932826116050555, 0.027179654837124406, 0.02923893211041264, -0.019409123683345332, -0.020142599241919294, -0.0009200019574348587, 0.003013923905994623, -0.008334924642657962, -0.012692531309533218, 0.07007474581477102, 0.10572471009315626, -0.0363934467209693, -0.029024333838325343, -0.0008675949220356159, -0.10922413013201855, -0.04103936500901272, -0.08063395451820862, 0.034943909656901105, 0.02739651546898546, 0.05215189287131152, -0.04339835831227683, -0.0254901146806774, 0.043906629659756086, -0.005753820187446143, 0.0855925752122143, -0.01310417372999921, -0.0407463515698861, 0.008175890970242562, -0.03498146295027902, 0.05473209086477682, 0.024380161678735524, 0.025853437197193435, -0.02871712085435178, 0.03549232264331598, 0.028103947234563543, 0.022998859836933103, 0.06621647795154632, -0.012587251647987723, 0.08247500244288491, -0.008735649530003728, -0.045396599829498875, -0.012990561148387408, 0.023837720015543205, 0.03403557277180349, 0.054097543513176735, -0.03060462889153321, 0.04674791471174388, 0.05379092573191526, 0.026800605844613523, 0.00024885740501385964, 0.06204500351180645, 0.0683843911597008, 0.046893368235066395, -0.01430958140208181, 0.08148182483063608, 0.028597727305781896, -0.0029358189991043793, -0.04177459777902988, -0.004329167080929299, 0.06569037495310584, 0.06817855422497747, 0.0993771175322132, 0.009650428538156444, 0.12028568012476627, -0.03680798895137486, -0.07382177211791258, -0.000844102206779974, 0.06250374436739838, -0.05467011094143145, 0.010904960201112035, 0.029574368236937824, 0.03986023614972792, -0.03921880842557519, 0.048183848941213955, -0.015814910571661855, -0.025996500319076993, 0.010496677370271958, 0.055240673011635294, 0.06753977570794624, 0.028757244993852252, -0.03243443617777287, 0.042619709658602276, 0.07257470190152379, -0.08203667396627107, 0.04926304572324546, 0.05559637414221043, -0.06131424376850826, -0.012407655208797976, 0.01732821739547357, 0.08962553050022726, -0.008941440429141707, 0.09586852927515656, 0.08352333318943174, -0.08760448599215769, 0.0697923541258821, 0.05065252187230835, 0.0769332091200178, 0.01925195209943934, -0.010794776889944206, -0.04508871620790396, 0.07065264261282386, 0.03900729408687448, 0.006752257257942524, 0.0550052427433277, -0.02234520939005434, -0.07138575330750464, 0.030535030290413653, 0.06783284830999316, -0.053431576435318054, 0.0005450084684884179, -0.05539982863131939, 0.07257375002298837, 0.07068596945296134, -0.06327592499177191, -0.06577413697419165, -0.004302830620107802, 0.043152389983706615, -0.06854919624892444, -0.011691647010823012, -0.0201557165649898, -0.06247203618075625, -0.020846002628254014, 0.041110787688362266, 0.035884333668964874, -0.009810361358144401, -0.07863619534938211, 0.01142986931131459, 0.02899210111170421, -0.04185448023277336, 0.01378937928319152, 0.0768933868066195, -0.006563383577290252, -0.0007508281862167793, -0.04434457236279096, -0.0018456170678266865, 0.001599258500032448, 0.08071437670996262, -0.04015749245075046, -0.015664034985027685, 0.029505163875025567, -0.052863264719618636, 0.0736228318234584, -0.0020729987972308546, 0.019752658673588972, 0.02686768872036288, -0.055580927953596926, 0.031124748801173625, 0.06564163439120273, -0.0352683276208268, 0.028291201171963907, -0.017368997286397275, 0.006989839068325795, -0.017146691389169348, -0.08329070898221558, -0.05484661422301274, -0.0893936050225954, 0.05315493808190328, -0.003410335823949909, -0.07202300065564304, -0.013885234326739647, 0.02623637062528163, -0.0435266494416571, -0.021985142106827508, -0.060809676176823674, 0.024571359057853695, -0.05323096978321384, 0.06099704327921774, -0.0186412676148751, 0.07217116093956283, -0.040392303761002196, 0.053908146311913485, 0.018855051603932124, -0.05600536752743257, -0.0623701473060835, -0.06618716368454465, -0.062043862313557005, -0.038305728303502116, -0.002708484864917503, 0.06358984292416787, 0.011674167219188703, -0.030139144214914086, 0.010548850752575532, 0.03866546057432746, -0.0692674154411252, 0.012748412956658897, 0.03165112870125313, -0.037869698988427514, 0.08364095761922628, 0.05986977057479096, 0.0667232620621528, -0.06617901703477468, 0.0415319002253315, 0.07341001662425457, -0.04647994756370416, -0.007581144135072252, -0.030483095961649543, -0.08151496343292705, 0.043549929008472404, 0.006505801077418911, -0.02870473619998764, 0.0460643794666186, 0.03814928459966362, -0.031030963368339916, -0.018908577621319977, 0.0449826001414541, 0.06872726283902061, -0.06218576684513016, 0.01913541819923586, -0.00905777717554841, -0.05611522859005208, -0.021482414472149682, -0.0019391031907714236, -0.022489140737004316, -0.026695618660421028, -0.0711772668411901, 0.007833328626992849, 0.021576232545427114, -0.07177940619172511, 0.0011293325743461308, -0.050959976293175495, 0.06427666327001669, 0.03886051987060627, -0.07946707462288785, 0.05934556297421772, 0.051161158066429104], [0.057106917780164315, -0.04944935932185181, -0.01641250471909277, -0.022952254985648613, -0.0005266947865180402, 0.07075848571987484, -0.03252450045492228, -0.0201907757688561, 0.0304229147338598, 0.02787784336019152, 0.03474558660742669, 0.050965221185581666, -0.0783443364418567, 0.030096713051094043, -0.050739005831821116, 0.03360044022264565, -0.03256485118406683, 0.05547669601796203, -0.03641456265814405, 0.014953880125873582, 0.07568718774494655, -0.06988992171449514, -0.025104639374784354, -0.05429672539271608, 0.04565313489266987, 0.08017770737438669, -0.07197639417319318, -0.06171268934344773, 0.001014179239982123, -0.0563316457458986, -0.02835905065612264, -0.05779160156123007, 0.05491728923848433, -0.05683010916228208, -0.0018527025618284806, -0.07646245535105592, -0.04447885529809358, -0.04188072383077625, 0.06031187521927891, 0.060190998624986065, 0.011719476032146507, -0.0808207883524105, 0.07138614203382375, 0.017090557534060587, 0.07178210721203562, -0.06115372982541697, -0.05999866948723482, -0.043025403456367683, 0.04499410861079602, 0.01827236881911362, -0.03673751927087999, 0.012757915810608911, -0.0590885705727216, -0.046184547700253764, 0.02552555586592092, 0.08012988095026768, 0.004577790023826828, 0.05904626856889041, -0.06147919206226259, -0.0054057025855347544, -0.016493225687953212, -0.026747966983807533, -0.06649712247021179, 0.027504844133975154, 0.041882301295985164, -0.005261300381509191, 0.03534660667147017, 0.05292800206931648, -0.001867556147478674, -0.06696924107982084, -0.04382050113324551, -0.01655988016964201, 0.036989866916230726, -0.04544565870244144, 0.07265684891963131, -0.009343622803438315, 0.0383954748697281, 0.044701601455857366, -0.06859819188068454, -0.025977985815955718, -0.08026041975436328, -0.028825493212404307, 0.053780595929718296, -0.028807755146131455, -0.03947487612540577, -0.002152661599060278, 0.025270323591337875, -0.018108192338136275, -0.0373269226782393, -0.03836005551576241, 0.004317166114191198, -0.016066513697843007, -0.08368601481040704, 0.011136815240668098, 0.026162794268546403, 0.019261982805043657, -0.02613854555061583, -0.040769691629931125, 0.023085114219683768, 0.08483512885963106, -0.06599651143314546, 0.008229606639570099, 0.08110280046405441, 0.054301184407412, 0.02158687709613217, 0.019954351701359153, -0.07087960020907864, -0.07657114236927573, -0.03406478356225963, 0.06099460483540993, 0.0008514034531883337, -0.02681008285387203, -0.014846989649375286, 0.027955556740603956, -0.052195056608213324, -0.046896545369953156, -0.006212491593475746, -0.04260144758846598, 0.06502253929043404, 0.049061944080930134, 0.0379080062540667, 0.026071226510520677, -0.012583911436658133, -0.007025376370018152, -0.04945883685544503, -0.04513266783367652, -0.0029528582764268988, -0.012451938310356606, -0.05118087351995415, -0.05124669751645347, -0.016284037351017723, -0.0788291783617918, 0.017200734674953665, -0.04148586541587884, -0.021347910695150737, -0.03857231172405611, 0.0036088727076407914, 0.01565988795667419, 0.006263922910577935, -0.08139221257361398, -0.02824828357032352, -0.07550897188377653, -0.04921237050732613, 0.010352704555336469, 0.04280617494637244, -0.045545242874787825, -0.024841249792192228, 0.023426510716013076, 0.006279813682086767, 0.01013993214398999, -0.07772472523582542, -0.031064354889765753, -0.09693346822904386, -0.05260606230478571, -0.06366291702150816, -0.08421305655340583, 0.017812086190991876, 0.038638638107996365, 0.040582266619924784, 0.021752804824031826, 0.06538525698892401, 0.08843268705953816, -0.04978711344615786, 0.0784070270279854, -0.0682087976123514, -0.007057837437912615, -0.03293169017195055, 0.05570244545402949, 0.05585098658349364, -0.016059463930851996, -0.06996264155964, -0.026314554787320265, -0.06387341494448971, 0.028724876727020003, 0.07681454611942909, 0.0067336246575333105, -0.0027488305042756064, 0.006807717783406272, 0.03189655885679325, -0.05077605061917994, 0.0165020699873403, -0.08815013563857999, -0.0401058418562259, -0.12212006812808048, -0.06534664360751379, 0.030793614496064645, 0.006640886298260362, -0.019140399710332823, 0.016381767780134556, -0.03429990920022874, 0.112393790156444, 0.03045449183322196, -0.04473154087438613, 0.034241239328998356, 0.06876182707842006, 0.019477183985625084, 0.01525256637529835, -0.054650853613916965, -0.06090778989542912, 0.011585923613337254, 0.07962668439145534, 0.08967552513905004, 0.039584723767618714, 0.035854687349394336, -0.02511463323950676, 0.053634519818546306, 0.007502530094775728, 0.05102929224171403, -0.051975428571802214, 0.035592408829502035, 0.023691440688458097, -0.0002603991949032339, 0.014501192956895326, 0.0020494457557917217, -0.03888931619648151, -0.02832642901653438, 0.0282814086646116, 0.0056691654592854485, -0.035749444487097624, 0.08282462852584097, -0.023237864789712993, 0.08762310215361395, -0.019689261910776114, 0.07457440638122978, -0.07442879209579296, 0.003058919777298015, -0.057372825086533234, 0.003879253810457725, -0.0005459139485415087, -0.06422627380487878, 0.0719399878405857, 0.0739456049881276, 0.004445797780246668, -0.05807393892620353, 0.006604142886835895, 0.006663070648776856, -0.026196753087130036, 0.049891244969983095, 0.05100374651033035, 0.02534349551821296, -0.040902012211764247, 0.051404240827904506, -0.03973060054816951, 0.06763705021127568, -0.01269427720157094, 0.08023023080194129, 0.07625034269397477, 0.08053720439652029, 0.06141351736823849, 0.06599472604665814, -0.07471515649988887, 0.04955469337962766, 0.007938762950576762, -0.00938038322830779, -0.04565513853330399, -0.06736006427003197, -0.03682816387749364, -0.060628315056787195, -0.01256325110406001, 0.08762923709417664, 0.0509613499372162, 0.0571064221747676, -0.01466042886082626, -0.010100402999773469, -0.02512104557527922, -0.001027670586906399, 0.05583411740146569, 0.02103811721355959, 0.024270229751514487, 0.06700446232018237, -0.0362157272276436, -0.09425466148327526, 0.0009262104451513766, -0.05894989346228059, 0.09403885322214166, 0.0020083205448601016, 0.06563824102247406, -0.0021869186000288985, -0.04038658190943236, 0.020008631598850656, 0.06816620117561453, -0.060055872844953694, -0.0337381341967883, -0.060477115697611494, 0.07406158827099826, 0.057424767385922455, -0.009520028005062079, -0.024635172833201734, 0.09769657641537109, 0.03279167695794449, 0.005751091467836865, 0.12399548692290373, 0.09161918900188494, 0.05663292563758423, 0.1596056568351375, -0.008701741109655384, 0.04138406430322881, 0.01800774825884452, -0.055561181063122474, -0.0728041423328049, -0.02426255668356015, -0.04979671529090521, -0.03211015459752878, 0.011015633094135271, 0.017818838309423126, -0.045007671655482945, -0.02084875199366751, 0.04352479284618142, -0.05812678416409592, -0.03641493024472877, 0.04719395986908018, 0.038407362401526285, -0.025387469361746184, -0.033251909300347895, -0.015485270620469454, -0.03139650785662322, 0.07878569942143829, 0.10049114726561618, 0.10057766157533705, 0.15547885278929355, 0.07212281744145821, 0.10765752140156247, -0.04218232858926769, -0.049939981263767995, -0.07390408451138054, 0.025151990061740553, -0.09034602842118988, -0.14729741153623166, -0.006565587627995015, -0.08242293139292543, 0.015773446542869822, 0.08697917727191806, 0.04564645208316237, 0.07308187863649312, 0.036094631056882265, -0.01476546174251289, 0.048440866947246634, -0.015603834561232027, -0.006411593412612017, 0.014756009514618543, -0.015848486824291057, 0.08475541013049118, 0.03769653356128306, 0.03887491296107576, -0.024963067442992898, 0.036203555090523885, 0.018678760329711934, 0.12825205045971444, 0.1401497885538985, 0.017475550875650697, -0.03194829033015504, -0.15552385832698082, -0.11952991652229593, 0.0012071152155613784, -0.10856811753907708, -0.06973309784715284, -0.036877978056261, -0.09096535027551962, -0.034545744641104416, -0.003010464069180981, -0.040389166188417244, -0.04188149686750303, 0.04948288181788427, 0.03513325750400537, -0.045135635763733896, 0.0599537378897715, -0.06842722584342965, 0.01119773655751376, 0.025853679281983004, 0.038509534517791696, -0.04714750941359666, 0.0372405264638885, 0.0807631073495078, 0.03085261160664778, 0.09467238836665315, 0.13228560369234696, 0.003774184082868671, -0.08852411936494015, -0.03347914105407334, -0.0733615964160497, 0.03354268743994326, -0.00604492870902648, -0.033315613365790434, -0.01696293373768644, -0.1312154736827094, 0.022922188539989497, -0.08333581718226335, -0.05799854268751225, 0.0692274687923536, 0.03193328942765711, -0.02914664155769978, 0.05452959278380535, -0.044926104619664814, 0.058727444995045314, 0.026739970358400478, 0.05212614427849378, 0.06359765136359667, -0.045729029206145355, -0.06679448234850355, 0.03794134520051503, -0.0323366481802367, -0.04399442197777635, 0.08136430877552564, -0.06002049954659638, -0.03503050991361045, -0.05249853773523196, -0.13710201605427183, -0.09260461632471575, -0.029742521646437522, -0.06367542135111304, -0.0916889448849841, 0.003078513226416167, -0.09024423029658514, 0.0003678091406229508, -0.04794712682173881, 0.047982222577007044, -0.0499371210404386, 0.02867813128007713, 0.06510025413170192, 0.03687170137152806, -0.051171901998247296, -0.051043748492423345, -0.06111847432474649, -0.026205309171232403, -0.032755475212307775, -0.022576634374330717, -0.08597588316151698, 0.01717246818025344, 0.004843636257632839, -0.072813272190093, 0.05394160462412482, -0.08621252425096192, -0.005476793358353947, -0.1076871348562492, -0.05659585601159318, -0.0803964332121135, 0.02683755954512138, 0.011702810327721498, 0.09443839679206978, 0.04855518854143742, 0.11844258653629923, -0.024818281381360552, -0.022705830406128252, -0.043948879046806215, -0.05095823437423183, -0.006539780843491855, 0.07201524906929448, -0.06447375253531723, -0.01359704854685307, 0.0448164915766489, -0.024392424715715854, 0.005319653787534505, -0.019111598148254066, -0.08084701755532367, -0.11687623478898082, -0.1475269444378626, -0.013392401170807975, -0.05677870024386823, -0.10322485165691518, 0.0060565327966123125, -0.06663089889341947, -0.13597235506892671, -0.1960701464338745, -0.08905575920065435, -0.09558933279752752, -0.07553590753455869, 0.0036549042100661867, 0.1158265154296485, 0.0972084464499378, 0.040708618031411174, 0.07171942365160215, -0.049335029385983026, 0.07023282326951308, 0.02473045162105237, -0.01476520598396548, 0.06905087820143518, -0.03394906588282842, -0.023493768684215193, 0.04140010988738228, -0.032887851871235045, 0.02086007145448729, 0.02506841650435818, -0.09848770739177651, -0.1254165196552126, -0.12507180023410147, -0.11936046227516435, -0.09071667200067976, -0.16684977432803139, -0.08950376821173456, -0.1704461349877722, -0.05956916031463251, -0.12598112594313016, 0.027187851723270973, 0.07361211515389399, -0.028027278856481815, 0.08880574539453631, -0.026205027670806253, -0.004302955864045669, -0.015250725068487262, -0.08206288031646115, -0.05412539330703545, -0.06597642484293222, -0.012495015188123243, 0.059507082986887706, 0.018024531116124832, -0.03843532221992441, 0.027543793685300966, -0.03075101102021887, -0.04937152877298267, 0.029756736175256097, 0.049036484734912934, -0.056216567678611024, -0.11248464053040479, -0.058012075241141506, -0.14195607070641278, -0.1474475849442874, -0.07258936651663016, -0.09607153144752245, -0.08170577052507079, 0.030792723972295547, -0.07215108801200641, 0.06980817534123857, -0.014082697168781707, -0.03222724785255271, -0.04796559759890729, 0.01662561995740998, -0.0503439856447762, 0.029533625901232742, 0.04642263017175505, 0.0018750747910574518, -0.08121556324062475, 0.047836270139165346, 0.029696465899058725, 0.013463038841540528, 0.06635672656621439, 0.042390990965454664, -0.07326760005094898, -0.01289286879307987, 0.012512516677009113, 0.0462024555643491, 0.024730268964464012, -0.016513735658378596, -0.04307043012183466, 0.02264263980726304, -0.0557934562933256, 0.021255294687615577, -0.07587555696110834, -0.07797753473243936, 0.021261270629467414, 0.053825702730977615, -0.017959906669558916, -0.05037106546722508, 0.043031110728059756, -0.018002730660205166, -0.0022687416878483403, 0.025197351405639914, -0.03493357342310483, 0.04987078120097009, 0.06489480174247828, -0.06736728240562456, -0.08135826771326932, -0.03965491498564171, 0.004590497616253457, 0.06913181631814379, 0.05263544735496518, -0.010308049732398569, 0.047407963852347766, -0.046533260275876884, -0.04887761427038042, -0.01400018799081481, 0.015409027523287844, 0.004563209849297236, 0.032569079366095, 0.05968500084867983, 0.06877141520504279, 0.06533610003855997, -0.05716083357091009, -0.03398095612018441, -0.0038527696011348297, -0.03320601478801126, 0.056384518270095614, -0.047856835018544666, 0.01819475459405342, -0.01659157808269742, -0.07863787972191663, -0.07649536844033684, 0.02504249012693092, 0.06073025947920675, -0.026370503971418182, 0.07432152444179625, 0.029436096162466948, 0.08129401152731042, 0.04960457341728514, 0.06401034225199577, 0.06308096350134812, 0.020043936199738568, 0.0738108626195147, -0.07452273028119481, 0.08584142380152308, 0.08320391837064336, 0.12661664749490958, 0.03287319144574496, -0.057487485180172056, 0.052314598601459594, -0.05846349730334948, 0.01986255912237053, -0.019356407988362627, -0.04628623427258461, 0.03172853445506761, 0.031896565594051046, -0.028265329368526763, -0.05129142151044239, -0.07191689307109175, -0.01767994582699683, 0.019029275983838932, -0.0033144009470079923, 0.045490424834777936, 0.07628697939852021, 0.03154453155237758, -0.018849188607961306, 0.07514168726231134, 0.012099472262873568, 0.057738150806431736, 0.023114772820388534, -0.02562530233776139, -0.0389201216888237, -0.028025884182216715, 0.0634296213879139, -0.03526633847088453, 0.013132690998228874, 0.10400911334113218, -0.04631683259957637, -0.046607739115084014, 0.05795155796324076, 0.02696547424461558, 0.03490234960642972, -0.05014900171675538, -0.09860743168737864, -0.07920213630622298, 0.01814655526487306, 0.02336591200929495, -0.07214902823685797, 0.036195992773118524, 0.017411163460641182, -0.058768391431051864, 0.022686619533372993, 0.05888052619418574, -0.055888785217592475, 0.07252151763669444, 0.013031407803327733, 0.03535178228795298, 0.06673209557468951, 0.008000336237713575, 0.08581674102742257, -0.040179923312410215, -0.05243032010720797, 0.054004601635610106, 0.013634876602213755, 0.02903053712787468, -0.050363319472394516, 0.058710609048821874, 0.030022486978595664, 0.039863593030298086, -0.016969096058164542, -0.01777278243918971, -0.044489642711768314, -0.06179879337217303, 0.0511441416454617, 0.05652837771328792, -0.03775223275401406, -0.04153373660745445, 0.0018793960832752068, 0.011990128260585107, 0.030030486450867713, -0.04591019270599489, -0.024480200582177838, 0.08633901197177375, 0.08576501929832585, 0.09729184884708654, 0.04768025831279041, 0.0757242884516715, 0.04925048203594451, 0.04905874325213138, 0.058758579422620916, -0.06817667537340238, 0.01227621364926967, -0.02136275377331536, 0.028582372983318758, 0.0412331905301777, -0.019992627328131545, -0.08165572190989755, -0.06547013520617638, -0.031405426293186586, -0.06406744643566532, 0.028178658279441198, -0.07069476675470109, 0.0416177482556479, -0.0050762681661591525, -0.04251036988183936, -0.036393930195866904, -0.037060235185360925, 0.03804333069490516, 0.007828712394790029, 0.01755037561863446, 0.040078149410332255, -0.0712501378321946, -0.024240872368681166, -0.05441995801702547, 0.03352001508397184, 0.013400212792059406, 0.06204153023115962, 0.08192141157213977, -0.04578171973123677, -0.00014154653580788357, -0.010638355298970371, -0.02343576512574197, 0.05623103719177609, 0.07741178517322489, -0.004804367376197231, -0.07171530105214301, 0.02054307559030827, -0.0882221171758338, 0.03187887430118923, 0.012510698710857655, -0.0073276620464718025, -0.06296528423128869, 0.07427811365330511, -0.07265791453514327, 0.05588862325270583, -0.013069109534559878, -0.06641415402064145, -0.0007917951685055072, -0.0015051534049088202, -0.04180144127585503, 0.03143513515408499, 0.024882296404267704, 0.08217595529351868, -0.06548265997437151, 0.02679572928980394, 0.0144143931772129, 0.0007978988557890873, -0.030053031151272537, 0.059709552659761495, 0.048604088430877906, -0.05721701115666422, 0.012126138430796208, 0.023838454081389147, 0.011014398418854711, -0.028030230073562125, -0.033314179306312704, 0.019989720041908875, 0.010447487646116721, 0.030081890931461103, 0.05505050633130038, -0.04463335571389282, -0.05145727446704302, 0.004959459919586946, -0.024626955120601892, -0.023208996202672725, -0.0774291235108903, -0.02907835852260955, 0.04320720027785347, -0.0738132389706517, 0.0734363214051091, -0.03651521748567144, -0.03875016941147404, -0.007595914032777079, -0.01621127054120037, -0.053929772093870953, 0.005037495337563553, 0.019006511742342615, -0.053341450497612734, -0.04085795923375238, 0.05194409645148041, 0.0719834141656042, 0.03377520543031936, 0.06719446899750776, 0.02687972961101625, -0.08034350966673294, -0.03679990281518483, 0.07031042247405299, 0.02395260379068934, -0.009197569730857945, 0.07093241538165881], [0.009529001974851955, 0.03458555905030852, 0.015007428908193588, -0.08005803412733074, 0.05868280451341296, 0.0021683856041883644, -0.0168259367266591, 0.056620074451677736, -0.05495705247068029, -0.04841437303789927, -0.0036592266156584416, -0.03402948083827496, 0.01995177934622591, 0.021180590748747778, 0.025966188327776373, -0.018243295084797526, 0.04383221984624347, 0.043877502084526655, -0.0011775155143936339, -0.007133582485087923, -0.058801862848027485, -0.06042648280412227, 0.0007417989199711255, -0.00206974445880216, 0.0045752812397740344, 0.043587283490012375, -0.05618878112510952, -0.08163367250541281, -0.05036237405562195, -0.013142555194143217, 0.012697858416381954, -0.0008324336720226472, 0.008922319507462948, 0.08047490143095792, -0.0467168509221379, -0.012468888818553743, -0.020942858766247425, 0.0735724084648596, -0.07511972713247807, -0.0386947214186905, 0.0552794058905394, 0.00858465813808646, 0.024315692746579836, -0.07141963288382983, 0.045435377672967146, 0.03000824890390934, -0.06909226410536956, 0.07738634622756504, 0.008642948869009242, -0.029686181416860122, 0.055745085373690544, 0.06399972872291348, -0.03358022786962896, 0.027646361282007544, 0.022650936086310434, -0.0672040873134513, -0.04927136114253701, 0.05165977335357556, -0.07237491900928682, -0.06720885359915829, -0.0034845105509842024, 0.03382427774708207, 0.03249895273876324, -0.061600350463438105, 0.06116219563731952, 0.039898753702474525, -0.010680649356948742, 0.08601847190570151, 0.03730462792079103, 0.07037338707431862, 0.024669627291573938, 0.045856089047055966, 0.045736686099375694, -0.0367882367406583, 0.03673861261539161, 0.02927832256852866, 0.07082053395319952, -0.06381149465176077, 0.05286065373225418, 0.04723381593312044, 0.0014356908911444415, 0.012128732250486827, -0.043794909198422334, -0.029236006913951357, 0.03742896792335016, -0.06664342935660335, 0.06394093831703909, 0.03805968214749581, -0.055937313830409285, 0.07778007868688959, 0.046635261054159265, 0.06799801152345926, -0.01130182544145974, 0.023853143846399104, 0.049654220996826745, 0.09642639827460799, 0.07373314098657084, 0.0031020907710031646, 0.06021032352000403, 0.05777365949231152, 0.06670295767466831, 0.054557062955269305, -0.019750097354506797, 0.11475349892116264, 0.023921094962126563, -0.028936470232616588, 0.0814592661483989, 0.025924766683586335, 0.07291020646178999, -0.01729464743403569, 0.028091255059895542, -0.06926537560829638, -0.045195262554158074, 0.02779459247642654, 0.07127913127434933, 0.07949419741881061, -0.002385454990863755, -0.06471014985920359, 0.08681227495978923, -0.05228320917090449, 0.10554915426808627, 0.11502374342079486, 0.056931346677729366, 0.11724976771607608, -0.016084079928091456, 0.020419709083710175, 0.08662542884868912, 0.07471796301688946, 0.003673162426751022, 0.02581304083011297, -0.00354721830629099, 0.014635670133196612, -0.04926368401528983, 0.07204554746968357, 0.056595374093662984, -0.054609392208303305, -0.06942525151613407, -0.0013222787132694926, -0.045093161079292815, -0.010494935549342527, 0.08012215165616471, 0.03372898251103148, -0.049117865071778774, -0.018184454977465257, 0.04457519645537824, 0.024233000954328756, -0.06556540781177148, 0.08800434212797174, 0.09441269490478504, 0.09828521867126778, 0.02083097574025261, 0.03062563964967455, 0.13617931385078225, 0.07548441727318894, 0.10938251124327333, 0.01864583791161429, 0.05568443802931081, 0.07896917348312706, -0.013400730762128712, 0.04413339900097248, 0.10231447669446256, 0.07630535132178565, -0.00028665682650715394, 0.04618039984406784, 0.02670175996621705, 0.07005224041942675, -0.05072530191546877, -0.01858907271543069, -0.05734343769606239, 0.014055995937181211, -0.07002804539670977, -0.040711181602928095, 0.016002781868538186, -0.03885760281692409, 0.07637677731509716, -0.004589085247382786, 0.025058568632850702, 0.05174490740523424, 0.05357905463094941, -0.009919057130244135, 0.06062814842340149, 0.10370459421314204, 0.10890425973591605, 0.07328577165646903, 0.041631882930363386, 0.04530228239655334, 0.059472503185260456, 0.08405343272333503, -0.07365643741546603, 0.01806219279892578, -0.0330697281228677, 0.026243392356655237, 0.038592639843969996, -0.0070170547087632755, 0.06794702097935673, -0.06306672574670938, -0.02981869494942808, 0.06836216818256709, 0.012208442322993687, 0.00032925127158087446, -0.048383586949133715, -0.0632266547180017, -0.08371129848687532, -0.06731879927724459, 0.029246832501745503, -0.06526956491092029, -0.09544727962364778, -0.08123198876550394, -0.04725478048303689, -0.004240521500756517, 0.11582883114519364, 0.11258405161156532, 0.014123129070615203, -0.07384465350736362, -0.10778685586762118, -0.12729352405514688, -0.0018414559411882975, -0.03444711950721193, 0.0030272391052041784, 0.06137312718772929, 0.01639148640621014, -0.005168453708348421, -0.0028749952305050287, 0.026147016167532434, 0.006903474241681636, -0.08297288537640941, 0.06587414801919332, 0.03990838662443103, -0.01274675551493146, 0.0499827523593885, -0.023119989183699837, -0.11134995276368853, -0.0492523885081928, -0.12970723254681132, -0.024823754832256913, -0.004904950299906322, -0.055531348184359786, 0.055139445013479144, 0.005092973824041069, -0.07974862174968261, -0.08036725392129736, -0.08401493073307906, -2.4365445760222403e-05, -0.01932086881887559, 0.0005921987851246354, -0.0974661660560575, -0.04443583296699731, 0.013970554475014392, 0.0718227934256479, -0.0034226874975460527, -0.06418952607361277, -0.02833553553801758, 0.034617992671200554, 0.020790714633644514, -0.04830215332040129, -0.08830615497276989, -0.068195398160306, -0.01869736399187413, -0.09061074833478214, -0.05679168338452029, -0.013740389651950282, -0.05854778196086825, -0.008357016533272914, -0.004866470643175504, -0.08423130382385105, -0.13638042426462577, -0.0504000203180099, -0.13193060536115905, -0.16696315633902276, -0.17101222764383214, -0.18832949953566808, -0.16235471545752891, -0.16673302453180522, -0.03879667637490196, -0.03573614315327429, 0.04230414504895928, 0.05240351088342361, -0.04678755918583225, 0.027017499977870046, 0.0732629459868792, 0.0231369389646402, 0.03981191088064095, 0.06574369446330024, -0.08703859360562262, -0.03942528258103186, -0.02592576680114821, -0.03451687111627874, -0.02810487737245519, 0.017755304978732647, -0.02814372152021714, -0.09696217993767269, -0.08739745166025625, -0.07206384843634343, -0.08782203065662118, -0.021598712906660166, -0.13950992047270508, -0.10403663361115131, -0.07686946189213621, -0.19003883981569303, -0.029215781138653366, -0.15126914974273845, -0.09993066677916539, -0.006211496619921166, 0.05080820916289427, -0.05395692468224836, 0.08011363156577538, -0.01950526332366352, -0.07223216439480133, -0.06185983995630644, -0.08299210617554768, -0.061540518573383926, -0.02815463516519467, 0.027663773847883488, -0.019714564571331198, 0.044487417100733465, 0.05206931567275258, -0.07358319665681773, 0.04791637673023399, -0.0691040171809885, -0.0538581748273825, 0.04848957568432538, 0.012120923886735342, -0.043387485090512455, -0.012037292154065066, -0.029763270919386152, -0.085799078218272, -0.13242580077845256, -0.07535585294554746, -0.0514834629109022, -0.10314487605755661, 0.005288182393292655, 0.0077302996472898115, -0.07288104329656823, 0.04700132832831058, -0.06252954310119452, -0.06732983081879762, -0.02328455517692023, 0.003882657438271899, 0.009753154798740915, -0.024459937886426343, -0.02009979944544424, -0.0435374381466195, 0.021095713721587687, 0.033901595062113515, 0.04910741487394721, -0.08290656968259985, -0.027005472821858785, 0.11766527829741016, 0.03528013269243425, 0.18078648831388794, 0.17174286586268298, 0.1295904442462603, -0.04020287056316051, -0.060542455291247556, 0.032807834958247115, -0.05152463023414986, -0.10598064479813446, 0.03081946621401375, -0.07636237328894724, -0.10580806798291535, 0.06489375574244109, -0.025858252591983752, -0.060371123350824764, -0.038905720516626593, 0.08226999677497308, -0.05326984660067333, 0.04135811063205894, -0.029286175292802086, 0.0461370912806794, -0.004371692945341263, -0.013813120263873208, 0.029434659838149538, -0.014090197619869588, 0.021600136869686568, 0.08541384449839307, 0.10746234252984856, 0.1677713446391063, 0.3123932125978835, 0.26262421135286285, 0.20964859315800918, 0.04959271836803685, 0.02579255216068341, 0.05727754997933909, 0.021769224360212912, -0.006171734326776936, 0.03909275129956252, -0.09364782103713441, -0.11443606669527229, -0.036798888696562865, 0.03751421486830032, 0.047748381426892646, 0.0603082223646552, 0.002483833827666768, -0.008128799281853321, -0.04564453540797221, -0.01094941514511313, 0.008077465573404968, -0.02904397382465214, -0.009049869907953825, -0.045370008406959206, -0.022216167544181705, -0.011551548798480683, 0.12535898452026362, 0.2236463691056913, 0.24818581640839502, 0.2899774519092248, 0.16992750111390004, 0.1087879025685778, 0.15307324771277495, 0.17789120748452072, 0.024116614407819988, 0.061351214357519605, -0.010316460958504818, -0.12601517640266383, -0.10876118597475898, -0.03791011731444654, -0.07333253645797017, 0.07409878490362716, 0.03919486191080179, 0.016634524122515645, 0.028860498507305182, -0.002088168247516772, 0.0692903714260174, -0.0738891615042943, 0.05923617384719648, -0.03466837345684283, 0.008596906445922146, 0.00997865916621174, 0.021083500206058585, 0.023054099747626167, 0.057724541736999195, 0.1120997359226862, 0.26173972020502484, 0.1694368286671488, 0.24368976024723255, 0.14826581847643336, 0.1609329069140576, 0.14248769504191375, 0.06329034127039405, 0.03083171270713121, -0.09703163409141156, -0.08754240617692138, -0.04645228494091774, -0.029028457082142255, 0.03908890706587667, -0.043281912249024654, 0.030082232280273645, -0.03881319124361087, 0.07491895363458378, 0.08059313380879832, -0.07649487090915259, -0.037268998963704156, -0.06711249104888665, -0.10021475522458571, 0.02124714107352163, -0.08860079938982363, -0.011539551267779924, 0.06096821506960705, 0.050114221642091124, 0.057132684773239864, 0.19318005033302585, 0.19276176244151882, 0.04410858929898304, -0.01969814450974369, 0.05678416105546128, 0.0349436754116046, -0.016856447923845334, -0.10655750846109027, -0.033234994633944366, -0.1183319064253505, -0.11539910161646395, -0.0015775090473017707, 0.0076099052861894, 0.0042543089832588225, -0.011627419996629886, -0.020514383155831276, 0.029433777668062343, 0.004239594415104617, -0.08227655609773143, 0.032329556060892134, -0.009021021529307605, -0.06512177180400142, 0.0009724711614728248, -0.05957634099553537, -0.12504958629165971, -0.08846615799063291, 0.017437519149619295, -0.0003494800251447159, 0.09462927612037897, 0.002216023284916291, 0.09220320403435478, -0.05557623677664663, -0.006886565674174764, 0.019734785678026272, 0.019856090294532093, -0.025736456784211943, 0.038147224629916314, -0.08529666838362307, 0.048740741522348335, -0.036143049032236904, -0.058353553255350646, -0.02390115316072965, 0.042001729759325215, 0.05979592509306683, -0.010988939463377295, 0.05945842052737644, 0.0793827204185823, -0.048662782209729596, -0.04145870986029243, 0.00856700485635865, -0.0212203550652993, 0.003734030947137942, -0.020188280389743185, -0.08876764099134699, 0.03575142122741354, 0.006362016161945995, 0.017256473952328932, 0.017300757070151034, 0.02256285456071081, 0.017254284723478577, 0.16310870159230756, 0.027443121551981666, 0.04803671231056722, 0.09139385725890578, 0.02388404474776533, -0.0593430754586446, -0.03781324141169842, -0.037972941910794394, 0.039986702046385186, 0.01720043064464852, -0.029896169511214335, 0.011845661012949094, 0.06908020771907045, -0.0634576406081474, -0.08433644721964667, -0.05774192657029504, 0.0010025644444746967, 0.10074010101649691, -0.026883884650442356, 0.09630861074605136, 0.0683668621821663, 0.03285331569591231, 0.10926685584572261, 0.11282363497901488, 0.04863836046519591, -0.038944438105185906, 0.10659457665850132, 0.10208484547702716, 0.18131057974943368, 0.06995324150965213, 0.04348183479579721, -0.01713465864776564, 0.11902407373740802, -0.02395011638039819, -0.021680488196614882, 0.08477893336290587, 0.06800282811711954, 0.03476930997430745, -0.044498045910517404, -0.0007175957916308347, -0.053524598982493454, 0.06094587349300448, 0.0015254421691115868, -0.06885567241522153, -0.034775149922307985, 0.09503687865031941, 0.02314594834379207, 0.1561404443325185, 0.12301144718747192, 0.023521592215730275, 0.10539099860273062, 0.11679101476596412, -0.011781602079780153, 0.07903592360202366, 0.021509369176924066, 0.09209956768152353, 0.11166147179233833, 0.10945570352922081, 0.11515016388907037, -0.013775934740268935, 0.06373947532124277, 0.0019538513239025744, 0.12088775035182056, 0.04010877134185234, 0.004343707892620624, -0.03774459579260207, 0.07160931629792744, -0.003950659947526746, -0.007298422840661721, 0.029368855052498442, 0.03416660869516056, -0.02927514335277293, 0.010150079103754178, -0.005686422508323793, -0.0038686283281285255, 0.12550545237839023, 0.026773841825613945, 0.0364952902458455, -0.029300350205103735, 0.022165561145135983, 0.07458896103443521, 0.1286389312989695, 0.06367590764693322, 0.02220693422825255, 0.02966359571338215, -0.021531405007172592, 0.09497400849728496, 0.08730261594462638, 0.060780869076182964, 0.03357067636839864, 0.02978787810097313, -0.0002843409628216313, 0.05991377102160485, 0.03655612978773221, -0.033541213088886815, 0.025645379487222026, -0.059115117816100765, 0.058393238025239456, -0.06089997229933958, -0.0022156465987037592, -0.05743875124117858, 0.03188786117278532, 0.06591471445958243, 0.01701120759557448, 0.06428351010296221, 0.010101734407287188, 0.0624025204310148, 0.016248037998467926, 0.016784810809372823, 0.04315469330424926, 0.05165646508678455, -0.00475460707128386, -0.05039237207092593, -0.04099298075355153, 0.042734127845633116, -0.015648388028482414, -0.003602905807109918, 0.018751179296067642, 0.04370545735258908, 0.05316423894068348, -0.011358092318866257, 0.07888543383422036, 0.04961356039526873, 0.034387422715854266, 0.08233923369621511, -0.01444021383967707, 0.03025265088891775, -0.06918143520756469, -0.05872963333635598, -0.028195109601213728, 0.04631880677591828, 0.014918655915764946, -0.08135757359866554, -0.05974518406979115, -0.10799206511476554, -0.05072008304511655, -0.005522544169601089, -0.10745783672865176, 0.02544085292191846, 0.004814062620126447, 0.013804327301333899, -0.017542095908489992, -0.04115338131440199, 0.1233407232484394, -0.008914739747107204, 0.025391506713188152, 0.01772767531022147, 0.059887208938006566, -0.005546505619472749, -0.008030645440884518, -0.07873067241447713, -0.046871965413538635, 0.06999548778323647, -0.005947165919046815, -0.05638341277884074, -0.00742994816859267, -0.008982619637468941, -0.07513018500733153, -0.021660886931178083, 0.005413997731614348, -0.039350751444867466, -0.12090286402980431, -0.013949200546181357, 0.03382915557923308, 0.05081215292138111, -0.04824931919089904, -0.07385816875851575, 0.003342056411328405, -0.062106315122024906, 0.08747973089058325, 0.08628255982396993, -0.027774254865466568, 0.003982310489790652, 0.04984162744415342, 0.021596335459051704, -0.053497871353715226, -0.003655532470947773, 0.040128436386054414, 0.03384307071131207, 0.0402846077095255, -0.04378154073462653, 0.03294063947279666, -0.05260845952927987, -0.04789630234126708, -0.03697621035585501, -0.06087661148437056, -0.01809266294192628, -0.07163300338119843, -0.10673553694853669, 0.025927066474242113, 0.001707173193965431, -0.06610490712359338, -0.09910071283213984, -0.0016246917665301468, 0.008202339445237489, -0.04480674129772629, 0.07164628704986072, 0.08534464721736364, 0.030544963213531222, -0.028358086091967712, 0.019786233950449754, -0.016484843615956875, 0.016920058527742976, 0.04083072076241869, -0.048705141829728966, -0.06781208470531314, -0.04721282877943623, 0.04427310519308138, -0.0174363400615076, 0.0715351869209489, 0.047346500226131544, 0.05109454847116192, 0.0490773975579021, 0.024225872731774907, 0.033885097306588396, 0.05139092543738998, -0.04300219018571878, -0.09943157127760617, -0.004466860997683907, -0.040163439859050916, 0.001011841209977296, -0.04195476907239502, -0.0871438283610343, -0.0032114862954589216, 0.04304851550339621, -0.0432425718306595, -0.011600270970200962, -0.045962726613483905, -0.06694445088693177, -0.07027350687606362, -0.05752029043082549, -0.023281974864313344, 0.04293017754488037, 0.06257668738711669, 0.04360785241629937, 0.03936126889023641, 0.047859811379901494, 0.03258017712495978, -0.052462947290763375, 0.06544324699573444, 0.04616237647240466, -0.05286713861875113, 0.013760942262730606, -0.02910147375509909, 0.0315905705496697, 0.040696695913662345, -0.08519224551175192, 0.013339784285306243, -0.015883795843977606, 0.019368066033270574, 0.050519049630290414, 0.036526992634300884, -0.04839285901321962, -0.04336287158532445, 0.04091334142570536, -0.017008633067131507, -0.06390725639140696, -0.04820436535153677, -0.027774567794600115, 0.07983730563099208, 0.07545975778135532, 0.07438087270505185, 0.03599047433096542, -0.07888346437168575], [0.08065026340636618, -0.009081269666299772, 0.02957172187002115, 0.07089229191309947, -0.07399018572911216, 0.022634694539233575, -0.05623425739994146, 0.07444731355419011, -0.054132721613013114, 0.03769652825729754, 0.029052816381702623, 0.014073823800430632, 0.043208877835405626, -0.07082569507159552, -0.07325014693037502, 0.02689964756769384, -0.030615195457546714, -0.010708856523208675, -0.017556478250331697, 0.05438173100002969, -0.06578451433278248, -0.008013901050796782, 0.022346947389705413, -0.05294007014714774, 0.029319924870944297, 0.03264116523589995, 0.07837967548997639, -0.019431707477154912, -0.011377041602211107, -0.014784822071857497, 0.053086119891857506, -0.0584963053488405, -0.07696051941780575, -0.06923555703018801, 0.04445443533878597, 0.07468719005520931, -0.04672633375465062, -0.04935772031778374, 0.0009239413126576512, -0.049251705549520124, -0.07777599485901529, 0.07782475855335894, -0.047689698512931575, -0.08243349431321487, -0.08305601339155853, 0.04401982058221252, -0.04853300752134154, 0.029125115357486624, 0.024102043778518836, 0.005884660190320526, -0.01346158299501837, -0.052113222789267506, 0.03655589636121929, 0.05474507394982266, 0.02528374348034038, -0.0656160950344384, -0.03459143180647979, -0.03182910345505661, -0.02428199685364498, 0.07435277628647612, 0.07193510772146015, -0.0793919510951523, -0.04736746218681094, 0.06451339019767063, 0.007605781485670109, -0.0820643262506394, -0.012523576882884095, -0.05999958320732285, 0.03217445984786535, -0.0844413686952894, -0.046141577103774825, 0.018435551110543926, -0.028966985576890262, 0.014719988636237498, 0.026052067360432484, -0.03365680756448862, 0.0625315122698645, 0.06175026262818028, -0.025628275310245127, -0.07813970891923097, -0.0363165245748367, 0.006779551045211616, 0.0007178821074847321, 0.005779200454790866, -0.035244358033904695, 0.04208647577700765, -0.03838766846353754, -0.029147179648127047, -0.02557940205719296, -0.016526383617692, -0.01474586021493715, 0.011567529698566307, -0.08439848276955837, -0.010904153962025114, -0.003756930071435691, -0.03276466068652259, -0.0009663585593714878, 0.02653410090863034, -0.10812288836451217, -0.08460388081725599, -0.013864690394390273, -0.03633298013075629, 0.040859381957412275, -0.07724132320348548, 0.05529254412946154, -0.04569520475235799, -0.010266490056733843, -0.06343185586727641, -0.027256035558075573, 0.039482654819286644, 0.03262115645646374, 0.012599829982493128, 0.04256571478443233, 0.08000309832419505, 0.03872785390174805, 0.05031557925263149, 0.0018704239845185751, -0.013848809713122506, -0.06790469615405294, 0.0169639131885831, -0.011274969528941012, 0.033676656118265466, 0.01805930454007188, 0.010620737948287233, -0.007323482379426713, -0.10695289909379993, -0.0060927432087187735, 0.011965779281827307, 0.051170038686594546, -0.07041964815913251, -0.05897739140532868, -0.04309237374041748, 0.049536892891642974, -0.010384436295500298, 0.028123091589663057, -0.01486580818499655, -0.055618022659665464, -0.05098114624466149, 0.05446917463901096, -0.0363811313998163, -0.04226908415812752, -0.015439618975975306, 0.018023516863190828, 0.02611531423324467, -0.026324759179878667, -0.05026415799287714, 0.06602457679705465, -0.023124705347978457, 0.0031687351399712713, 0.012217708652645752, -0.06947936690660764, -0.12423780597232309, -0.13947274304201351, -0.15596147878316366, -0.016266376088954874, -0.08049832572270468, -0.070282284127917, -0.05055389144884637, -0.0732433694563627, -0.08678517201130664, -0.05182443544157236, 0.013180428752499218, 0.03555263301895529, -0.017882270309345128, -0.021129042048444967, 0.03676435618426843, -0.02811749553605398, 0.0059951630768725625, -0.04812142256656096, 0.0319491028030837, -0.054242716337040406, -0.05725312292821722, 0.0424314640446105, 0.06932662997603797, -0.09138778419734477, 0.02087450748258494, -0.10303853522887887, -0.04634820694856798, -0.13813301300043795, 0.0037658640899520925, -0.05276132472764331, -0.08037174195410139, -0.010235393817289292, -0.014615500499159814, -0.07093180144065252, -0.08477561305852332, -0.07182911236734682, 0.00564260118287952, -0.04818565365344606, -0.0159425388040972, 0.00532672086466001, -0.039977317239288664, -0.019298133032868856, -0.03377448303383722, 0.049922609430966235, 0.01889325765987871, 0.04217661949143569, -0.05549786060051141, -0.015198710519958171, 0.0554657431542408, 0.041650898094837706, -0.026092117089704756, 0.05997503757202976, -0.007398319009000097, 0.01599874438113204, 0.025340268808755943, 0.007212390716046065, -0.004217615044279528, 0.05879007992851478, 0.028637771232428954, 0.10274331938293754, 0.12486924196334076, 0.06278232502658003, -0.02377957127908845, 0.023512365668744456, 0.011204983939384128, 0.05485015286726713, 0.027698123287092275, -0.1109362632855865, 0.04858690421477233, -0.03318701934215276, 0.06527579849498763, 0.07955383541904824, -0.002649695839558912, 0.027710481314313178, 0.0695274830749099, -0.07406199256001969, 0.048791162208851276, -0.0037252156256998123, -0.010085334416163664, 0.06283583401907981, -0.05955768564858174, -0.043622088434078, -0.05907143207468158, -0.0018966199043375543, -0.038980966137919834, 0.020387453000718876, 0.08241480020388538, 0.16364574334484366, 0.0851246311017143, 0.05681329285770416, -0.00035770569981493895, -0.03236054882823717, -0.09530847559363734, -0.09347660174419271, -0.06806910376504255, -0.025643940481411883, -0.10506888332961913, -0.021713427944414637, 0.06457217284049295, 0.05364356390004774, 0.022771768485472348, 0.051695701850317674, -0.030665254873274563, 0.06840476044068303, -0.00261650290312425, 0.06264542612510621, 0.030722854452305395, -0.07522997639360121, -0.031416048084095746, 0.03361031250747825, -0.017667182160725242, -0.0023946202949612803, 0.07889319377616172, 0.11992675041690821, 0.14298167547612173, 0.05621049539634665, 0.09770564819620046, 0.08435046131289618, -0.0026234942435604466, 0.019411375820310568, 0.01662981181298825, -0.08102127459251963, -0.07323000068973887, 0.028567737086616737, -0.09963058916149053, -0.1074926528574367, 0.051298068441801375, 0.015717484800881157, -0.020769649189274715, -0.04665169961677486, -0.05534855297560609, 0.001658521853467454, -0.04768629741311174, -0.012335217255223971, 0.0164925494664841, 0.05323661463951476, -0.03574999787214942, -0.06096579774951548, 0.0479369684978626, 0.029915416455589545, 0.02524408844877179, 0.06729046338530896, 0.09278043399313345, 0.10447783647870253, 0.050408536561652326, -0.03630778933621632, -0.11451039800181366, -0.054528567504072006, -0.01632972982334609, 0.008846213853851431, 0.005185528944393163, 0.006010809013367536, -0.09145528220835723, 0.02843444246497702, 0.04204716506461931, 0.07675704578664692, -0.07735050578058776, -0.04762547547201476, -0.018801524239649193, 0.0349374958684326, 0.040305909384070714, 0.047097512541294864, 0.06160546595762845, 0.016184779677519502, -0.03443666770128949, 0.030296387811449308, 0.06508622043028275, -0.03275362017199126, 0.04882446304849433, -0.0025485785430191623, 0.07292689391460751, 0.0678357143420516, 0.05480040782498269, 0.025253631147105195, 0.026482247447660673, -0.02979175397958783, -0.06752999915129707, -0.03560340066924486, -0.03762982572738478, 0.07438357111810491, -0.006492485819148978, -0.08340313800259876, -0.07839609615417373, 0.04891962361427947, -0.026423341878802593, -0.0690121695322641, -0.04333364472739953, -0.04385820539227926, 0.025314740178541576, 0.05867206959853224, 0.024024771809445806, 0.037065656747412246, 0.05530176292277596, -0.032888419251921645, 0.00486707732150007, 0.04378953566916707, -0.0195332559920377, -0.1056430867436632, -0.06140287285881891, -0.05014508020939963, 0.008352224507395777, -0.06790389824452535, -0.0078786114794386, -0.043330083952543084, -0.005773682428098908, 0.02900147135553404, 0.11625138248419771, 0.10517062746998697, 0.0035030196700468683, -0.007234367797867942, 0.0199180196061692, -0.07371335469664748, -0.04889735235660154, -0.013019947548372287, 0.01970620678720933, 0.07788785880865713, 0.0828045788877468, 0.009973683679430191, 0.09817279615350055, 0.10348228826226996, 0.072808966281671, 0.019958429795727674, -0.07874021090304971, 0.01596158680043359, -0.162613746961823, -0.20965417323921465, -0.04384585653038984, -0.01751534660980464, 0.0004454277644085794, -0.009433647507929943, 0.01618958554864419, -0.07920125625723642, 0.0007265726852978691, 0.07369503745792066, 0.09499565707603032, -0.021027248290621737, -0.11088265169132316, -0.01629475375283641, -0.003337560154715056, 0.01390266353110647, 0.05379737362786502, -0.04549295876289417, 0.044691163527994814, -0.010341900879296742, -0.03324252838001241, 0.021063885718346224, 0.0004966518989112744, 0.03852684753855326, 0.01405199947071936, 0.06325933459920545, 0.056534822854681026, -0.08325772179461367, -0.05938379081896924, -0.21195835653972808, -0.14078080839009105, 0.012571568396004757, -0.02527239083524354, -0.020887105532289715, 0.052911607137066746, -0.026061558352720827, -0.03103467878051625, 0.00818430854340935, 0.07141377840415952, 0.007267412061495002, -0.05175258807394034, 0.0006545317790098943, -0.04534087278895758, -0.035982488680824556, -0.06092169786392634, -0.060093458956893116, -0.07565084270912904, 0.01584371686070069, -0.05279975631862403, -0.021683659670005937, 0.014324750701620632, 0.11766802195574526, 0.03394412075156932, -0.013354106616847265, -0.08164330857321235, -0.078030456565446, -0.10326776406077148, -0.025738008886186513, -0.1290466808766028, -0.0601253093385617, 0.0479782979044477, 0.04796832220749842, 0.08087496531883583, -0.05313906946580199, 0.0352514769282028, 0.00041020214396509443, 0.06636966029461792, 0.053815384725052616, -0.054437122061480686, -0.009269756255082296, -0.0309364169747644, 0.05983123370850161, -0.08131982916799484, -0.05907431738949888, 0.07671849444215405, 0.07968676372274267, -0.08351834882234595, 0.055327063652162084, -0.05993234924968581, 0.08726596281525775, -0.001479550332798276, 0.0938083914183167, 0.07068268288331644, -0.047029649247765044, -0.08462971018934287, 0.016469802822901548, 0.0348763052009844, 0.0011805214845946861, -0.057400472856908406, 0.08579351433534776, 0.030620519983366477, 0.03697116826938988, -0.005891594023294069, -0.0016719141385620985, 0.027701675797057197, 0.027980172108331376, -0.09560947418941, -0.06702982834345068, 0.0189937611529518, 0.01611274821696768, -0.022178574362625925, -0.007057267516989316, 0.04444725523999195, -0.010888151996124813, -0.09067513635174981, -0.021034622869871785, -0.09184226970690484, -0.06385929805875987, -0.044741688368289324, -0.0407902863467034, -0.040724661031532536, -0.06149310331418647, -0.05892416557172894, 0.037597650745633274, 0.09580821092823211, 0.10607922286890324, 0.017299556744590182, -0.007786185895110858, -0.012266020950815354, 0.022962668121467567, -0.09954679795633811, -0.09828799232876041, -0.06412944398128091, 0.012743630483882365, -0.05162323660375662, -0.1205143845403167, -0.028126744400283607, -0.03755357607856106, 0.07002926180788216, 0.00716332916968933, -0.07535697999555391, 0.05656531509545845, 0.0679957029688168, -0.09000397028131839, -0.053284554653137535, -0.08931450482805617, -0.08271952118563267, -0.06919675565010759, -0.06608665081006278, -0.059682921704504656, 0.04876510740178572, 0.06454877762630827, 0.11596384791300378, 0.09064339690684046, 0.013383860834405624, -0.02177285580105213, -0.05146051025750803, -0.12875475982522966, -0.09776270426645083, -0.11572139453770976, -0.02023077800777426, -0.06919144327178531, -0.11373171441399296, -0.118264451504887, -0.07920531364216357, 0.07211498326008858, -0.011064432800494196, 0.05833051056954656, -0.054648989371161964, -0.03042789231662622, -0.02223509995394139, -0.061174229167821996, -0.07286492564827428, -0.14867233149922535, -0.12909078580718308, -0.12282041374079906, -0.1845269625692089, -0.12567152764375913, -0.055312599095174414, -0.05690498362330662, 0.05094919593590629, 0.0006400931162947672, -0.06468151392289836, -0.05316506464726514, -0.07202760307840762, -0.05553202340963419, -0.0906601127864037, -0.005328171312795641, -0.10017398588845304, -0.035952489597131994, -0.013973515586138798, -0.04130353548746585, 0.02245075084925249, -0.002976016215026913, 0.07083563372257679, -0.0009910086349835961, -0.041760739231409494, -0.045944971721929614, 0.023360424268543286, -0.033461308182979294, -0.09134871554572731, -0.14385552288708028, -0.1628039106665578, -0.0749261638641777, -0.033956049057439444, -0.027871403089089836, -0.05191251784848411, 0.025915024715650298, 0.04356394726393429, 0.03456761994986868, -0.03944967740194792, -0.03126807518078691, -0.06594119566831712, -0.13453848919737368, -0.0017251014816199838, -0.012918791082229998, -0.1238655965349525, -0.12342014060921683, -0.10381008944383553, 0.03310228611690895, -0.05359812919635026, -0.014893827605666005, 0.031435890283315275, 0.020623487784609602, 0.05347268032423143, 0.06376524820364451, 0.0289055916349086, -0.06800949654278497, 0.007395050349987679, -0.11794520776832824, -0.05495834619379569, -0.035583416435412296, -0.03156040575321573, 0.01248998653452061, 0.02473555910248171, 0.06598200714402673, -0.045749376887031956, 0.002866439499196519, 0.007997427715473506, 0.04308082006185473, 0.018544155713927823, -0.06053552619116483, -0.08479840741097587, -0.009183721867137735, -0.12337679831697057, 0.03986061841974098, -0.05874503395733911, -0.03137086215604555, 0.006282723717459926, 0.06294606323405581, -0.016022997075418408, 0.01642815583541232, 0.06898795492584994, -0.06900971382275024, 0.01714358597111627, -0.08779056164756963, -0.10852240123657556, -0.111005853496728, -0.08344957361919822, -0.00246509737008636, -0.08246881860585771, -0.0004859152987193371, -0.00742984119209861, 0.01616284952030579, -0.06520388164253652, -0.000645136738615635, -0.08589484829319909, -0.017049125923397173, 0.013743735706900628, -0.11920247557682473, -0.11657964303421514, 0.029245413625821254, -0.0016151641068625796, -0.0900040851318049, 0.03602738029583869, 0.004782689427857159, -0.044321378297433045, 0.07225106068326119, -0.022315238395758254, 0.0056160282710168005, 0.06875349126609798, 0.052068421839923856, 0.07051931520304747, -0.07591607959318036, -0.004956656459494526, -0.07259030435888168, -0.03233259132010386, -0.08671685861706226, -0.06344742015595352, -0.03981824803058677, 9.361514592069145e-05, -0.03961267541251661, -0.04926683770816729, -0.06741737887601057, -0.028424939934754777, -0.011747502057349632, -0.07648504782695956, -0.11765765456150061, -0.10340415886245373, 0.04476846744795741, -0.03483439547619868, -0.009106544743587314, 0.0356595940585527, 0.08142283544686862, -0.04561316668857268, -0.06580458462036143, -0.053891892920902365, -0.007274825208389763, 0.0582413310438607, 0.08027158109943784, -0.06165281537289342, 0.006816596916913487, 0.0132170137705271, -0.0582346430808886, 0.05723645198119553, 0.07931198703836283, -0.0025882363993426226, 0.04372237211627628, -0.07737092415000954, 0.001819847411577554, -0.020531443038097764, -0.04893213943926801, -0.010801165391696555, -0.04718876638273684, -0.03832407270361946, 0.03874822785203178, 0.08183871046939752, -0.024669124809747044, 0.06074532371644828, -0.03825104394220864, 0.02930605006945619, -0.054147510996297894, -0.06377079070946923, -0.005787547977744193, 0.026174672659478104, -0.05788891837738303, 0.04422154670859627, 0.034848532660353954, -0.0713483996344289, -0.0748453814882496, 0.04121551576097012, 0.05108117996232343, 9.775563371329624e-05, 0.02250308449742949, -0.012078475109401932, -0.025321044993524184, 0.03269832905889082, -0.02348330606500217, 0.08221939701197316, 0.1018638255517355, 0.053633608673656324, 0.002107695216633491, 0.019214588575231027, -0.009686233145811131, 0.059798575809851144, 0.04188882298338093, 0.030557028424010268, 0.04910263683692876, -0.01272505613050739, 0.07920424391887004, 0.0033796470523762465, 0.041991634459268026, 0.05593563350762899, -0.047091081761974046, -0.0019459920106672912, 0.03604921820374442, 0.037434890342992695, -0.034794928682537515, 0.03339834770208949, -0.031647455459345386, -0.054275760330623916, 0.08341107294206959, 0.0843846106480551, 0.09545221616672787, -0.03048528232266298, -0.012579050311614236, 0.11946160436398934, 0.08570179803564272, 0.08261531383263467, 0.002644362206485877, 0.007173306475364252, 0.02372746072112451, -0.06984140193218952, 0.08253060041604265, 0.00837200309000216, -0.05139603884528754, -0.008398927620701576, -0.0644382830805191, -0.012269216182392368, 0.006455001574017166, 0.04741620268054356, 0.052127484619350885, -0.010825759478304671, 0.03079609114351669, 0.01439380127984553, 0.057206310972595535, 0.034533080720736305, -0.023387388876226777, -0.014014061495421823, -0.00826445026899541, 0.024526868000983887, 0.031951779807418694, 0.0642535256139872, -0.03703656800790129, 0.004838932690350924, 0.015615038322210005, -0.0618486584678931, -0.02574507345688067, -0.06816804524559752, 0.05366975979265198, -0.055027014123533266, -0.017663621239356653, 0.0061763434589547665, 0.05414826870571547, 0.05984944634358019, -0.022164398677468493, -0.07533914415156283, 0.07552825791744538, -0.06649957486967067], [-0.008746180255737007, -0.07365273501916024, 0.003601416754728274, -0.06590780735704928, -0.020678310079283165, 0.03278541456458747, -0.017724809563930008, 0.06509924912566649, 0.0022138595883215754, 0.06078093833505272, -0.042380438404067175, -0.0438657276069567, 0.03963381228164917, 0.07551567301133968, -0.010098248845747698, 0.002128854806100149, -0.04789399250506702, -0.03125581590937145, 0.02189189109858817, -0.0017991069369090531, -0.017200360909523597, -0.07776033421480999, 0.025802428079513565, 0.010277639456037583, 0.02977518557681494, -0.03276333370210403, 0.009338138045376915, 0.017126405037963983, -0.038237216090358454, 0.026640000494484666, -0.004640072877271197, 0.059168274314603864, -0.08220959619695392, -0.05451843068715056, -0.055890677724738116, -0.055877457755767725, -0.01492113925069294, 0.01801278484052482, -0.05505058699014175, 0.038639219124414835, -0.0730026897708799, 0.004331412263833806, -0.06620063101951168, 0.07138597383671336, -0.035334873371199386, 0.025300699999257662, 0.05578535615426731, -0.004625496063370091, 0.02609661889993687, 0.012130028936190158, -0.07028261712551934, 0.053972206030199164, -0.06279715906234433, -0.03382867413107812, 0.04985945573075742, -0.05759572505491713, 0.06687962555569112, -0.042875365564979846, -0.07744867878179372, 0.07288042828966494, -0.019547669290214776, 0.0070791404255145015, 0.021423366894261768, -0.020012935003171414, -0.014128340633204783, -0.021899191987230556, 0.06007030897766095, -0.0006848598345360238, 0.0764780748690757, 0.03820356595322564, -0.05976122843931226, -0.05463329661784201, 0.025461233464525834, 0.023687595317650523, 0.07455996238161455, 0.07276364401328012, -0.021769714675197595, -0.031583539568030686, 0.028829125124683254, -0.03174108229694799, -0.05686236039754356, 0.020530391946967663, -0.03098848521197357, -0.0019716788064659545, 0.02912489307926294, 0.03366370690168343, -0.0438119636307705, 0.06740612792779514, 0.052833001302642256, -0.03208520184835498, -0.022026734109790072, -0.0768246245730465, -0.056047033391170516, -0.009151379710490137, 0.002263358688649326, -0.04032316304541114, 0.03034993356392235, -0.03541156128378182, 0.09521279832939261, 0.10603096950234155, -0.005426674943807839, -0.041301364719210205, -0.048106568677842916, -0.05206707414698948, -0.05143689609767195, 0.013763035631374513, -0.005424184790656053, -0.019256848187782026, -0.048643455981418185, 0.057845167162119876, -0.06616014609312718, 0.0754024091548109, 0.021251498585883464, 0.009780120961992263, 0.006913188447637675, -0.04489090648619699, 0.008317168897977227, -0.049377008935363564, -0.03853430991754088, 0.04075238200302588, -0.033748968827205746, -0.014495351164043371, 0.02012460522518657, 0.09033478581897085, 0.010210763887325083, -0.045164019520471846, 0.11520007695892728, 0.07802446405124701, -0.038039304346772204, 0.06885987787361708, -0.000995527056363508, 0.026909271972734284, -0.02087806925970608, -0.07025992897325332, 0.013507934874508777, -0.05201123290002328, -0.059090982064960294, 0.04517254634936967, 0.008577189540851024, 0.03908484107450682, 0.06281924744028128, 0.06975024439141028, -0.05951679354145332, -0.005684056783646499, 0.04152233664817453, 0.06774648912514028, -0.05807918929139945, -0.03680998544333954, -0.0410307216352866, -0.036668678075687425, 0.023603020986873186, -0.04889730188876505, 0.049615354419563336, -0.015525052698353053, 0.04806292964626826, 0.01075671366241942, -0.004059802153668095, 0.06744483698272283, 0.0438186197867946, 0.10614689246675836, 0.015094094896442332, 0.020715248403887034, 0.037400551962659366, 0.02503810256581243, -0.032587821141671434, 0.051278132686566766, -0.04588442933171793, 0.03160633355565136, 0.04774918463132994, -0.006368552699703568, 0.060606491918180544, -0.07148154956961153, -0.02502546563500754, 0.022524244495145684, 0.059119647436500784, 0.006765658907289531, -0.06099127065547698, 0.056438959477043096, -0.011146989336264242, -0.03211479374441249, 0.00707923083496965, 0.07648330883546209, -0.031390145146152966, 0.05025264316005576, 0.03562007290358448, 0.03013863415908807, -0.03792052780216471, 0.08268472823302375, 0.04170083001052026, 0.0616636106925765, -0.042778983013192405, 0.009446995769272576, -0.04975518852967906, 0.024219211929900113, 0.0701554092755295, 0.059977572266952627, -0.020625819042954126, -0.041642371186378556, -0.017390615737981653, -0.02111225040460192, 0.0018676654183223927, 0.026806973074410104, 0.011673135520929068, 0.05576457394016969, -0.03560942932628054, -0.05790695963987991, -0.06576853608085073, -0.045527703236030156, -0.02700075598012453, -0.08481528397579526, -0.07979542709821769, 0.002403449554797563, -0.03293240426648923, 0.002466811505930487, 0.029363889407418513, 0.03325282801399472, 0.02284605592815077, 0.06348810814443562, 0.0532829591453026, -0.00952881106664401, 0.12066412489304927, 0.05922582356851138, 0.06086081073206463, 0.025062922089777825, 0.007427061538349509, 0.011781984539346464, 0.06663893858790153, -0.04253808467630509, 0.03148819066351384, -0.0923933785690947, -0.06837526883201923, -0.09319439223683428, 0.03864741581137326, 0.016329909354879317, -0.005962257659722846, 0.03200050956257511, -0.023431257005344756, -0.08637735821463663, -0.05726708364664837, -0.044334067756863396, -0.07833284622706636, -0.07104260568648263, 0.01449184611525492, -0.08404620725387839, 0.025760984488800494, 0.021615246993541067, -0.026670073921951632, 0.04327303663848585, 0.09941080269710649, 0.093936177828788, 0.034821944323072514, 0.010880549160666551, -0.0334628074525466, -0.0764982861790511, 0.041533994673385144, -0.07457455579157765, -0.06011663845968812, 0.06629307676087888, -0.06432318857666387, -0.050460659791827504, -0.025542663726215973, -0.029334556203650164, 0.03320186219842328, -0.0803389044218596, 0.040895327489122765, 0.0644413653779556, -0.04278186687111836, -0.04560919552235777, -0.06457300696051804, -0.05683263013272885, -0.04803717981967187, -0.03280710461433191, -0.11308254241285409, -0.048461436415643, 0.08895070852166258, 0.004749337910131744, 0.08352865747423963, 0.07874147821070433, 0.05613590288982679, -0.0624499423922141, 0.003000183545644251, 0.024653553389863057, 0.07933620820615844, -0.02784539688208227, -0.06739609388897969, -0.009512543580901046, -0.01125727137759157, 0.07271203560411744, -0.03235233156210128, 0.03869058543151486, -0.03398647816735737, -0.0032530977296040785, 0.08840866729417517, 0.09380719983048313, 0.11466338540306416, -0.0011413970530685222, -0.02469316989118712, -0.11796475639350922, -0.09284187190568133, -0.03385842509241704, -0.09572724420759787, -0.065944525099669, 0.06357929489706987, 0.04671171381585765, 0.07492385891153194, 0.07977890970648388, -0.05688149737175807, -0.051401738957104134, 0.013453957651212363, -0.0252304188371635, -0.04807943301314878, 0.07806427209806333, -0.02672193119523284, -0.008806526491570982, 0.052016338547762164, 0.045490116881879865, 0.017574635391760234, -0.05713985111784657, -0.0432041952787742, 0.03307503643808841, -0.022839093929465478, 0.16505304901164408, 0.09895847401996152, 0.1025909745768195, -0.039251383696114375, -0.1599927331789663, -0.13926745201020116, -0.14415527462429784, -0.006087609524366748, -0.016065761396873234, -0.0698058126964413, -0.005164128085766649, 0.08948085457833703, -0.04316745581723647, -0.05945066499748788, 0.051792979415820735, -0.06186141480610176, 0.047248201160490125, 0.035789416917435125, 0.027893523629242693, -0.04123582669045659, 0.003633489528278701, 0.046733684024419596, 0.05781068774534929, -0.07006538679975044, 0.023755431474089733, 0.06526978213700713, -0.028132640472783573, 0.1038165480482389, 0.1750367046420064, 0.040053598074377805, 0.038911624915269144, -0.06229856374172657, -0.06669871842014834, -0.07997092253935208, -0.07011289797236524, -0.08963540270671583, -0.1108130379977485, 0.03344564206774331, 0.07374585077631302, -0.010138541388466342, 0.007727468558275222, 0.02796706405594992, 0.07864027418493984, -0.04943633105656831, -0.06898092621251385, -0.05464889194418745, 0.07585909570117097, -0.09933614575936296, -0.0181051991924411, -0.04310552237503026, 0.02384312753866672, -0.04247953919449087, -0.027994553874045612, -0.023200934185967997, 0.03408654224856829, 0.0949626327196604, 0.0696641617327661, 0.038819953894056965, -0.022814467238700616, -0.008350465943358087, -0.14389152678362674, -0.10179394255879863, -0.011798420866649445, 0.00929514877345578, -0.06660667158256922, -0.08081818487311943, 0.04930587254705693, 0.04684320561052628, 0.0717486662633622, -0.07301145649324926, -0.014928642838298369, 0.077010643703514, 0.06360935898417477, 0.07802172140349217, 0.05255749926378831, -0.0739083991635583, 0.02472057588420261, -0.10247359419359552, -0.09622261758024277, -0.07903278043006169, 0.047711518585981584, 0.06652707793663659, 0.058938068447108076, 0.12568630988328677, 0.029487924075937373, 0.12623062609492425, -0.031637852589722064, -0.16763979924038702, -0.05539341172231968, -0.03436484766225929, -0.06940412911880536, -0.05429322753968793, 0.011277983153136155, 0.03225999192619843, 0.049695115302575005, 0.06199545234711199, 0.008313690769329665, 0.05558010912634727, 0.03270139933703361, -0.0632952814778997, -0.01307005707170782, -0.011391412117234634, 0.07336378823036764, 0.009418439337869572, -0.003439107084254484, -0.021745949144895107, -0.0784231130218175, 0.020634334175618323, -0.07776983798010625, 0.06110847348973146, 0.0866694336267452, 0.03140985271061097, 0.04055170179363839, 0.11051021138591847, -0.06617807636194213, -0.1791892057801828, -0.10868040928786409, -0.0997977554429753, -0.08973291423708275, 0.026482473393104885, -0.016566461480129458, 0.058093594726583785, -0.016231206460035105, -0.009466996350029734, 0.038207246832315064, -0.02500698886516201, -0.016173165800858525, 0.07443103892836359, -0.010869595422003556, -0.04098600673750892, -0.004460760544060659, -0.05827920873516254, 0.021250476732088783, -0.044475734002708926, -0.06294821003173828, -0.019379986808665647, 0.0423143626219847, 0.06118871807866394, 0.08030150249461296, 0.048735179968472195, 0.055459165233200367, -0.03179061248266331, -0.05978713021473114, -0.15494753233878825, -0.07124438583237257, -0.04620267155127517, -0.11814655304695851, -0.09015443650427754, -0.07920425047953772, -0.011946868846421169, 0.0988053698541228, 0.054480217489262926, -0.05609993599336859, 0.04185211772387586, 0.00928589236854507, -0.08073600823076287, -0.07878613139828018, 0.053776360783989084, -0.060541871707246536, 0.06861015003285814, 0.007268521292240785, -0.09240451838723071, 0.002293881394012437, -0.06656013920919963, 0.06998951320875446, -0.01997407123285506, 0.045693094545163696, -0.08607994687694602, 0.02633749075178717, -0.06458612869123662, -0.13590130460705924, -0.03786283209626217, -0.010140620946319475, 0.04040189343558351, 0.02828106873714708, 0.05461271184652738, 0.0313465527797472, -0.057910786140161895, -0.022996728439051525, 0.030076374902259582, 0.03252707977134913, 0.08071131595297257, 0.04574296705060608, 0.05390804042999747, -0.07889182022134397, -0.03901163025553863, -0.07362137646934427, 0.019894543644356468, 0.06473238384561034, 0.07353373961209383, 0.004022268382375704, 0.07015695663301882, -0.047602651323252795, 0.02119384216326194, 0.04400558630131874, -0.020261561062997053, -0.008364448418182823, -0.004802392941922874, -0.019106099641762152, -0.07264388545888359, -0.059213760466196336, 0.009738524161947225, 0.0206981607887293, -0.021575867712307465, -0.056270194415337614, 0.02873953152812555, -0.009301787531682612, 0.06778464531908555, 0.03723473589651984, 0.00467421356340388, -0.017637959757795356, -0.04037532132276437, -0.006351093895601836, 0.005135040594414572, 0.025257042890077297, 0.06827986003647775, 0.03734809658871995, 0.06637424532433688, 0.000836163839435397, 0.059543690050201374, 0.05049288823185494, 0.10074724581859652, 0.07129667670265052, 0.09770487965607516, -0.029049005330023643, -0.020768784873383312, -0.05318435891889499, -0.01976229859843187, 0.04875019051306172, -0.04232272382144939, -0.04567653561195318, 0.034162455442726725, -0.023424121632242948, -0.04260170110623915, 0.026939430236469067, 0.01590915506992917, -0.05479415632940814, 0.02072176460006833, -0.025701986401467033, 0.07835849995019363, 0.01707635203297844, -0.06982431734959972, 0.06804989721768356, -0.011997636239493797, -0.007262731404757905, -0.02727505430781682, 0.02268123547145814, 0.0976652003191533, 0.10861227482824641, 0.010774770433266495, 0.1482222958158066, 0.0732127285600594, 0.045770958835174604, 0.032775164540625616, -0.0016012438832144235, 0.0725488165469884, 0.052839588590723054, 0.006624260885893333, 0.011331360160542934, 0.02202146430780447, 0.044816979309414355, 0.0858543100531434, -0.06532959357470469, 0.061035158996288134, 0.014276020630344872, 0.04316180965910645, -0.02800798862107108, -0.005668752015582016, 0.013844826586988292, 0.010321044405494357, 0.055609479845790094, 0.002480808096273238, 0.02011219135792288, -0.04329054270661425, 0.11713289593941233, 0.08371913245055972, 0.07041307404470226, 0.02412588395372006, 0.04559068543565506, 0.08930442277226477, 0.06550552752860204, 0.05340904879675371, 0.04791770458729802, -0.02050895616122348, 0.045698045780258906, -0.014823821684401947, 0.059120563121979955, -0.049385416797218105, -0.026612227430557828, 0.02868513420421189, 0.015344514589942272, -0.015002335327587506, -0.014018041573605563, 0.01572522327545327, -0.0175753656505913, 0.0779167151223499, -0.0547392250463853, 0.021351817351779264, 0.07496801288686682, -0.05045166246437199, -0.017189068832671395, -0.07245394121447148, -0.063908190531921, -0.08070112837456037, 0.022882469630315153, 0.04467799788521161, 0.1085158382320903, 0.017464293366091756, 0.1138052191532997, -0.014763725327492438, -0.030206335683233533, 0.052835367702249135, 0.03064023355554249, -0.04287010783351463, 0.08043452832054072, 0.022456155844226916, -0.03426552110184702, -0.017678243046014126, 0.003001382462041391, -0.043144035939772646, 0.000356408088160113, 0.0005735448426247009, 0.008394528584646902, -0.021897719108616025, 0.03883492673917389, -0.008942217384831176, -0.005168122807908701, 0.07782881997136532, 0.07109957065709141, 0.0022099319820323643, -0.09153361291879787, 0.0022159881518425384, 0.04641134574097107, 0.014608816939095335, 