{"layers": [{"weights": [[-0.053632516961338736, 0.005463971543989079, 0.024181045460588926, -0.014574960234946699, -0.04872726805853152, 0.012860114339203206, -0.019184516552379023, -0.07782573984920862, 0.07295307281649277, 0.02693647669084135, -0.004523048328630767, -0.05857147802700807, 0.01786841726675517, -0.034522342861037406, -0.07330079016494097, 0.07427391656579731, 0.07453625221662774, -0.020516845281425264, -0.00023481335498124704, 0.03677840039849131, 0.05537530723864526, -0.05276764429157583, 0.026685205648695073, 0.05331453337246803, -0.02180518277984421, -0.053143777773301044, 0.029364377082139716, 0.009848685220873983, -0.040193672091362584, -0.006106397220679226, -0.045680137332513325, -0.05437912720404204, 0.06247443845752991, 0.0393222437072443, 0.028893825624530346, -0.07682240446658968, -0.03900339861185114, -0.01566119078797146, 0.07254684940259118, 0.008348596698901525, -0.007779008929895881, 0.03698196088157572, 0.08029688073418417, -0.032827608476819, -0.03654251407925914, -0.05090851541336924, -0.02730548751480398, 0.038226173278797564, -0.010716040211864073, 0.010965886959542228, 0.0035497793664963826, -0.012351725083351871, -0.020876440015271627, -0.06538825001488285, 0.06787380482010913, 0.03304010328753617, 0.054585311098421595, -0.017923943715482456, -0.005130609238619412, -0.028384083413142868, -0.06802173382629001, 0.07515789271368031, 0.05780385255687922, -0.06424285601220275, 0.005940002814810902, 0.05069976643250427, 0.0248598514783253, -0.05298114977731298, 0.01065120540983102, 0.0579886190580311, 0.01609540860672356, -0.04786249821260339, 0.06623228244731506, 0.0506650818103448, -0.019611949699253034, -0.048097688062352234, -0.06314591628894396, 0.04836419579041256, -0.07893837965973782, 0.057505598536742315, 0.07386828877344816, -0.053433352767291276, -0.04787936197437582, -0.07070917478652076, 0.011558587317544326, 0.046867122845587895, -0.011666525333681952, 0.05915388704253781, -0.008116909927141806, -0.06339304817790559, 0.06029559216669542, -0.07288523818616567, 0.01535844058505344, -0.041583152252652106, -0.017621871991204366, -0.03711171710169066, -0.043137563882322996, 0.06720923601128438, 0.06802653283504907, 0.009749664898887175, 0.05389089700554295, 0.04430232572830492, 0.052319386986896255, -0.022416694605387356, 0.006984335766369945, -0.04132337897493261, -0.010999751638769642, -0.05245782872682261, 0.002375060902863212, -0.017376669980630196, -0.04542782969301627, -0.057687033771358615, 0.07962764967351653, -0.07979847278766267, -0.06690828429700203, -0.07244356767146637, -0.06127532257913911, -0.013826157753468814, 0.008579101618686465, 0.0023415783764827443, 0.012712447893449788, 0.05140907385923205, -0.05996179250351807, -0.033928579958960925, 0.03048587860276792, -0.0615312956493557, 0.023281094675666712, -0.03242413117167647, 0.018118277079916235, -0.011474509967038374, -0.07115174370445058, 0.08218977843269083, -0.004014758076202477, 0.08192576763104556, -0.04032258345661168, 0.055278431682055006, 0.04540980617217514, -0.053251847494344313, -0.06753570307110947, 0.05341404327755307, 0.026726795794633742, 0.05574028767733903, 0.07794108767058579, -0.032685434302403685, 0.03873480971989109, 0.0414365440591719, -0.07674540851044825, -0.05460767492421889, -0.010915322600961624, 0.051680050016255606, -0.06893390687030922, -0.07854183437965129, 0.026278703471981246, 0.07801338766026712, 0.03438746701800914, -0.032727223821276706, -0.01982430802357266, 0.01977218922481097, 0.020639186330759358, -0.011590530614334618, -0.05943112805461832, 0.0621914586129073, -0.057202345706168695, 0.06530912546353168, 0.07856820003494243, -0.013460683786450166, 0.07353878248498913, -0.036253474927161924, 0.059002603291439124, 0.018008097780964096, -0.05625598831860349, -0.03346206858801092, -0.009305998539595498, 0.03966009747429443, 0.053643041361204354, -0.014225589173238951, 0.0065248399771346815, 0.07436573524007133, -0.0641148092121502, -0.03637550082610579, 0.026708950833694508, 0.05866320608379139, -0.04297475446696836, -0.06963617646990404, 0.02581477778157873, 0.02831139065394766, -0.06546364945256745, -0.021997390434269067, 0.014934441565282546, -0.07531980445504134, 0.02119063533137524, -0.02034311209070219, -0.029144673995037215, -0.06816087497576366, 0.059736440131203994, -0.009619814900406943, 0.026275058758908693, -0.06073778395772283, -0.06510730124194282, 0.022123861590037062, -0.04899552018741071, -0.033304524423430897, -0.034716941729282295, 0.07142914449370405, -0.02409739584128893, -0.03150515279202747, -0.05710133650060724, 0.05918326769355175, -0.08233289195593292, -0.07378395288013528, 0.07376937233330014, 0.019516209496063055, 0.058600124361144625, 0.024835677232888275, -0.03414813740517351, -0.07946263334323642, -0.06958264051061121, -0.02973974013905262, 0.024995557269377428, -0.07943223539624672, -0.06221164139872443, -0.062078579240490914, -0.07394714209514139, -0.049493666902490636, 0.04614111899875853, -0.00626498945637801, -0.042408143033150256, 0.061794777353466085, -0.029401841406261557, 0.07568373328508696, 0.05006706532101314, -0.04894869216386296, -0.040911841869457746, -0.013154153919290172, -0.05148724912920194, 0.03369831094308388, 0.005043704624066821, -0.03095512344304322, 0.013530627636084754, 0.04903976206012454, 0.06710407722434301, -0.014409393676284247, -0.03811623634883813, -0.07731898215459888, 0.06732346893465053, 0.042110229339005927, 0.035645518961897084, -0.01675701183393694, 0.055834711605445946, -0.07560381683891712, -0.056071362852479316, 0.04600090861920031, -0.030040821121378708, 0.06827792409129077, 0.03714411911014841, 0.024073776068060427, -0.05612546613351312, 0.0045603813649862735, 0.027370864659978213, 0.0628688515908225, -0.053849325248927285, -0.000669624042629451, 0.01722443704715281, 0.05199683401191391, 0.0402571351547357, -0.0523402893264864, 0.06626443606820802, -0.048144539897198545, -0.07679338927472396, 0.05460992542049012, 0.051445037015902986, -0.0707369705004054, 0.054937609305875705, 0.036153921794111976, -0.005124864181345517, -0.06255917782385938, 0.029966070153465495, -0.043401701920432266, -0.0067458061911575785, 0.06489845236033884, -0.0006229528530357163, -0.011302736221696424, -0.004277504560793868, -0.0644167857115414, 0.00423721143118238, -0.00010542788694372233, 0.020375359809444375, -0.0630465953509159, -0.004103811404956015, 0.034649893468972355, 0.011375317220031005, 0.0762790452682661, -0.060949588055100715, -0.03634098758408706, -0.010281895522788043, -0.035826246478640626, -0.03036681326567888, 0.015174249112326546, -0.041516024810738114, -0.07048874402010459, -0.06679178836767559, -0.05647797003453021, -0.03302366938711884, -0.059167389263387264, -0.026417246888836312, 0.014631909853148281, -0.021406187867301005, 0.014026924634721293, -0.019641466506982685, 0.07138739183469985, 0.029674378361123417, 0.061993560092057934, -0.04839390617094682, -0.051661244375842554, 0.04911403591340035, -0.03730225250808656, 0.029798018296800788, -0.047619069170447254, -0.07927858815876736, -0.014820608492772619, -0.0218694635310775, -0.06799360979308967, -0.03331291198215513, -0.0028606173872123535, 0.0321376676744629, 0.025955067704281222, -0.008390895019068353, -0.05744474489438903, 0.025193278373708505, 0.05418535270432498, -0.0006916607623991087, 0.058304600976659196, -0.0002571204197691698, -0.07992331958625169, -0.03921096935361569, -0.06991554598064446, 0.08177044497628776, -0.054006594679986, -0.05775205694739419, -0.06261677625327998, 0.060568325812517046, -0.06914856127579276, 0.06506648930875364, -0.04466090250160019, 0.07686198392894467, 0.0758310059813695, -0.049295579877516475, -0.024309235612473144, 0.07171493144638483, 0.02445857647809253, 0.0546408512049531, 0.07100814588660168, 0.04135202056717298, -0.048205964529889456, 0.002982158013517151, -0.0066174276018044625, 0.053184417163360365, 0.07922648338003903, 0.023796029255101218, 0.031288462101721586, -0.06045603573144266, -0.022392331044515355, 0.06696518541171809, 0.003929485643867189, 0.07030307285786232, -0.038105679407336286, 0.015194113276634275, 0.03944293017850207, 0.06565859050625752, 0.050295726558328216, -0.030514686233218947, -0.05075066508717147, 0.0236055096186952, -0.02080471912960149, -0.052350009564080556, -0.06241628515261074, 0.07355334330304913, -0.03355904386206588, 0.03491617848140246, 0.07651690283745018, -0.04811150783886288, -0.08266333627782958, 0.07654529656103139, -0.06797987437640365, -0.05517717864285796, -0.07256481385139214, 0.04569335871138079, 0.03130310973188758, -0.05388956879024789, 0.05444453104341053, -0.0017649871594351085, -0.06850532498794544, -0.04492033400800306, -0.06499679150704, 0.024502113062088184, -0.06741749544953661, 0.06325855189949037, -0.05866585733822811, 0.07490313731202602, 0.04985581934400632, 0.048143008438907293, 0.05104507672525689, 0.0446860826288721, -0.059587816767270645, 0.06810883653537507, 0.056516202821789305, -0.0626837393573154, 0.006454698466272436, -0.058256413719502, 0.03881052233329411, -0.016984734907399584, -0.02336479886095052, 0.009092357402517515, -0.02965319965365845, -0.021873131351256857, -0.003417697489963534, -0.032349765378059565, 0.02003418092809831, 0.014740968242711188, -0.03665307149587441, 0.05108652377917379, -0.054919038747600187, 0.0649806116577169, 0.01673902040374639, 0.025945808730710763, 0.03795758043042347, 0.026911085961560402, 0.03809232099900621, -0.013089213815508007, -0.059083173311856384, 0.027196080197375704, 0.060492333077331754, -0.050560803441855165, -0.05413557442882658, -0.06791834500924954, 0.011849089876791633, -0.013235108132548705, 0.020580330774857148, 0.001426477760513742, -0.05842053050757099, -0.05705850746724076, -0.06297946449956623, -0.04363256439891785, 0.07798833050844055, -0.012268253106656241, 0.07387804690096911, -0.004349600807092866, -0.08111179983294979, 0.025351294908993, -0.06069151653460975, 0.044122410668852086, 0.07581730623770767, 0.02478982714656299, 0.03484379507786691, -0.031233709714810463, -0.04873861472914453, 0.0011001854478519344, 0.0028575901225085312, -0.0664646488540489, 0.06625296024195701, -0.013503746562086472, 0.04582780288152348, -0.07226025876690939, 0.06934685860518067, 0.0018006379428734322, -0.04702525342023282, 0.07855530342997726, -0.001907808594172738, -0.002172599381189363, -0.05988568512648127, -0.0676853813007744, 0.011611827379650299, -0.021723950542007694, 0.012500792236079654, 0.05232852279870909, 0.07813312588656185, 0.04247674021650493, -0.06780661135442577, -0.07642159853225836, 0.07829353849351983, 0.045427422448653915, 0.04178704663374071, 0.02712986516299025, 0.07367238342931974, -0.06378539483074101, -0.005178720656807642, -0.0353601882176233, -0.008341969429060975, -0.06868399595271456, 0.008603571680829147, 0.00981273183492159, 0.07095803822373534, 0.07631718495458541, 0.01764443636019729, -0.05225726764114362, -0.07533700293655535, -0.07101525341940969, -0.02715177920427506, -0.03751757952521613, 0.06746694147390465, 0.07298973262432074, 0.08182404919399566, -0.07769686036920109, -0.009114279027751722, 0.065149543821881, -0.019450455777137853, -0.00848462054892252, -0.0766531786417368, 0.06505671001530274, -0.009553254921537798, -0.05603390509302971, 0.0761595714551901, 0.01850133433754559, 0.023769930443143066, -0.08176468530923067, 0.017065150443550732, 0.030079142628721144, 0.07651189558660576, -0.014698102890533762, 0.013474754484412023, 0.036665103346884206, -0.07629514985425331, 0.07882226065135962, -0.01081775227158073, 0.0013453244317323998, -0.045485014412567776, 0.06589369894793642, -0.07612975220274534, -0.0066254072961611675, -0.07937171226740922, -0.03975235054830976, 0.05707571220433978, 0.02011139715095052, -0.0035904486831081334, 0.07470183817902523, 5.964671493897785e-05, 0.07695604531018478, 0.04430910901683783, 0.013130468921290805, -0.03158907454140843, 0.07835328230044131, 0.014885427857608966, 0.060735104854365944, 0.03167067273486032, 0.005744873260875286, -0.013067844458388687, 0.08079418075991283, 0.03257797278166491, -0.07059878480328813, 0.0004503791182265916, 0.040037258886026064, 0.04586796057719531, -0.03954505608690632, -0.03818900023542984, 0.03713173812780836, -0.032037390890998246, 0.03202313554669765, -0.03379870352160357, 0.04601173674014772, 0.05693496266009605, 0.07495044522852343, -0.0466437675310185, 0.05257689847585417, -0.040151741636543156, 0.06481847796682011, 0.03376978117840108, -0.0090470217757656, -0.005803535725977069, 0.013588342390462124, -0.007186058479314837, -0.03020559125405089, 0.0683285359914174, 0.04725333660841563, -0.0020462110078365947, 0.020616767050687896, -0.03320618127243624, -0.05333512264837401, 0.029564891784012382, -0.01599238292122225, -0.06021474257508534, 0.04160199504310724, -0.028119339769410334, 0.0734993852823871, 0.04432635554781876, 0.020740570230205226, -0.019398289577924333, 0.08199916826826964, -0.007587568075271739, -0.053418190623316396, -0.0028951724511917867, -0.03463778044651929, -0.07988025657849554, 0.009495750787294116, -0.007056816562146065, 0.06630694297560893, -0.0013589464115678703, 0.06564774491322738, 0.04018668206884779, 0.05552354869562575, -0.07270417425844065, -0.005883841966819808, 0.06408811873008535, -0.028552578742585922, -0.015172897251631774, -0.04651313788759498, 0.045612026527799505, 0.06589599471784961, 0.06382425853904797, -0.076667594327312, 0.026160951150920604, 0.06927348309888408, -0.06686962480572464, 0.001800014543677411, -0.055197181462410046, -0.023682011559180875, 0.07992608032423507, -0.08020096483193925, -0.04501771234708599, 0.07414569657451214, 0.07595847697932578, 0.0517353119411461, 0.03193020698190708, -0.07170686687381002, -0.02310997332096258, -0.017752579210504854, 0.06968055498561229, 0.04380517728095621, -0.040034674637132145, -0.03825079603650641, 0.06257367256528656, -0.07305705346253376, -0.051047176685624814, 0.06411915076318503, 0.023725943926347873, -0.020141574467287975, -0.04051719998948579, -0.07055869624551685, 0.048416818540895766, -0.017188542431168026, -0.07668437987579364, 0.0035340413568659486, -0.03201403449480267, -0.03325325272636791, 0.04648410350526485, 0.03155705713353081, -0.028656339516347298, -0.05482374572958091, -0.05166542102580902, -0.004705032887848524, 0.021965391514292068, -0.050009912932165515, 0.04571061106051734, 0.013068843422161852, 0.061638694166645774, -0.03567014297179596, -0.07007352308497837, 0.052640855724489545, -0.07730580424621646, 0.05244209453630024, 0.06428906388896434, -0.009609689449424577, -0.07813633984380382, 0.06716722718057884, 0.07217739634883574, -0.05540137921383277, -0.07394210290389627, 0.06066449880571634, 0.07077520105349765, -0.07580632688036487, 0.02573499165573442, -0.04098663546149696, 0.07053874150982425, -0.05214397094791973, 0.025692659685501922, 0.06589972597578607, -0.020320135727537516, 0.06610872887640233, 0.04430586681179261, -0.022015600377088208, -0.047287531198886165, 0.0012408274513770654, 0.06376361813172951, -0.05736124081313717, 0.031611686729331664, 0.02261591524830539, -0.016142166287685316, -0.022401721410119795, 0.06896565695746383, 0.0630390315326001, 0.06875013496473888, 0.002903237573195454, 0.016601137284620565, 0.004538546685911369, -0.05426183496020501, 0.03872619184138048, -0.07712963546133801, -0.010709673614136703, -0.013170739924406283, 0.07405076912539939, -0.0156176742751137, -0.0034133869648004106, 0.03147158312479722, -0.010076441856676123, 0.05190651843055386, -0.07727253935379778, -0.07013607956228438, -0.03719858718755242, 0.050149505422286696, 0.04812399779111908, -0.015984365716652568, 0.037746801413220406, 0.0047117237472156315, 0.008060760811847503, -0.025239415240184606, -0.0016513567480360592, -0.06989988716990422, 0.045193871127527756, 0.02565792403230832, 0.02881479835504809, -0.04561963294611243, -0.012274660484451255, -0.04106511258550755, 0.08132517856744802, -0.06013600495447561, 0.008300974584705086, 0.07222747026599029, -0.058274499596873856, 0.028395048247290167, -0.03987369958255438, 0.07774725469858541, 0.06716037546264979, -0.05748369392288097, 0.003196519666276318, -0.014740360605796901, 0.02285614414790213, -0.0015220039164507173, 0.07928297743481712, 0.011553230071476382, 0.0423059278661308, 0.034184030605212384, -0.04150048927793692, 0.01466128332802875, -0.018979465681919414, -0.07339433197236055, 0.08158646766944609, 0.0757866674707609, -0.06447876931883574, -0.07427058486690935, -0.007569095070696953, -0.061833556724563254, 0.07118372315024915, 0.015959428026685544, 0.032182127100712825, -0.0017926999979504964, -0.032928826528307635, 0.026947947837147154, 0.05144205488396274, 0.013719454265243491, -0.05364603650886941, -0.034201853986168484, -0.04673452200366778, 0.04031081898176198, -0.013809845668142168, 0.056351578515372334, 0.038925902548160786, 0.060992773162915556, 0.057057409142793995, -0.04133840292858326, 0.020853364152746173, -0.0063269785891532475, 0.05809256899317198, 0.05020931727211571, -0.024826726410914702, 0.030723078243309127, -0.039355870555165456, 0.003661144822647457, -0.05249833589001451, -0.0643845065636908, 0.057927512673008635, 0.06435629512790568, 0.08064517749431742, 0.0021972869501681344, 0.04600254884362658, -0.042482669718469215], [-0.022198701049736858, 0.0015421674900235824, 0.06570286355585617, 0.05302083795860023, -0.07224402693370233, -0.0314667331954819, -0.016961617978596806, 0.07950940424354747, -0.05651866197752738, -0.07221216184991697, -0.017257226407244797, 0.04833423637372668, 0.07365063069199432, 0.07160716495526863, -0.04413896135789917, -0.04017876264159276, 0.004966601437137674, -0.0255574601554204, 0.06415810020055639, 0.047421632483177704, 0.01707273347974078, 0.0481915873911431, 0.008807521575186316, -0.04953310464633951, -0.038645122785482974, -0.03945866239837217, 0.07440688231301226, -0.06321201057657887, 0.057607687275939456, -0.003414858725420564, 0.04799375790883762, -0.058045581134258985, 0.037846936874450836, -0.05314216954476996, 0.06944918809561267, -0.041201482264249044, -0.0780805897278505, -0.04266456869033211, -0.0558263760873209, 0.0009308885993572547, 0.048967825240901465, -0.058028230589053514, -0.02002544149185289, 0.05880443431390021, -0.014304894054546952, 0.002766767010282836, 0.016366867051100305, 0.07777072441243335, 0.03851886409594326, -0.05146943084250274, -0.02823966867196044, -0.009464895008564329, -0.02400742424870543, 0.06279292431906408, 0.03300189132084373, 0.03597445360704077, -0.023173688172800962, -0.025236529612786197, -0.08109996812894912, -0.02009991645952582, 0.06452251306542717, 0.002557353994837238, 0.021618428976665088, -0.01592405662172233, 0.020296700632968047, -0.017769360149117955, -0.05073581738065626, 0.027914521772082358, -0.024668623591565755, -0.07461974852086377, 0.02327265191517327, -0.07442220542836862, 0.07169027483044972, -0.017869197461035335, -0.04396940646921072, 0.03867228394207369, -0.019744629882564372, -0.04778180747565608, -0.012434372057681008, -0.06403418752383501, 0.06778022649029977, 0.004701945112075237, 0.011696040677213516, -0.049212030368275594, 0.03168899872366018, -0.06280204530857197, 0.004883220772173542, 0.012149324904558324, -0.050703376642427224, -0.011397487638523008, -0.032685808133159994, 0.04595919255871975, -0.07154200605009656, -0.026880955409829356, 0.027119484553564242, 0.02017892376386738, 0.03992547263915934, 0.034793715735546245, -0.02310835998837567, 0.011980577728299602, -0.0422745319455444, 0.0051065256617996765, -0.05212132814978766, -0.0677411439307102, 0.01580463361537221, -0.04328128490256054, 0.012967100001490237, 0.036617935748998034, 0.04767244174902797, 0.018182217489213615, 0.0037103685640162507, 0.07730667113766831, 0.019683143058655903, 0.02863997629382567, -0.04226295598631705, -0.008466227562694557, 0.009582239983206174, 0.06498132203840987, -0.06456323291653054, -0.02437288074694684, 0.016922006408776277, 0.028633540939333676, 0.05317174220207802, 0.04835599417099827, -0.04150357540805827, 0.07958019341172294, 0.04087511354412404, -0.04094731026881579, -0.023931996850905864, 0.08033077335324547, 0.058207456410093165, 0.0815435520414093, 0.0012936866172334482, -0.02086857692862392, -0.04046289105598578, 0.04771174922346599, -0.046728420819235464, 0.008347642543225625, -0.01555515280179449, 0.05792537774639049, -0.012020756310699574, -0.026929823936103287, -0.05658740873088471, 0.040947974701533, -0.06496351061885411, -0.025479847415716985, 0.047309657226983465, 0.027404505475011744, 0.031492064441424265, 0.03640248521045904, -0.029263445833971728, -0.07429367430434028, -0.05612997574273758, -0.025064016469974904, 0.08148320047034523, -0.028298273495864133, -0.03412713884061359, 0.07266210536220954, -0.028085380227269082, -0.041755502222281034, -0.075969893178881, 0.04358781799607473, 0.011179976976434627, -0.026052951549806108, -0.023174272886172846, 0.0530824145882696, 0.05831093755169857, -0.040198749808770584, -0.014391344514434128, 0.024224984885923912, 0.0821164599817721, -0.05571671989209918, 0.054704408441979255, 0.06911347290744486, 0.049071618714763995, -0.009263184097800236, 0.06839243399255032, -0.0774328158168572, 0.008551513237525205, -0.06502676936913405, -0.0002337079774347884, 0.0008743519438628836, 0.05822830950604822, 0.032986605888605136, 0.08218684620266964, -0.07194143951425458, 0.050328639740107, 0.024516290260014163, -0.03514806890776666, -0.05298268067721563, 0.011731177358419845, 0.08131348758679836, -0.04560316372264614, -0.06459681601986492, 0.03853457018467897, -0.07036251754241557, 0.03905066554880888, -0.024207552959263048, -0.07632361563559345, -0.04059543171620771, 0.0494432528778175, -0.015489184683013505, 0.07922564527650834, -0.03172088234842928, 0.059031915652025736, -0.058940994397164596, -0.039431368790238286, -0.0451641956494775, 0.053380259820719624, 0.003510780263633875, -0.007847473171717762, 0.028755255875793494, -0.04779754341794095, 0.06102095428852722, -0.01209218682293585, -0.07588126990648938, 0.03901369088930621, 0.025612112767105188, 0.05658520701201122, 0.041935915188986456, 0.019662969998440215, 0.05085137647007334, -0.023801634945019707, -0.033085684634014914, -0.031398788674994065, -0.04779068378614804, -0.06433312788492684, -0.06078462292618821, 0.01041978813816434, -0.06927305294586221, -0.046154110143782116, -0.06442919697734331, 0.01312111175211854, 0.029827135027137103, 0.05018141759788351, 0.07420676683671318, 0.08157709483585553, 0.0444363875938638, -0.009155641739121236, 0.016399496031122198, -0.033313492642503585, 0.02045574263321039, 0.0536180701943354, -0.03796442814608526, 0.07619530267362797, -0.04327175552492001, -0.03892868206132219, 0.06587054045066547, -0.014128675209717225, 0.07640231363406419, -0.016811415348308153, -0.01996931958042653, 0.028004487207835417, 0.07896488648422126, 0.04186146848729814, 0.06482951654192062, -0.06612739143791682, -0.08007627814097347, 0.06335488943974851, -0.02147726009679472, 0.028569219489866328, 0.03185654763680712, 0.08247423565120438, -0.0037366376496300517, -0.07946064934236165, 0.02230283926291862, -0.05224988610819468, -0.06459086271780433, 0.08076942324522221, 0.004556783761990081, 0.027175292084880537, 0.02023803434737939, 0.058056903223213954, 0.07222519420938386, 0.0655033411662191, 0.01705925345834078, -0.008546459881528672, -0.028339365599063172, 0.025838014757775335, -0.07984242962083317, -0.03532956171703938, -0.006053486788462256, 0.0031784102051549065, -0.04343256649726012, -0.015378355360388273, -0.05561795484289661, 0.07137686033258159, 0.040474796249742206, 0.030332505447979396, -0.04816926734816698, -0.020599897181911738, 0.06559235150993332, 0.010796507448679507, 0.05442452962276585, 0.07371062909860707, -0.068012869663913, -0.05747365652301507, 0.05957905230391949, -0.025647973657028564, 0.03567877392443811, -0.015625555869359663, -0.05595168537090474, 0.0573432212338925, -0.07978738150501521, -0.032031831642774775, 0.025070746462147908, -0.005769531208472906, 0.05287950611578034, -0.017574628324901406, -0.026381597421902644, 0.023505245635461438, -0.07081175786661788, 0.042294308935100874, 0.07894620452958823, 0.012388306802147038, -0.07997119463724647, 0.024982817896887274, -0.021723799302719272, 0.044332370413486956, -0.08042114898344947, 0.07902258336126672, 0.038542638088703, 0.068224960681409, 0.0641025355580223, 0.002401870493186936, -0.03088629504831376, 0.045908813427153916, -0.051056095160563565, 0.06651518610197027, -0.013414358257902131, -0.08121654687276804, 0.007593377329447297, -0.006166155040435646, -0.004934545523187656, 0.0763937566501708, -0.03469866734503013, 0.061767391777745, -0.056929831950995054, -0.047826639398504865, -0.011019481200065538, 0.0812218902662957, 0.036766601845501394, -0.07688405169358407, -0.04347678276737573, 0.07398350882203444, -0.017768605484059962, 0.06666601917520151, -0.057736971346550404, 0.03381490472431047, 0.03559269277267887, 0.05938338883340471, -0.07046957540278935, -0.06916379462688446, 0.005706067579064702, 0.07260923303304698, 0.05671681838929181, -0.036813267374561656, -0.0626457034147351, 0.0716305292360029, 0.04787632149719873, -0.06753684062102183, -0.07149051594585769, -0.04908407945195306, -0.07905392948249144, -0.050861071545897044, -0.06244340038925234, 0.07234906220734023, 0.02642218792998898, 0.0644271184229983, 0.08067522513817176, 0.025581659830584344, -0.062389720177149104, -0.015659904337213523, 0.014181172062837413, -0.0635712646498787, 0.0357816615719507, 0.07470923160168542, -0.04564956191536069, 0.06490637243750028, 0.011261261876366436, -0.026270037541667086, 0.05729077169224242, -0.07156330141799913, 0.06996368534676942, -0.014450678889766066, 0.02018232711839627, 0.008442098144055691, 0.04899080648880766, -0.07634147751753523, -0.031533585982112276, -0.055146356688356456, -0.023588355193219227, 0.0162747249856066, -0.013584913594276665, -0.07746781699717335, 0.006660031385362859, 0.06530185372314955, -0.03688847801942243, -0.028113780027031073, 0.028138172084319242, 0.06848430226219984, -0.001698028805740378, -0.07921908571506835, -0.01920342987332745, -0.019024334032829635, 0.006816105310689366, 0.035547481970387686, 0.032727182682046316, -0.07569495445443722, 0.062323233371446046, -0.002456993814884546, -0.018196896010344184, -0.00500522027518793, -0.04096246928807138, -0.05031514642651654, 0.0168073234108468, -0.07633306875380487, 0.07631356162556734, -0.049777891249245504, 0.023742138850225733, -0.030560010980620386, -0.06952757653292095, 0.05000643302263259, 0.07395158333078045, 0.005352129583590673, 0.051610688604253496, 0.003159298626639149, -0.06792297690727993, -0.07675023560412653, 0.029328056864371004, -0.0242542265701383, 0.08124133760314488, 0.08012380299303953, -0.0753090841890942, 0.0374938133415096, 0.08028469169108761, -0.03669320878902213, 0.015402947559874591, 0.07303065028516456, 0.04923848248033477, 0.045180787441478985, -0.06591208610930148, -0.008572309724983632, 0.07490404313648376, 0.003271152003342959, 0.04820355617842352, -0.05004083799416398, -0.06926996410720146, 0.04089552479955475, -0.03947466178271483, 0.07753491513049109, 0.044265357207353334, -0.06966819268366692, -0.030915731318320375, 0.07495855204319132, 0.044321125645360906, 0.06366320127042928, -0.022431155222601758, -0.04904189310579002, -0.08093473477440365, -0.06710576206092973, 0.0008389889966352134, 0.0638293674632997, -0.06755774440641475, -0.07031573298678458, 0.07197374772941023, -0.06557504773702363, 0.02311425484620118, 0.052928922746067565, -0.04041384713723539, 0.03502925169967937, 0.02344758155124928, -0.037557573717072044, 0.04996272675408501, 0.015500807487889479, -0.0030203636652701687, -0.06518963957318476, -0.047259720865499066, -0.05828820563590804, -0.06318954257350576, 0.07255281216403349, -0.00166366282571738, 0.07892168668565105, 0.016757081929907842, 0.0720588723767812, 0.015701816141993508, -0.048430377092287924, 0.04656981495359962, 0.03843674559888763, -0.04448450443406328, 0.07144651298011023, -0.04679150767310554, 0.0020706172048529643, -0.04730536488907432, -0.002324113124578774, 0.008326643776214086, -0.06770938915653361, -0.05257141957377827, -0.06482561069988016, -0.056498600685986514, 0.03782410761436778, 0.07392175678642177, 0.05618555374852324, -0.05685102360492165, -0.030422390122981893, 0.07263201223043944, 0.023682971354025462, 0.024173027704548832, -0.050555006692680024, -0.08177208997620398, 0.002871981122877277, 0.032360767848872735, 0.0685931793750373, 0.016062199065156695, 0.030867523710753002, -1.2416096361367805e-05, 0.04747736727596141, -0.030063074274935812, 0.02987429433187802, 0.01676540658848937, -0.06013412019380933, -0.07761630529445251, -0.014284641014961184, -0.010277867774586134, -0.023573276241342467, -0.02921942049530989, 0.04097211393037202, -0.07999865454826548, 0.038049787931604934, -0.07783237302414071, 0.06175771847936972, -0.08132215739955694, -0.0697932370035806, -0.05995006888044568, -0.03422638390456338, -0.008254478570774106, -0.07062644208809889, -0.06526756294475901, 0.06262490715394406, 0.06952386660185542, 0.048317665523620934, 0.0019115277933405522, -0.02706021598088206, 0.028420791152732036, -0.030986485578079963, -0.08038359551665825, -0.03741344434382222, -0.06542034645475424, -0.0456909173361128, -0.001878505591663985, 0.0567244881556239, -0.06714297104657914, 0.04604900113366968, -0.019894086791151025, 0.00979104388376676, -0.07281169052747623, -0.0025422744071041162, 0.009077837438209188, 0.0646174031979997, -0.06887774469142544, -0.07158281161891655, -0.05463547736546787, -0.05729746877831767, -0.026983172450173672, 0.017005590930471624, 0.049057633697253314, 0.04921608448116727, -0.010211394752820189, -0.05282350700027352, 0.032625571894120596, 0.03374741514701805, 0.013701887144588466, 0.04653283713871801, -0.0814376059859933, -0.04277857747547494, 0.062409593709239986, -0.06479060707509406, 0.021218482167162343, -0.07637632308454352, 0.02692910235336268, -0.01570044137487581, 0.0061711271216738015, -0.043571658051730286, 0.019275332172040718, -0.012277627699158272, -0.044432432267572236, -0.018813916069952138, -0.021306033576695284, 0.035028419790755994, 0.07477089523400958, -0.08001347721051734, 0.06504927717321962, 0.021187705279834913, 0.05706330269842208, -0.06643081341715457, -0.056479839017985776, 0.05665903953185235, -0.07241460133559004, -0.06389949024986291, 0.0678174184155655, 0.05547933633193224, 0.07219810640930684, -0.07399808841073853, 0.04119368450181418, 0.017625061570513852, 0.029130945887980684, -0.0583356693817726, 0.02010121571512611, 0.07797750820177154, -0.048727209146889654, -0.033619746683363, -0.02581300175788125, -0.00996652284642855, 0.04503565502503914, -0.018464047082582726, -0.008795787102090932, 0.03108205860063189, 0.012905741603839355, 0.03848699234016929, -0.034617595493940286, 0.004259701546200404, -0.04064805791246823, 0.023154274710826962, 0.022403622179309513, 0.019389578260600983, -0.0021118759972116805, 0.05755267966956559, 0.07030505274830641, -0.06494639149078206, 0.04669313818686818, 0.01799583878580991, 0.03921805306414209, 0.07707689477295393, 0.045058287191823004, 0.028227348190706904, 0.030484069627410973, -0.0150144777893342, 0.0027343555854174332, -0.04771230579233615, 0.08209620644116108, 0.005302466957536053, 0.0472155651218926, 0.02915677464571335, 0.046546699853883315, -0.021899071528061663, -0.002126886786168898, 0.034573217193110475, -0.03980321980297162, -0.05760755746129032, 0.08147359359899203, 0.02158612330185396, -0.06028766692561573, 0.04910660378194336, -0.08114472443926384, 0.050351370078537724, -0.05086263962767445, -0.06692454817468915, -0.057892509304975026, 0.0069110570904012385, 0.04654510040262153, 0.04359389558869578, -0.03356674391991142, 0.030209634970911097, -0.07741717188483281, -0.02813189789491707, 0.011279937769751782, -0.02844058934242766, -0.01601977702126886, 0.07846879372613579, -0.062153390884477425, 0.0627595005059747, 0.04432282594520141, -0.020526666110944673, 0.024828234308107214, -0.03352075939106548, 0.04175295834145507, -0.04204274100241521, -0.06459499508401345, -0.07589001616811054, 0.0737096623837231, -0.029836558732784495, -0.0662299493136147, -0.07224404176798864, 0.016064325621570178, 0.05986891338803316, 0.050961701369780205, 0.0627579501203951, -0.019902194304815515, -0.07542505386122335, -0.07909637169725614, -0.02207877591646025, 0.019745207110626474, -0.007712507247943502, 0.022707501961120903, 0.05613278771267074, 0.0011978382074751888, 0.01109004590406651, 0.043938126737024304, 0.00022743563320580063, -0.021245445745150162, -0.05180039194622921, -0.063448247058966, -0.07417214965359863, 0.06184155417809228, 0.054915344548696635, 0.06864570658226826, -0.04224679364737792, 0.06130146750658803, -0.027880380642810683, 0.03178533085615055, -0.019043361811037402, -0.021935166276830557, -0.006680820205198547, -0.049663109214478605, 0.027147563670286673, -0.028989419530852448, 0.07853830590072257, -0.07573885004531757, 0.04582570773494454, -0.07508188006490824, 0.06514838108715217, 0.06203899609138818, 0.03421545810467946, 0.04029079807492479, 0.05402134744338464, 0.061544928709292374, -0.0021999554248041974, 0.048865825678968064, -0.0693172196787326, 0.0625173526830917, -0.008877360885331299, -0.029632145731847376, 0.03383876220147467, 0.005016315093143642, 0.0009276422004264325, 0.00454167925391547, 0.05603090536875262, -0.0614903759425903, -0.01137418518871693, 0.04917250756165754, -0.010029359368954771, -0.05194650198940132, -0.07671376186229042, 0.03603095054271042, 0.05497218565416141, -0.04721646156227492, -0.010593370648216624, 0.058094789429932736, 0.05654361555093018, -0.020252608440023155, -0.047754208705210036, -0.02072461201921915, 0.045667236384833235, 0.06507145753656228, 0.05418295629478774, -0.04551785731327773, 0.06138404662724019, -0.019143098595406763, -0.058301006325994276, -0.04937615028296339, -0.062317169581272674, -0.03865086879341485, -0.04597036706866258, -0.08148826559888737, -0.01244655976443544, 0.04196499748146024, -0.0044205239042263336, -0.032137862923882904, 0.0670848115641399, -0.00861265695592843, 0.08124582879003499, -0.020297492804645028, 0.030307192780726647, -0.08158710384106944, -0.024878680030781752, -0.029730333674635893, -0.010305615005168118, -0.021137828075812836, 0.04673972742063621, 0.04766699471593468, -0.053544232075715695, 0.006736626142432819, -0.027973853347942543, 0.0078548601987905], [-0.02725938457437616, -0.08076341085751891, -0.06521212105526435, 0.038361826020406796, -0.061702386814898307, -0.03084685427926887, 0.022778879559068238, -0.014753573475359116, -0.05595793230042109, -0.0601102165322051, -0.03608631919430108, 0.07080605024391369, -0.033711356572028464, -0.07278460904903211, -0.05348806262450708, -0.008125101099500168, 0.013801792554106487, -0.012011761496327116, -0.06947512575539723, 0.004670685141262821, -0.0820889002440614, -0.01666305810694033, -0.04126545209717766, 0.04807121312150462, -0.08186653425615412, -0.0009367641932798246, -0.0568922261251194, 0.026196113048034878, -0.059165142917223315, -0.014809090691612233, 0.04665310895117264, -0.017545244780712302, 0.013216733697873377, -0.07097656986483701, 0.07728804281256318, 0.05137143203286979, 0.041780119194391244, 0.08180996194202043, -0.005924838156183749, -0.0428359430424831, 0.07410284257866592, 0.05923550974342242, -0.0057449224979856, 0.027958876373820808, -0.04839525221228308, 0.06647618414492414, 0.06090013363250432, -0.06517679665927506, -0.03749491809473059, -0.040311777245254116, -0.009126904474759735, -0.04933289758060228, -0.06569183743435653, 0.02449954729489969, 0.057365988541499505, 0.012965035786262685, -0.025432538838239042, -0.02928192290926841, 0.03504500674398611, -0.004199122584534, 0.05975109364843772, -0.06280017414311466, 0.056784067998932715, 0.06523523047405062, 0.00662864432346919, -0.017071756595422635, 0.0768707739985054, 0.08034678635434331, 0.010702763394059305, -0.07825082751279362, -0.006325006364073265, -0.03610010142828919, -0.022275238780685932, 0.06600113989841253, -0.041140292907457646, 0.04303091515057427, -0.03595085324136624, 0.04636334901451937, 0.015262457132154452, 0.06763529455889838, 0.007753620613619278, -0.024709723011771694, -0.03271021552597376, -0.07706376826702566, 0.06060570729434545, -0.05307009800348065, 0.016976964289045104, 0.07911210061675829, 0.01861907031930107, 0.035977493593273464, 0.07480792654093277, -0.04834396506490519, -0.03226570957500945, -0.03649043113067131, 0.055439105706796846, 0.038231459072277575, -0.04934164764877987, 0.06837906451328693, 0.06670355203600214, -0.052410512123801246, -0.0008391409521242197, -0.06870873090787694, 0.003312412311425948, 0.026950878840540916, 0.06755531641526506, 0.07781488578163573, 0.037044616225891024, -0.031395199253324214, -0.019768822294470165, 0.02113921105744873, -0.04015257869591239, 0.007485069741403305, -0.06599748124620397, 0.029868544269359726, 0.07498039881533844, -0.02397645657293183, -0.05644502288342541, 0.006600383996556854, -0.07712551364884293, -0.07971941557756264, -0.047636565084263685, 0.05689309288998842, 0.03212745199270417, -0.01748034963953783, -0.07386383702367427, 0.016061969294143205, 0.0017358909120070648, -0.05482026145736465, 0.010717732224790992, -0.02828057497170203, -0.05040284337734474, 0.06601726074326132, 0.030361688185447384, -0.02211408878690233, 0.07546582895916323, -0.01258676456646187, -0.00969127665840365, 0.07798098983101612, 0.05496215786342624, 0.07402810767179265, -0.0637028814339534, 0.043118446410234705, -0.004216920734881385, 0.019911148289802172, 0.03343131158863847, 0.05386172574238554, -0.0377762869234711, 8.877557881525925e-06, 0.06473773768190104, -0.04066420567745463, -0.005803580176067081, 0.0552054165409686, -0.0594815524977236, 0.0609535102804275, 0.012188763328982487, -0.042258596727780415, 0.002568209917376034, 0.018604353644497484, -0.03940251842896046, -0.05266031092141287, -0.05359748795864142, 0.027564143911039493, 0.07865148209796638, 0.06540696920693108, 0.0005637601563747289, -0.06706402029741788, 0.024135948729005652, 0.05611932477914509, -0.07447701168928794, -0.05073416353665308, -0.04421040987590555, 0.009900874398537842, 0.07722452923157927, -0.041265573253915964, -0.05987115148116944, 0.01917075695065278, -0.05499897903123146, 0.027570293922072137, -0.000607795078796635, 0.029361856394191595, 0.058014005291771774, 0.033213783565737315, 0.030305363963965572, 0.08127092492244528, -0.008833005093085641, 0.07156692631847307, -0.010071877857453271, 0.08251277302719394, -0.007880162647003114, 0.028090282358215958, 0.03041547490550281, 0.08012517014823221, 0.07071000098068812, 0.07221985931221941, -0.07201712310839668, -0.03614013030366896, 0.06307188348603955, 0.03677188567160429, 0.0007180617151997203, 0.06975211071662728, 0.008079380931855786, -0.05996162409961222, 0.04817376758572066, -0.07103109324702953, -0.019445916557059916, 0.0034596780819242433, 0.05793643890091628, 0.04654528444339332, 0.044202732039933496, -0.00916964540388295, -0.05761540662401276, -0.024289212740643527, 0.046807508221280304, 0.07672146314197913, 0.0702796984414989, 0.05915007369520643, 0.01214528826824438, -0.017988976127447164, -0.06895792821421576, 0.060290553554093726, 0.07820964139661712, -0.018808114041616156, -0.025541381415115288, -0.013696010035558875, 0.07435191427075552, 0.06213957832066407, -0.05617459760965633, 0.004210905472257689, -0.0514710603504802, 0.03660099280305256, 0.07095915618756508, -0.030410404893847463, 0.0818511032956739, -0.038954675873843714, -0.060736030515989484, 0.021980033305211307, -0.006930178360860782, -0.014395743991608013, 0.02511548095734024, 0.07601523998649588, 0.0065179984069222785, 0.08200033509902122, 0.03526522684678367, 0.08256707577885596, 0.056101128190658184, -0.06357781893966559, -0.03640208697962949, -0.07433919262837912, 0.06634874294061467, -0.0022737177077057844, -0.07875709347706787, 0.05654227108921017, 0.008366225346133018, -0.023356708273451567, 0.020509001984257, -0.014857279463507787, -0.06852308509683615, 0.04579151091465436, 0.07491159613071197, -0.019888878275248777, -0.0656760233150906, 0.0077853206188862895, 0.004081212699653031, -0.005163765753514786, 0.024452684230721246, 0.045522729611565636, -0.0445384513346121, -0.016418363999471094, -0.06938268072715749, 0.08273339316038743, 0.017993534185089283, 0.06517272431216038, -0.07106778028569147, -0.07706024290104388, -0.019413959336007175, -0.00686513253826551, 0.0780032266587946, 0.04368305545397897, 0.007811892878613543, 0.06556211110360717, 0.07673086207914577, 0.06971850688608709, -0.01543484924937309, -0.07295604921509084, 0.032895393915430324, 0.058953711601609664, -0.07752195561136, 0.04291383298890103, -0.04388641443746537, 0.006167314142889031, -0.013639049622322484, -0.022866650219860344, -0.04430327093642856, 0.08025100806992777, -0.06411484763811907, 0.03694616729299805, -0.0664473759814722, -0.065561457191367, -0.03750054507653282, 0.004914838182219358, 0.05923791352903695, 0.04471723450341238, 0.026138621950273885, -0.07157129018382959, 0.07476589179639541, 0.04397779521736223, -0.06675120329587783, 0.02064237685184132, -0.010726094677545185, -0.054903386000361765, -0.01742110416502606, -0.07017617359733913, 0.04775604089065666, 0.07916318110947974, 0.07863277933977539, 0.05489171122068033, -0.037530250579874296, -0.025046686612933255, 0.06127514614321745, 0.0590693787297194, 0.02592910600567244, 0.0819793486057564, 0.07510995066752717, 0.009751177955109653, 0.06893269843192575, -0.06004135341420026, -0.0526409045625386, -0.012839899615853644, 0.06183449504358093, -0.0046324671891555804, 0.02332785640332151, 0.001061187560663082, -0.04407364340671608, 0.005057812064653045, 0.03411506718660319, -0.05496606346398612, -0.01936034620564873, 0.02640756563636147, -0.0373809831621681, 0.07188340344182682, 0.07813246350549417, 0.04059760005836375, 0.06176706079044226, -0.08230275164761561, 0.07998928842513589, -0.07915961706585632, -0.049123331424683614, 0.008584061666210197, 0.02930518504632788, 0.02934779524507073, -0.04985805113634565, 0.05339721792652317, -0.04694918803669828, 0.005616821126215672, 0.06734644546443753, -0.07025992676042428, 0.05828671945373498, -0.06877603305491314, 0.00322893888900611, 0.02723124537770756, 0.01590401738315507, 0.03908633194652547, -0.08109606705018921, 0.04828586857030272, -0.002792076683526018, -0.023642789880034095, -0.08003277585613847, -0.07429416060924496, -0.06733424956282055, 0.015262699926161217, 0.05678077269327041, 0.002263660299694783, -0.0535029449559129, -0.07274099214166008, -0.04848955282901541, -0.0334010531318043, -0.05062509198414009, 0.04426549276726404, 0.011145376189374787, 0.06855639861026291, -0.03135907442309112, 0.01220338757901642, 0.04347470446145762, -0.020367548764647, -0.051095531212785206, 0.05811388383459498, -0.0012737977866503168, 0.055290446552472984, 0.021662296000999597, 0.04703978751123681, -0.0020781619342664635, 0.03415896199034663, -0.06705324782570221, -0.05663891522826739, 0.06634101424756436, -0.031486496621176106, -0.043050693606603484, 0.046554736686612065, 0.03187736862322164, -0.02959243292176513, -0.05385957075970222, -0.06594671471984649, -0.007987617984455983, -0.01718231600645434, -0.00171396294033407, -0.03557006606191722, -0.04340100006364381, -0.04649591354059534, 0.04759461707442563, -0.05271333823530035, -0.07978518015693417, -0.034610222812614784, 0.004024352827965079, -0.025034826634757684, -0.039375327117961774, 0.02598746357171571, -0.04087542802224074, 0.02983991564546421, -0.0046935733824331706, 0.01983035574511839, 0.018999320772190426, 0.05942834713216462, 0.04351321564313715, -0.042433446833596865, 0.030005514041305508, 0.05230971135944805, -0.026710305134185198, -0.040903123535113925, 0.07779697293191087, -0.02874187807741002, 0.07701298673285878, 0.054416994108331784, 0.009073406412706932, -0.010598994152150158, -0.03362055490395841, -0.016118749079798662, 0.06677687676182346, -0.012077342705777643, -0.06418959554545234, 0.005457711176436192, -0.0659053535501097, -0.030687925893512928, 0.06419309464933487, -0.060081243309577356, 0.03732742167513522, 0.0472314504373834, -0.015576975152296661, 0.048416265768963296, -0.050392141880554485, -0.0006772864890723061, 0.02320010636426463, 0.07608201174831752, -0.043201250099113526, 0.04526454564784536, 0.08237906003277554, -0.06508161415406855, -0.07764425687625191, -0.07962320919680307, -0.06342655235952271, -0.04004592825489405, 0.003870416505777604, 0.01881538374484752, -0.0022959599642423064, 0.08277655063510972, -0.022933061066521435, 0.06419754140315596, -0.008560712160507274, 0.004068904995675013, -0.06605837076951766, -0.009924620085060714, -0.06745907042854496, -0.02557217803278835, -0.06617983449951906, -0.047299601799140716, -0.05951668110015315, 0.029676698517318908, -0.06820400240196822, 0.07409411861148958, -0.02213926100519864, 0.06903726611740894, -0.06343892987840023, -0.0061126081207880005, -0.0751835338351307, -0.05114370528049692, -0.07698647488422333, 0.007752688440806077, -0.04916022664001959, 0.05359004654454924, 0.012191140981664655, -0.0372785646859245, -0.04522431782787542, -0.03627765744956364, 0.07205797358484445, 0.06525771516401259, 0.020547949222324453, 0.06579686472366304, 0.03491741069753902, 0.01073028124794963, 0.07396478454280685, 0.035337187212274315, -0.012831038535511693, 0.044261275340970206, 0.03481893371881974, 0.08232499779757003, 0.01919169467433396, 0.0688000447112302, 0.02965491802881902, -0.002502801410151801, -0.022707698102351136, -0.06693404581597553, 0.055099038701046946, -0.041834354123114696, 0.026313509257799936, 0.06894810692249895, -0.0355273182083321, -0.08083706448152797, -0.06903360589767811, 0.038298431434161395, -0.03345848276833236, 0.07078054120369524, -0.0738453068876106, 0.048977451505871884, 0.012273387330679687, -0.01130868921720961, -0.07765157622577738, 0.050671664128398235, -0.07487339765951052, -0.07981426058191257, -0.004671206652568165, 0.03990098955089264, 0.0587429562105613, 0.030524291144350717, 0.06582551677423952, -0.0003863818265749641, -0.005034545291427469, 0.028576851627692922, -0.02064865280012888, -0.0121023164737658, -0.049079776098560825, -0.03536332694461145, 0.07018847290568889, 0.04145246976424249, -0.03277600982667777, -0.009889270210090947, 0.04759366683842968, 0.014239505260382633, 0.010024250576286696, -0.02022609974553226, -0.002659793968747037, -0.023924309997964476, -0.06988663470110963, -0.06552679299844232, -0.05425904641408556, -0.006145345384375866, 0.05215305225040512, -0.0797710691527653, -0.06611882515091892, -0.07834846430630224, -0.07929513422254947, 0.013009473150705829, 0.03155202182691801, 0.07861214847780999, -0.07170910789604759, -0.04400250594322576, 0.018391623569213617, 0.06442912181866586, -0.0657349295663293, 0.012143862571191188, -0.05567545020335809, 0.01151949401303099, 0.03800463934607455, 0.06259009423152001, 0.037653212823051105, -0.0723830964818862, -0.06694525592009738, -0.04304941725841927, -0.033313128233200526, 0.04708810559476449, -0.00730208406602537, -0.034809709238585985, 0.06500644792989228, -0.025748304000625572, 0.00028028861177493416, 0.06967909309324505, 0.033623810661448206, -0.047712289615902084, -0.03328497574717421, 0.02120057498953967, 0.07680404963883443, 0.010754820121609731, -0.04197875718284254, -0.004396113065344286, 0.0637371316951039, 0.05251211168467649, -0.01766901293921685, 0.06893657345694823, 0.06101797894177685, -0.05346859870898524, -0.03409866641888693, 0.020266792730762775, 0.0341441737124163, 0.03384975668859017, 0.03122262582047281, 0.007538443839239117, 0.04359427803780895, 0.01886487403780609, -0.02053581151032832, -0.01564197026369288, 0.07403796000900513, 0.008130837792900506, 0.049815168267480336, 0.009927148717200785, 0.06916707626035613, 0.06600823397832796, 0.07485422279058473, 0.07183152976512273, 0.005693715606690408, -0.03185973726819715, 0.008938662750870617, -0.007621174811163913, 0.017762496946033962, -0.018614903167027547, 0.02808903838088872, -0.027610024247116872, -0.04243079198621936, 0.029174681743507343, 0.006752831425132752, 0.013899453761579765, 0.06577663053091098, -0.03430183166825096, -0.07138720876774324, 0.06051597560601418, -0.034361977110767605, 0.027905330347176065, 0.020798891551577884, -0.055535037593182714, 0.06645390734943717, 0.020290281672905454, -0.04916137994150032, 0.050760766673372544, -0.06105437954321089, 0.038569765130923764, -0.05929422355515729, 0.009819102682950404, -0.06483912154522596, -0.0006844789953156314, -0.05493148249211169, 0.051893622069070826, -0.05847127873547977, -0.035015141444586756, 0.06765569062009498, 0.03961547755585682, -0.049161332708098436, -0.021460394074133284, 0.003967603744429315, -0.019841205050846644, -0.059563286399193505, -0.03067223024843146, -0.037179534053976185, -0.005269788670104361, 0.07301469826687323, 0.060281295448140704, -0.06267781417573408, -0.03264745876635373, 0.04370733435127302, -0.022161497732534553, -3.352132526828821e-05, -0.011368979754024296, 0.030841972550272094, 0.06924750225192257, -0.08065559540938753, 0.08085343886225163, 4.8359996085888274e-05, 0.013421093757919887, -0.017394476373179063, -0.0817639639902686, -0.06913970393916445, -0.035733051873278576, 0.005450907728527437, -0.06850830564789116, 0.013850446920730342, 0.055857785967081096, -0.06352040751643377, 0.00993510582038815, -0.03652581680113659, 0.06097289113226833, -0.06283479155124692, 0.07997403003535283, -0.02149501381080642, 0.0013316865455704817, 0.04310991642604085, 0.05277895367757398, 0.016936205841891663, 0.0767877202619505, 0.06525003451028662, 0.05900412564165942, -0.05018935677184283, -0.030585281496741376, 0.07361077549004963, 0.004007821654405577, -0.003740676050966808, -0.009298649740117935, -0.026742244855702303, -0.032028336427860966, -0.050044909043615304, -0.06963233398041126, 0.05976597606065959, 0.0025409530468355613, -0.052691224079436313, -0.04938230104833168, -0.012624868568696355, -0.052870879816840195, 0.04759524848919568, 0.07413034642685017, -0.0026704554394207038, 0.05958278991166966, 0.039827507629470384, 0.03609967961928815, 0.03507890735635106, -0.005514628887458893, 0.03831067777703728, 0.03673981399543765, -0.07759029563778419, -0.07544229651603597, -0.07002719933970307, 0.043202085743742194, 0.0581984706689259, -0.07150220813666561, 0.057943625502927726, 0.07236851984032656, -0.04918076868609226, 0.06272352227184852, -0.06267922702091902, -0.039155602593196254, -0.07316459312277046, -0.019347676904285994, -0.017466289146867563, -0.07014394133618866, -0.025462699184612744, -0.027940036321240393, 0.0018797746792278906, 0.06873597856363005, 0.04542751282279278, 0.002372674586688837, 0.05410268029751587, -0.017021868382862782, 0.021238624369781234, 0.0702237797766484, -0.0800438864581972, 0.026666993873446287, 0.05633865542090774, 0.07936856093796076, 0.032060934327432455, -0.08156225540248001, -0.030053179527128465, -0.02659623406600367, 0.007612249613040054, -0.013784392930519945, -0.03389572866644768, 0.05939776081588647, 0.01371208126061395, -0.07303173898566814, -0.04486214561770751, -0.04992838151129034, 0.0035543778008020038, -0.07094341681030363, -0.08204756119235034, -0.007617564110183226, 0.04531641977638237, 0.05896581668091298, 0.057116965867426386, -0.014957156586148806, -0.029687762172605194, -0.008665513276268395, 0.07977219735409495, 0.0092461694556468, -0.018423074164426276, 0.040356412186446894, 0.05821758096610559, -0.015052373413632072, 0.08135724217472765, 0.0600870594215028, -0.002357916788119375, 0.014856124195609164], [-0.020638076615581015, 0.06029222736654891, 0.07167016047115088, -0.023039159314531855, 0.0761580010702034, 0.04100051441005068, 0.05262037700981462, -0.07112289010521287, -0.013540045695249683, -0.07533203640569525, -0.06423978346430331, 0.06424321538027149, -0.03423909335578228, 0.029766737348502575, -0.03419390048522135, 0.028438865305280656, 0.054622412044902195, -0.044758825231968336, 0.03106721427503596, -0.0025944436837573707, 0.010765563809471985, 0.03172202608784778, 0.002752377745965398, -0.06583678095307778, -0.017209038922521316, -0.06618447500144085, 0.07842216438401947, -0.04686490275054629, -0.04945718156325685, 0.023105292751164776, 0.005622442228199054, 0.02887924799438952, 0.072205451922883, 0.02233538595144013, -0.047660112681971255, -0.015276817650035926, -0.08078959872749042, -0.0038496718158074553, -0.011128172161354154, 0.061175429165158585, 0.05194391944129344, 0.03297461511269535, -0.03960593103729823, 0.054399949807698106, -0.06686323207339301, 0.014926837873098123, 0.03565815733287552, -0.0006880865218114136, -0.04480600257679081, -0.059732183381386236, 0.053136064851937365, -0.08107135753705903, -0.057241577361539, 0.05759399676199949, 0.03396539353936057, 0.08112163369175411, -0.07105353460152154, 0.060327578215738205, 0.02553163717936063, 0.052283335755582486, 0.07554930625407276, -0.018833573080167743, -0.03967312157069481, -0.07603939006686748, -0.049204080109289325, -0.03808464885314476, -0.039150514438406205, -0.021374835320664944, -0.03416079528054983, 0.016405831435274416, -0.008685828020852686, 0.005398145286693797, 0.04208901445715178, -0.049122080779493996, -0.04818359112968057, -0.014410562312229256, -0.020390235952690083, 0.006455906343568206, 0.0373224965409737, -0.04277832374688447, -0.060671266558839435, -0.01296798050653002, 0.04276192565604569, -0.049542642952125425, 0.008777538479360997, -0.06541675081639725, -0.07781894605295461, -0.08146210683839865, -0.07899264856893047, 0.03168394236803468, 0.05792590763219038, -0.004328058945126003, 0.01216685969071115, -0.07968201088466327, -0.039730638287349754, -0.028700858380922775, 0.055960802774316684, 0.07931075769286919, 0.07633165326584523, 0.013061279989960524, -0.059901208142442444, 0.07941352944693389, 0.03912662466287691, -0.04083838710688461, -0.04607099051012647, -0.006107298183070981, 0.032036165247891206, -0.04281528782930017, 0.05369597314973556, 0.08029234972257063, -0.07368218976858573, -0.021693553555404553, -0.000507703414333237, -0.0064724913796785416, 0.07358798711631895, -0.06982534759105335, -0.08200807758470846, -0.04373652666505941, 0.008973095157107414, 0.011500121050823067, 0.06255382469290104, 0.024853452552346902, -0.045707393597932945, 0.06813272075179483, 0.05264040438190355, -0.029332616442389988, -0.014444818408293678, 0.007279059567430911, 0.04726912243708992, -0.03153681937074197, 0.014933414576951739, -0.006881337790166985, -0.003400139862420538, 0.07838444124850677, 0.044539511916508116, 0.014513977177335602, 0.057493037082905124, -0.06121360987234988, 0.01893069839389082, -0.007637683654357532, 0.07170070012834176, -0.03478686779406293, 0.03441622559235019, 0.011226493769512399, 0.08123771722881547, 0.0733358386257628, -0.036401492880929, -0.04543526807540204, -0.028783950524868287, 0.07059395047388138, -0.05769730333678661, 0.06038975128013035, -0.009285131004094217, -0.0023118680414623847, 0.049814603792852324, -0.027082949664362355, -0.042656488849250815, -0.030020527585136757, 0.030298215163213117, -0.05953481799898491, 0.049850742615280795, -0.04786561233377533, 0.07651845196407857, 0.07906202924427323, 0.06057746462286224, -0.0697208503792217, 0.0073236396731289856, -0.04950758150050395, -0.04051394807662528, -0.050102747193400174, -0.05864369776371653, 0.03948643588850685, 0.0492145365030985, 0.07329197095301716, -0.07748284241220221, 0.07807611299337937, -0.048531897831306514, -0.015394044799200096, -0.01180438787780941, 0.06859294831659951, -0.0808679502422564, 0.06777308393148343, 0.01227194483161602, -0.05407932966263091, -0.035278071408229444, -0.022457822817838976, 0.05585065954825933, -0.01485467544572282, 0.014931390643101793, 0.009825094863031666, 0.016238349455777325, 0.05894347701874747, 0.06592606051731835, -0.0642190333334549, -0.0017649178480818363, 0.016300911631172404, 0.07916667525868462, -0.08190019908045115, -0.02027910162783553, 0.05032541375689276, -0.038805024751038225, 0.04593081560150961, -0.06725340772114963, 0.01423359326652946, 0.05917966835900941, 0.0437880870471594, 0.06864438095465338, 0.05067103483089615, -0.038901665793711, 0.021769170101356844, 0.019124056721769735, 0.03473274411675412, -0.010531386272655456, 0.03449759933930097, -0.033483979102881985, 0.03739763237843628, -0.022316462034348283, -0.030488615270594613, 0.07421373895503262, 0.054168304611780876, -0.05625763941982983, -0.019149436061004905, -0.0620898159666459, 0.024898876996514368, 0.05318246797957841, -0.023566940188773026, 0.054449894644903074, -0.03389088024934917, -0.05647954374216883, 0.013384396892352206, 0.07906516151967734, 0.030094259572161924, -0.01946871332749514, -0.05359344364893134, -0.02500171329141958, -0.06976612178804037, 0.0682519411058491, -0.007396131272900229, -0.006151492121491547, 0.06233915292512683, -0.06684904861063598, 0.012815618701798984, 0.07379775998376771, -0.041492873318834854, -0.05869109044363784, -0.020386347145990115, 0.07142597454821932, 0.07064809328365966, 0.005284298141863846, -0.06488748407488823, 0.06569481566051094, -0.039973300945563006, 0.07089172179543156, 0.023203351823302843, -0.04997619496173391, 0.08197481322528863, 0.08127237845129144, -0.06751700551015298, -0.04955189667021418, 0.04170437189138248, 0.059306389414256394, -0.05346674019650778, -0.00842911234007673, 0.05221457176562215, 0.006635368904240597, 0.03409347185313775, -0.013781852533303426, 0.003535048002822739, -0.06206440970886234, 0.06738121576071239, 0.0312849903375636, 0.05058153159702896, 0.007509621400035109, 0.01824915863834221, -0.002955598117627527, -0.020431012353682523, -0.036273526062067754, 0.0004499427064971536, -0.025804197633964472, 0.07279672542225638, -0.0183096455159433, -0.06297103485864376, 0.0552975233568089, -0.046480222051861565, -0.07418878014571625, -0.016017748793650522, 0.011607915006949337, 0.07576016081495694, -0.043040966001441715, 0.015178953188239527, 0.054458746789664045, -0.0031132785664069913, -0.010061677933492361, -0.05465149096874431, -0.06256210498868808, -0.03477355739858185, 0.04445222619432674, -0.07446421719423674, 0.002525780787262918, -0.032538365127522735, -0.016691235468061023, -0.07411867365189709, -0.014968053868352881, -0.0066504839547995385, 0.03863737236218552, 0.025349271287573277, -0.0032007504209261373, 0.024344812620597737, 0.04404887098870298, -0.0704840177206841, -0.0038663267452858975, -0.06953101594812056, -0.07584898729417888, -0.02108057773576309, -0.07721362510603566, -0.08214787248564911, -0.031473834517902546, 0.07272045430213478, -0.024928445248663594, -0.04053232370379572, -0.013943945241838477, -0.02294220243876087, 0.0288394981834423, -0.005939267932652918, -0.05944887139602275, 0.014918415104574182, 0.07648841019683424, 0.07785099228961152, -0.020380710255703583, -0.054253178997286836, 0.06701683983648664, 0.0548951101611699, 0.060884243189203664, 0.03462749440659912, 0.015100536449764867, 0.02610676625914258, 0.0016156311147583855, 0.013600002923428618, 0.008104756844437214, 0.02777190020440363, -0.0055565475634186175, -0.05484731727371617, 0.06793032324242047, 0.07271909818226321, 0.08239401447695109, 0.0286620853670555, -0.07569955609834933, 0.018772639746840014, 0.03534358964578928, 0.026963109349494106, 0.047900194250719806, 0.04960596461100088, 0.04754317936243479, 0.0734469256920504, -0.041834230847952535, -0.0373260669496441, 0.023983995504630276, 0.011057669136839006, -0.005182203573571603, 0.07449569516568938, 0.020050446035294586, 0.024247142801419215, 0.07495380922551652, 0.05492214020958382, 3.6203784540824374e-05, -0.05652973418330371, -0.005353275261704344, -0.024973842358244177, -0.035779294506883795, -0.035997369805309806, -0.05931022303626947, 0.03437301945580009, -0.035326338910577126, 0.057075081842148066, -0.02737945354165257, 0.018431881529857946, -0.07804405981843043, 0.0777582031456455, 0.04907243229681057, 0.0379152535203065, -0.08042763682401174, -0.05470400025222487, -0.008514893520752274, 0.049722072556077086, 0.014174288040170978, 0.07249106450031786, 0.06817814210116938, -0.016577727407549803, 0.05931541337069367, 0.0048933097981754764, 0.05781748235406053, -0.06678846637276671, -0.041556232447723336, -0.054902582301390335, 0.08023446921606191, -0.032220497535917325, -0.043452237359320904, 0.022224812454970155, -0.044861138277399945, -0.022550951450770775, 0.0658303887857814, 0.057376834011027986, 0.005668663656153988, -0.039966756293265314, 0.041902486301980346, -0.05764936300950367, -0.06058361881954207, 0.0477720949538748, 0.015681316035827182, 0.03499513929080672, 0.07982496526045017, -0.015099017908316694, -0.026535989937668807, 0.06177051044633416, -0.04544283573934469, -0.013527852456876018, 0.025586004122023318, 0.04215271560608105, -0.056312069838011736, -0.05861488817139445, 0.03224418226102751, -0.04864395117985504, -0.07490071455119088, 0.05721957847658411, -0.0199404951342646, -0.07417735515942561, 0.07532914733676042, -0.00763348322093141, -0.04156303614269964, 0.0785686791299727, 0.07435273023650373, 0.024995772299676974, 0.033877423779972625, -0.03408583606297199, 0.05331363539865749, -0.039210306186848815, -0.007407559302699409, 0.06740439637739983, 0.054517382370347416, -0.0073346853934257205, -0.0054959679986595796, -0.05634111310917952, -0.0371992418935634, -0.0018624655183273736, -0.0494159965554024, -0.003906417263173392, 0.028422799479927145, -0.006854256732222366, -0.05618261503212979, 0.05653774101786172, -0.038208399945805854, 0.0767404036414182, -0.026895085632760937, 0.0035762645211758143, 0.06926073658353134, 0.00302334540628713, -0.017131174494049353, -0.0787912744294215, -0.05503949844130534, 0.021754518788296547, 0.0656949844702884, -0.07161466350942149, 0.022978233068476465, 0.06970365291858698, -0.009065722079771701, 0.019824874416814974, -0.027080563318545078, 0.013566597379475959, -0.03422376999541532, -0.027800155614188707, 0.0195523324292395, 0.06397114700339199, 0.05831258158654581, -0.02124995950462407, -0.06989139433181078, 0.04815650201224135, 0.04241322304164263, 0.0026386683977072185, -0.061523585386400216, -0.013617930160697601, 0.06662414492665107, -0.021776852964642664, 0.07867274256059167, -0.02210393697774466, -0.03226387171341521, 0.0821619780862536, -0.003365390650085765, -0.04336229645717285, 0.032009341463353415, 0.04836135318801441, -0.080691446767978, 0.021497307098909266, -0.04104479411523493, -0.023930226296292968, 0.03631985191443849, 0.007864935355235062, 0.07854452491291009, -0.0547123629410492, 0.015519729765602154, 0.031129191574538116, -0.03820375917151703, -0.01993777153384842, 0.02796302460590082, 0.028290201702256833, -0.03204659404485937, 0.05411745816336045, 0.07816923411835662, -0.05989953179629592, 0.021369721188949156, -0.055882632734025856, 0.022806906942233245, -0.0510868099668073, 0.024571482525249096, -0.0703446934570522, -0.02556074414275945, 0.032684098169874935, -0.004823866978578177, -0.0013317293721482363, 0.0036398026831446183, 0.05773971276076262, 0.02278243048794695, 0.011038806638064334, -0.0670788440959905, -0.038214485268501665, -0.07589340618593549, 0.07738468222477653, 0.006801455452282777, 0.013666130291085815, -0.02524317525095936, 0.04815472656893747, -0.012058881263101734, 0.046958037640159676, 0.06293993173952137, 0.018897826473449873, 0.0762564435375219, 0.028858717684202284, -0.03918655141868537, -0.03381551323289561, 0.016329652109739048, -0.022537748511317072, -0.02342622675116029, -0.034576017748886814, 0.04953654602587138, 0.0017117739236243844, -0.025161933085591268, -0.02777339448479541, -0.0651651126810265, -0.003116572779920283, 0.01268627648653996, 0.056709665314223716, -0.014121737780362046, -0.05348955836681935, 0.03214692904315799, 0.028936975692936996, 0.07308727865084307, -0.006703130472726043, 0.015656833590248016, -0.024870475798414324, 0.051389084435994256, -0.037648257913384234, 0.05172893705500637, -0.06644988193755401, 0.03630661921357281, -0.03255269857835048, 0.049128228535024285, 0.0816262764973805, 0.01000215392779076, -0.0486721297372138, 0.06710914795299264, -0.012495106301407842, 0.049150958122517276, -0.00798693221806908, -0.0072401270441965196, -0.08211070910421427, 0.05842685534372153, 0.023112329440127307, -0.07699858338586367, 0.07666773197426033, -0.04644279863725793, -0.04032593745812368, 0.01127728086503245, -0.020451470344000883, 0.005106548425659574, 0.05196380162933826, 0.0769012366546421, 0.016280160140298844, 0.0733197668575202, -0.0321311741201632, -0.05884229909916381, 0.06889561863840253, 0.038275470511754055, 0.05883087346734722, 0.04000577708746661, 0.03716134366798446, -0.012280044142840575, 0.008056692429642777, -0.04716125490899963, 0.03828389095480089, 0.027122268056447563, -0.0003073889693537471, 0.019304710845849747, -0.017038052395726814, -0.005781800772078684, -0.06183270050453712, 0.038495043684498076, 0.05356759905172317, 0.04469113218988095, -0.026383189515054337, 0.05929715812999213, 0.039382850289647435, -0.002499108352620379, 0.07598637923178389, -0.05414999076809676, -0.06179513038836732, -0.024125825087049965, 0.0007719230684035811, -0.03549108444375367, 0.015923673904211302, -0.017572450312454056, 0.047525238271109715, -0.015396406953047035, -0.04831578353548342, 0.024935926218916986, -0.029124301722802292, 0.05726081653290665, 0.0036766800361828335, -0.03301076365415694, -0.0331989745274517, -0.06024871757309952, 0.06902234587476147, -0.05072270871333762, 0.012429853734755934, 0.020035511749219557, 0.058789785448598156, -0.07907891300943024, -0.014350930270081129, 0.01634532876259594, 0.05975657133604658, -0.011238997524016983, 0.019790062619505857, -0.024363570481818878, 0.06350296754316082, -0.012115056800162735, -0.08192039737616014, 0.010637207882033102, 0.04615592974997053, 0.07533977947317215, -0.00889600468993235, 0.053772560895968324, 0.050897438884630504, -0.015051045331937707, -0.022668066789462274, -0.007977810452913014, -0.029119740196515354, 0.017972755922951347, 0.05589352404759122, -0.058663369320202816, -0.02059455794828313, -0.03464996693549815, -0.06494666670696607, 0.016384600437534896, 0.008029745405060427, -0.002788217673788128, -0.07843682664551258, -0.03281239591744082, 0.0537880167109275, -0.0157053078354035, 0.03525443573049112, 0.052676175208242616, -0.02096229237359999, 0.04885353760492013, 0.015316798257141728, 0.04433557584782468, -0.026241205334542876, 0.0440783956853492, 0.010223123137853769, 0.026635401573929345, -0.05331236448680568, 0.07411392591577672, -0.06892812032745844, -0.013364487621091442, 0.03826513963500076, -0.04973976630089882, 0.024972145826856897, 0.06639306452718653, -0.04800266918067645, 0.053333101847417325, -0.03594834049443632, 0.07991695610001236, 0.04025453410908379, 0.028192997579275333, -0.06997826181323939, -0.06967484946048957, -0.007162196692955935, -0.07725906388094028, 0.07417631671706756, -0.0028881667140597546, -0.033113692356901585, -0.06504881426281374, 0.07056340047962999, -0.03113958937000372, 0.08014102089979111, 0.02370487619444615, 0.07024322730035341, 0.03398626808542, -0.08219055219787748, -0.05493566696073864, 0.08144791812334341, -0.08108112092393034, 0.03780349097725503, -0.004471973003247427, -0.020762449546269813, -0.047369344240077486, 0.047870476242551675, 0.05370792706400273, 0.008569831255534234, -0.022679455575326666, 0.02137812619192686, -0.028057904326440453, -0.06699760944178958, -0.01063115432474829, 0.007115755379152241, 0.050677516396879785, 0.04519373553554958, -0.07687509364431026, 0.05058049223036973, -0.01636964793675263, 0.043757111728657115, -0.033539872775021934, 0.07989502321808291, -0.04827643138109263, -0.04257275596772171, -0.015152157248921631, -0.03925437739748873, -0.0580413032162597, -0.04731323506651323, 0.03400922445174759, -0.02957196463318185, 0.07007555689726784, -0.009280798475620506, -0.07959229244864015, 0.025330659034138656, 0.033149821589969444, 0.010745588696740154, 0.01975830431901069, 0.07728858260406571, -0.08099906154843899, 0.07130490310249771, -0.0656249409702218, 0.04774500611265569, -0.04981146991885454, 0.012102494727946446, 0.031763006205841014, -0.023381654971470996, -0.009555710866654908, -0.06348805200566239, -0.04123353093943138, 0.036015843347357565, 0.03453232194654629, 0.04482354948366701, 0.025419845441771696, -0.013344523628950401, 0.02776766257154679, 0.03543408929175346, 0.0597002601441484, -0.05304461330358472, 0.05158974762534043, 0.06686259694036571, 0.06664430660283739, -0.0001037339340798522, -0.06009745959219189, 0.047162171812398374, 0.014461466853370974, 0.05252589126881957, 0.02624020441605535, 0.013148092313007101, 0.0011524779553354963, 0.060507897831407136, -0.07878663936920217, -0.05209262568322862, -0.07974379282415485, -0.01331727125995864, -0.021185267149739916, 0.08068684497369275], [0.02722679916124465, -0.07351789824169785, -0.051776392967695546, 0.042133139958047204, 0.05755189076050901, 0.06448875442341799, 0.02996170232027969, 0.01242732037959123, 0.014850449475602063, 0.07670450717559535, -0.06245520055990513, 0.045029130200218224, -0.03656135486188198, -0.07685595196560012, -0.055005242722641075, 0.05321379535369308, -0.009411115442626228, 0.057639489299229615, -0.034537282508562896, -0.010267281252366771, 0.0765521060682752, -0.05564106565002326, 0.05189520650206056, 0.08056480548809933, -0.020107424449039478, -0.0207741790353549, -0.042255428486317796, -0.06384287313182237, -0.0006265268293573564, 0.049074578202638865, 0.03541764269031722, -0.020957385254780143, -0.008403042508106496, -0.040310486125895634, -0.07534951652121497, 0.0728139432904107, -0.009214287028861857, -0.07480375304059803, 0.060519696794449365, -0.039016916377840646, -0.040216810420673, -0.04293849441479694, -0.032351238429179495, 0.022557403517086863, 0.051380468458032784, -0.07787883096144939, -0.01057246902960546, -0.03352415724837766, 0.016847282729186248, -0.03773054820805173, 0.020465420296283475, 0.005553883141210067, 0.044411864414438104, 0.04425799725134464, 0.056255119288424214, -0.03227438165180404, -0.058534999064193426, 0.06471880456445571, -0.054453081412443184, 0.026480758319063106, -0.011872250751289745, 0.026965694866813154, 0.015187268916721348, -0.046572879735004, -0.006558469886748854, -0.08116454924105103, -0.0656509021906088, -0.02163378042759217, -0.000619937012590383, 0.056050966441718045, 0.058225599503019955, -0.0595806053109073, -0.01091331257144463, 0.045764067390390996, 0.036535670151449554, 0.07849574612070424, -0.06768192636521163, 0.07552073161328902, -0.02636334652263315, 0.047751291632244904, -0.07197182379137824, 0.06244677104435138, -0.03974086424770685, 0.03769333802738556, 0.08140078763290538, 0.08099021549213542, -0.07571623550454028, -0.04580720314887553, -0.019572200346764886, 0.0010966359703279038, -0.03244322813353735, 0.0020635025997834734, -0.05143039376874871, 0.0791156899815122, -0.04864603969511633, -0.0284493453984382, 0.07152130922597869, -0.07947394599200137, -0.07465863613712835, -0.03191423226157824, -0.06158085133683146, -0.050579806205524776, -0.025935489547831977, -0.02177807372372257, -0.016175718178057307, 0.07585257228031278, 0.039926726586432745, 0.005171055562941545, 0.059761560103341486, -0.034056296801484705, 0.011753266211048682, -0.0661767378089548, 0.053005932685873544, 0.041543775121623466, 0.026554361669454296, -0.026270838788200326, -0.007325384583491856, -0.05619665434623278, -0.0038001969260327575, -0.039966067004023054, -0.04641853541737059, 0.009037969728824027, 0.043415429860636894, 0.045390944413625574, 0.07964878755987394, 0.03183600504079572, 0.01204045641775541, -0.003963626906177631, 0.026328704674294292, 0.031674373610790764, 0.07200641702245386, -0.05642020198523552, 0.028483136662975368, -0.030200067830702997, -0.04524540827103177, -0.06776671221044324, -0.007365687695397349, 0.05110413553681831, 0.01148923594448869, 0.017761382291266305, 0.032643040913603025, -0.03524358115606488, 0.04226870652389567, -0.030665334881768536, -0.05677325841410453, -0.05522080661060789, 0.014687788066302335, 0.0701382094827135, -0.017947484341261994, 0.015139455830847822, 0.00842787577048297, -0.024107586551290857, 0.04491744362677882, 0.004812831124218833, 0.06967933348443071, -0.011475453794604728, -0.06491112031982033, 0.02171841207390607, 0.00505985084663736, -0.011181285625852395, 0.0618151022324133, -0.000176580706076866, 0.06737344057859194, -0.04090947971952511, 0.0229754370484731, -0.04140263752873446, -0.007714571312974665, -0.045056384193178166, -0.038787306835221295, -0.07134327008805426, 0.06068399037714235, 0.0203865848173308, -0.0060945463631543306, 0.056531594452591594, 0.05844067631024143, 0.07561483376094766, -0.019195967799051437, -0.06407397076230133, -0.026558778106572384, 0.026374636031644347, -0.07271643864084251, 0.005280209231367976, 0.05929262439460904, 0.028088318752096907, 0.04444380001878762, 0.0367693313208231, 0.07288365839759593, 0.07323118676383397, -0.07805784375093071, -0.08134869847842605, 0.043296127667045874, 0.06766053757118944, -0.0014883842439151905, -0.020493295906641645, 0.030798135058095904, -0.06159931752170745, -0.04878879435369812, 0.04454319020763788, 0.06730157024463829, 0.029638801529835137, 0.05736746244851349, -0.06381564481071361, -0.04721954311210868, -0.0028929486871212924, 0.05226189867612872, 0.014891103988847444, 0.05148787837758578, 0.046059835874049306, 0.03041091590299995, 0.07576046629941431, -0.04746035799781066, -0.03902742135800221, 0.041425292073512476, 0.03234958383754079, -0.023719638106859522, 0.043720723370732247, -0.0676558487818018, -0.04809154777676365, -0.059192696972918506, 0.0011130451944639862, -0.03026338321444404, 0.003959435575933198, 0.06802434229066934, 0.02696574440068675, -0.041003540785394754, 0.06676209712086542, -0.007000259748162683, 0.06661049044603033, -0.08093484942369514, 0.07806561682597, -0.08096122518037752, -0.04612013984799495, 0.012071299188513383, -0.04520126351541359, 0.0029387812066249117, -0.03303367256453678, 0.026224990044489825, 0.06780587782581776, -0.06028125710508717, -0.02358350077257653, 0.0421712216633765, -0.007904318098794676, 0.07345761371454282, -0.015168673775804858, 0.049418205202760634, -0.03298176226433293, 0.07411310932849641, 0.056808927105061365, 0.0696480714758434, -0.06465652261647871, -0.002982627257611719, 0.022290217649785157, 0.06220682058289407, 0.06185341988208316, 0.00868709489148755, -0.07298145985373962, 0.0485409029164457, -0.03548780381287705, 0.056681723864865516, -0.032672389054588864, -0.06609166885282514, -0.001152265255673893, 0.01331947910971919, 0.058871680380776205, 0.02080403822702594, 0.008012467811698572, -0.0032560114857060523, -0.005245367021217843, 0.03392793410347718, 0.0019031682481778123, -0.01336905595979748, -0.03879132443215228, 0.011807337599042955, 0.05764849917465123, -0.038222955945930774, -0.07997256525906303, 0.007854153518134089, -0.0723711356289538, 0.05367819555237184, -0.02444905870728495, -0.01447855605714914, 0.07779401930981075, -0.0686291743293684, 0.06700050122179688, 0.035915767721675596, -0.017639700333281706, -0.007605415577885587, 0.059700725638736726, -0.02377520784188028, 0.06290446100085777, 0.08326896529594355, -0.021725979508833308, -0.015424498400193085, 0.07201633788048409, 0.0005255475888367312, -0.04763351594248386, -0.007836999874890758, -0.018796987151931812, -0.0011319431917797202, 0.04963065913445539, 0.07280567153083471, -0.010476461656443434, -0.025231168816897364, -0.05760166615931769, -0.05025464933430942, -0.07759421539022479, 0.02967963776637879, -0.06963756647557993, 0.0551411528590146, 0.061603748822054466, 0.03344275736161705, 0.05621537848946819, 0.025233426975711893, 0.03440937726568525, 0.06657823757862948, -0.0768070146396904, 0.006688350921542748, 0.03225186771907531, 0.03847051100493007, 0.05405639889277566, 0.05456850160656315, -0.02025247931764823, 0.04290083366958898, 0.07174581342457405, 0.02834704345236443, -0.022782159621732353, -0.023960603938975637, -0.03364019183652806, -0.03883791044034497, -0.06682259063841665, -0.01470888024537003, -0.07448610930740868, 0.03178627850518417, -0.03332559018345546, 0.048209052242432084, -0.018348521285572426, 0.007922645175322783, -0.008970482268288166, -0.011682245274471679, 0.02346583961136527, 0.08005041238103974, 0.059635392728360694, -0.037830689139931706, -0.05827840061103265, 0.03257217294753482, 0.0336687813685878, -0.015150175490056421, 0.0615934760377644, -0.012967500067287757, 0.07625780542909369, -0.00016215147798655008, -0.039806309972002664, 0.0052309175797432455, 0.006112241868137919, 0.014619417467482009, 0.03904290088845275, -0.032896377008880234, 0.03993092883605334, -0.04769230172896356, -0.0428758943328834, 0.07040290935564335, -0.05382562031346759, -0.06482947107800204, 0.010177466400855565, -0.04626620274342059, -0.005406614581396666, -0.05616862700013549, 0.07919269647893738, 0.021858066966261528, -0.06998524143131482, 0.0002814344951906797, -0.019363163973123373, -0.03056239909390456, -0.06728241503002243, -0.0679191938495429, 0.05682984325394722, -0.008349807749445777, -0.015989015620912626, 0.018704240494160987, -0.005553034805246756, 0.009340392252782947, -0.08073056971050421, 0.0249030094015205, -0.04327614752459347, 0.004373272758666821, 0.047128457151534416, 0.0032455263590140553, 0.02950003903279821, -0.028686355641317395, 0.0616315751944148, -0.05641528638758914, 0.05075243695059779, 0.019923850309963503, -0.04790997591259111, -0.04197713551539867, 0.07522164504618163, 0.0030959607825902877, 0.03297863511674817, 0.0029602037502925263, -0.035293476427740916, -0.07966733157406249, -0.06110317470211399, 0.014030100089863837, 0.031130427200689134, -9.203818679357989e-05, -0.0436484332563022, -0.0029657947361796063, -0.027506180643572013, 0.006801125665521143, -0.0454645140227389, -0.004935443836331751, 0.07181648563380293, 0.011608296296454634, -0.009557227889814375, 0.043035394651958464, 0.061861657681757797, 0.078432394009266, -0.010471788588277615, -0.04480120881145322, -0.053777851424563705, -0.04675694697847261, 0.04027723553370469, -0.07795145189152042, 0.05041233591074908, 0.01615246794800615, 0.060266775783690225, -0.07433255791977275, 0.0031583947449533747, -0.08073568468426834, 0.022278610806613638, -0.008665856909165492, -0.0065413230065807845, 0.0606222869877334, 0.034737782216353284, -0.04969639642449467, 0.0524002316454414, 0.0439983024131119, 0.023464555406445608, 0.01323581114597862, -0.009256054845623926, -0.05575149889791045, 0.04177319289580869, 0.056229811294618535, 0.034039396112932586, -0.0703600250904838, -0.039749031092598475, -0.02409201483197856, -0.08163980368427358, -0.03161137414176795, 0.06093285898572491, -0.0729050327772962, 0.03728509271163003, 0.0029074469720649075, -0.0572394753047191, -0.05963457046053024, 0.05397243805999771, -0.038917738118641076, -0.042989182541388934, 0.0008888133358068928, -0.029632991660827456, 0.018270262447896018, -0.051964687960703575, -0.01939927198180333, -0.02242897642912679, -0.07753754950210147, -0.015766207633772268, -0.022497059970888644, 0.06960421597807762, -0.045885855931276705, 0.0033528473661341195, 0.030232401019427216, 0.00020955365822578566, 0.053855003188207184, 0.05410442129011215, -0.027937467468526846, -0.07628609805133564, -0.07682229266848195, 0.064734219415488, 0.0407026371125669, 0.018321696151860477, -0.020554343891798266, -0.0594037389290949, -0.06660524963897389, 0.03931077176880893, 0.012099124322820471, 0.05650650076962678, -0.05755087187681467, -0.03240585105260877, -0.06923986651466012, -0.07256047845754897, 0.047639909510192, 0.006836179889123403, -0.05447560079826215, 0.057010879595394165, -0.0626286452489377, 0.08144696467026324, 0.07040470270934887, -0.034650416419714114, 0.0550186337354904, 0.0033855265759028287, -0.07981867702446666, 0.07519848152971297, 0.034038611734627314, 0.022762133158476916, 0.01741530481307955, -0.04413577552892895, 0.01081400731506733, -0.04871020405694066, 0.02155383439148394, 0.045014641767922574, 0.03791994383773279, -0.0728008159823516, 0.028524025318008125, 0.07108694549548708, -0.03410700911880209, -0.007594089577100574, 0.08103019649508819, 0.07756840497866618, 0.05826899902069368, 0.06150410685143914, 0.005499904244301671, 0.04626552766910485, -0.07086194077872354, 0.025412644939594366, 0.03683591331732915, -0.06549455823225328, 0.054897591188994656, 0.04006690543541782, 0.012146883475902459, -0.006812466461904659, 0.025435663089168708, -0.05962558186568988, -0.07112928989370366, 0.007304091049443323, -0.027606101948527407, -0.01014119258667459, -0.041158949273191504, -0.07354839624157694, -0.03880291713256753, -0.0524023685378967, 0.00964226205860235, 0.015630737098506636, 0.0457593110108937, 0.05824538464179643, -0.05549343181726714, 0.07238924106970152, 0.00043313112187686094, -0.07703968344148038, 0.021673829382940473, 0.07620944491112304, -0.05897725328707507, -0.06950622862111513, -0.0005253226448236039, 0.06126243904689624, 0.06256619314485318, -0.048088200702003044, 0.022328479160599792, 0.04594914878466086, 0.07042862320107125, -0.049153718596512276, 0.06589386337976419, 0.07527895138105022, -0.02063831407692476, 0.06028166993178144, 0.030653013474689166, -0.009491908054057406, 0.004285292777133579, 0.019517737463226017, 0.005106088353764605, 0.052119044251074165, -0.07664686732211082, -0.07963294389933617, -0.04844326627378669, -0.059833247621036645, 0.060636850309411204, 0.05957982997682109, 0.07152980639587815, 0.025195587148560804, -0.019881626317497895, -0.03611792301088648, 0.02199518577611104, -0.04797049698774883, 0.02892688710593781, -0.007979095205683802, 0.06715035535377377, -0.05063374421109983, -0.028361585170219868, 0.0044664331028370745, 0.005596826233125288, -0.04992745754710845, -0.016114462529238528, 0.01611559741911951, -0.06433536663354658, 0.02387143278858981, -0.021050045049807828, 0.07267242065243978, 0.038782308861516006, -0.0017379915552202666, -0.0634584530301347, 0.07355849228897153, -0.018786608488634893, -0.07653683085488533, -0.04313472079278479, -0.0072746053601201914, 0.06357713433687052, -0.020043228755733486, -0.03055282298324118, -0.018534645099422035, -0.04574238120544748, -0.08050026527900041, 0.045897183891226455, 0.07876319962869276, -0.024735006494397138, -0.0639668029243169, -0.07863292674858458, -0.08032434787822419, 0.014593751852926742, -0.060074982629486316, 0.04694238745618136, 0.08049556891318123, -0.0592766638188632, -0.05846834893959584, 0.025561002367594617, 0.05893259334259709, 0.051453153471527215, -0.06842017588690616, -0.017333464584036857, 0.06830910942278132, 0.04005079937918467, -0.04051000329271562, -0.05129466717763231, -0.07428741471274017, -0.012518813965946752, 0.059534666339619895, 0.07211554913118455, -0.0033723881756981804, 0.001818070499635279, 0.07094777138470278, -0.0036156552325047617, 0.03038647752087445, -0.0009299225963320623, -0.08181617118236738, -0.0786596624989075, -0.06640509282213841, -0.023696269029928264, -0.02289973228294896, 0.062314340450940066, 0.010541816444986883, -0.06756526616579478, 0.038950269118212484, -0.07272305024446626, -0.015128154753573493, -0.07286225948776195, -0.07661662308159939, 0.07345052028763649, -0.009204541180768517, 0.0740103632325566, 0.08050268424805915, 0.06723865145185515, -0.07238632642338032, 0.02871230321341035, 0.04501090080514207, 0.08204557120454678, 0.014780507302844973, 0.05131982700789975, -0.00680917148677991, 0.015290294908455737, 0.08235369267404495, -0.00536213803860041, -0.015971968402423896, 0.0782902073104485, -0.04158417564430583, 0.022767305032999768, -0.08115697709863924, -0.05583571673667764, 0.010235762448132742, 0.04725085928191994, -0.014398885387258293, 0.033958006541578115, 0.02261438350618467, 0.043588218718747775, 0.07691390695114196, 0.05671789464413354, -0.07954246824001754, 0.07845156836281701, 0.03217717105477593, 0.05188811530924979, 0.012100210325708719, -0.045982472565202215, -0.03685940271751303, -0.0429000980393252, -0.03189325391615682, -0.035582705906345206, 0.0670293163019593, 0.0566078219087345, 0.004816169985624146, -0.05972707266418221, -0.04071627879282938, -0.05144942712193509, 0.07657675601335982, 0.010147663813623371, -0.0820682095914962, 0.051371300475453414, 0.047078146363630835, -0.04443450232361249, -0.023247633020980905, 0.028784173777967086, 0.03195000223042856, 0.040721498427197036, -0.014107564639983474, 0.036050215380834506, -0.0023439679654203866, 0.0406539283512915, -0.032296235475931113, 0.013458967049518955, -0.07421661599353536, -0.015659768352661724, -0.08085712886888442, 0.04387062683311589, 0.025598680994668232, -0.02926039310302357, -0.013655143675201977, 0.0412743251192776, 0.05193505260101161, 0.07124289752992899, 0.0713119574959178, -0.014606010658485888, 0.052208236242566326, 0.009346473975737067, 0.06507643720987749, -0.06199503419559895, -0.0658910811732759, 0.002801564077934841, -0.05790040906298223, -0.03277861880678544, 0.007158074816779841, 0.022706271338120827, -0.06481425109136464, -0.030079684226363295, 0.07092838353338235, 0.017621654123265686, -0.011448715885100729, 0.0017515286613991555, 0.0684994249549758, -0.00011092121004293757, -0.010162406430183232, 0.003700752141234203, -0.04650242051072976, 0.001536763828324742, -0.05923095149333915, 0.029094698053024396, 0.015659616435407767, -0.021175650364832654, -0.08150890637383847, 0.013659031538255755, -0.05955807514791574, 0.013782324598826392, 0.006050854836690834, -0.006225818732555955, -0.05642767678429406, 0.055208812636857604, -0.07528082444082261, 0.04863428905355872, 0.03578081490856639, -0.05786311297246082, -0.03318530894691826, -0.05049455225554075, -0.06167719529729957, -0.0663883923229359, 0.031179020084968694, -0.05762658364881082, 0.08053478128496457, 0.002657986552463064, 0.005742938946705044, 0.03497590674566462, -0.0739826041512098, 0.07045500877031911, 0.0364320584147718, -0.0587451547534662, -0.04484481446261134, 0.06546417258459734, -0.006863287957029171, -0.05332485326430612, 0.06655656453363716], [0.00042986734470224923, -0.051761097739307836, -0.03292078671692128, -0.016991661439939514, 0.0023500059047821095, 0.04751345843514484, 0.014897462374469211, -0.07364974432554253, 0.05827583661749596, 0.061312479302381, -0.05493045454179576, -0.002829232869918905, 0.0710069694197468, 0.056101507529561126, 0.02939602268471793, -0.017832707854499696, -0.07770795824406906, 0.021387931408690237, 0.012193855751432389, 0.08147674850350074, 0.047858331167047366, 0.030451552635356226, 0.03269425032978834, 0.05271159779814533, 0.06429180675093886, 0.023932767559895162, 0.06586652677251882, 0.025661943048502563, 0.05285595055141622, 0.030997063552982908, 0.022799077561747465, -0.01374252162477609, -0.0336917328719677, 0.06709687519252486, -0.07629387622491653, 0.05082782910930356, 0.01853474050685977, -0.011206372673151256, -0.016330941944091116, -0.033176249063074405, -0.018631541805034006, 0.011761456538657858, 0.03106946229927907, 0.013457684880822872, 0.07850602242020756, -0.07626109831690817, 0.03777741081470945, -0.027288119155349892, 0.04625945887264168, 0.009151623508251104, -0.06766092345991381, 0.026677773608509144, -0.08003697668786462, 0.03919651026761994, -0.003208547515633399, 0.055651724683994826, 0.03247075016561223, 0.054471945257469054, 0.0535783709641875, 0.042025028661056, -0.06764156341472319, -0.004603716115314028, 0.05308283006806236, 0.08179459403395375, 0.05536411567494439, -0.06371479505950121, 0.009246458360909367, -0.01568281724815216, 0.03128881587518647, -0.0617415988618056, -0.03530873354220899, 0.0029105248858382576, -0.034073422704300416, -0.031196627339412978, 0.006601508585127883, 0.057526234967230624, -0.012694618777997092, 0.04255086514942135, -0.061872033279264625, 0.07136037947554365, 0.013160223920399155, 0.04108665953922987, -0.03893854788172938, -0.010841040697875675, -0.06213322387939779, 0.006863330198336103, -0.029920373931306886, -0.04219596316244974, 0.02786350932010851, 0.009884405982900933, -0.020966729730426452, 0.0515563049095012, 0.03933682946621282, 0.0277341133558288, -0.04379231875346159, 0.013604187813783808, 0.010274207857505158, 0.0726255707768915, -0.020498551469705868, 0.055205028705101945, 0.020090381290987516, 0.07548483970876353, -0.02621473121597158, 0.02712077956292204, -0.038914700977617254, -0.002173841767016974, -0.02752841964223269, -0.007694602237390717, 0.01511640903872422, 0.02933860559219883, -0.004902417704041546, -0.048879389886093444, -0.038044651495093965, 0.04479452286540629, -0.0037509469939856857, 0.026568893869253235, -0.03989003226700495, 0.03860141215802476, -0.03522024610169346, -0.0344670491358166, -0.07918209938920183, 0.06610499239183407, -0.04617758512086991, 0.024660136487728846, 0.052460476601564644, 0.07571883916384918, 0.02700987158220215, 0.010768442140571407, 0.0699796094195022, 0.06257797313728135, 0.03750827841416234, 0.08149921300615791, -0.04324875657065642, -0.05617648457911402, 0.055972483939748414, 0.03750762028744739, -0.029220788254477985, 0.02242991840318556, 0.07352308531714702, -0.02398549373799586, 0.07006692660128605, -0.036799013742800694, 0.06812034714788126, -0.07962013676878645, 0.05820541069234448, 0.07782330169935646, -0.051641208462974646, -0.03420769555176999, 0.03032836271727569, 0.07591475843042751, -0.03531913819422081, -0.04034406648436068, -0.07520919327575465, -0.0012698616390220956, -0.024870783451251547, -0.04621358925229419, 0.07269602094539539, -0.018515171770491806, 0.07954704970467591, 0.01103936889666091, -0.0751754029768497, -0.0773470773876521, 0.05791269957175864, -0.020086660424157764, 0.04860103838511916, -0.015414326984541052, 0.003659533571842632, 0.01224503174755241, -0.07415599428329028, -0.04003261711386206, -0.0062924101309974135, -0.08108898828488419, 0.0062261010087814655, 0.07985196225114988, -0.008567494696725145, 0.07904889537200116, -0.05165317757202235, 0.07888075648538388, 0.07538317253700823, 0.03172124095868151, -0.02983370554240953, 0.04488160569683261, 0.06264366321244391, -0.03204731548182598, -0.006077098321075309, -0.0071571863064828906, -0.060970884230151255, 0.03477664210734535, -0.0029177964844724785, 0.04461680386510269, -0.022869836139354966, -0.03638268783935269, 0.005681789606821385, 0.029477390351896587, -0.0751803072164227, -0.055771462708953536, 0.04161200280398707, -0.01088869707036673, 0.052554573666357844, 0.05282915364832652, 0.044501270191416996, -0.01869288930659154, -0.028790039960112288, -0.05431020703459831, -0.01113565371621806, 0.06315888479006906, 0.006106609035105339, -0.030840745958350756, -0.07359666260321854, -0.04347983198210735, 0.028814269525847203, -0.029414355880808728, 0.004275443329887255, -0.032895234116505176, 0.014920820762987766, 0.002342266097935181, -0.02615224075329547, -0.011423983090175479, -0.00038372559243038417, -0.07272680458604404, -0.05100386025623869, 0.04168651785978787, 0.06824351389784952, 0.029953179581143633, 0.010619707035156384, -0.08110181785203024, 0.03319860753299416, 0.04314963950681898, -0.04029655785912787, -0.015188297937258786, 0.05252234418368308, -0.040543323949333944, 0.028175773858415472, 0.05338970855267941, -0.0712771633134985, -0.013174445941871648, 0.02882307985295731, 0.04408399841246458, 0.06731250902868147, -0.024527156272114898, -0.07519633233733851, -0.03648625012101211, 0.017883192024400033, -0.0476853156603808, 0.06303973415259687, 0.055853709161318425, -0.07128145852065369, -0.03356745563552166, -0.048674137118552854, 0.0796453208038176, 0.043493836899403504, -0.04809586123220913, 0.008626203656964548, 0.07706753844924777, 0.060595368540522915, 0.024771939871306808, -0.011978794871446216, -0.026107313660324007, 0.0012661206273396008, -0.03992760013444299, -0.07745046747117158, -0.03822462307113592, -0.01577519966114526, -0.07661871203661896, -0.020968177238902132, -0.08132056440352027, 0.03778611175555237, -0.00845767095674285, 0.07023578258207067, 0.00505853538515206, -0.04304122338076755, 0.03970334402398508, -0.062180657556299146, -0.035631767888815495, 0.04649281793476912, 0.07831434345653181, -0.08173375912434432, -0.08168521579764387, -0.03758783881532418, -0.03937690413789493, -0.012047170009087465, -0.04822001947125642, 0.04242613704972773, 0.008391588265172483, 0.020080772741267412, -0.06438582901789885, -0.012599066845613892, -0.07786741193774335, -0.0712354726819059, -0.07922511270078755, 0.0030644033197134565, -0.008854842984661692, -0.037680123958471735, 0.038747839466337544, -0.08008701199703296, -0.030827938493020235, -0.07294062393393502, -0.03760232553335986, -0.019652965684803847, -0.04545986682902332, -0.022078141110565188, 0.0815910961730801, -0.04537379613426296, 0.07402743741773171, 0.021827773450653835, -0.01952818319829333, -0.04668358934542438, -0.021515300710551865, -0.0668649349853078, 0.021202913471982433, 0.06855351546815147, -0.08075224323649753, -0.04901877336203319, -0.0006502818339875056, 0.024112050109653546, -0.07296004390044505, -0.07112080089296573, 0.00481709896319949, -0.0074917987031256, -0.07458943077878341, -0.025624190304082604, 0.06553800757748107, -0.018990864917758525, -0.01732853116099983, -0.07669589458579683, -0.07176026738078277, 0.0656755816132992, 0.009378653615960159, 0.06076623769436047, 0.05359534867438801, -0.07242470955444696, 0.024244185438624166, -0.008269440226224098, 0.052180615753707034, 0.034073357991640685, -0.043687089136733574, 0.03649496087931237, 0.0050496068686238646, -0.044825095805443305, -0.007622368640167799, 0.04234915544999256, 0.07159199012387238, 0.030282262319594154, 0.024555943906714083, 0.07907077754960755, -0.02453038158224377, -0.07680602036491058, -0.045324639425257954, 0.02890490666609366, -0.027062096936390313, 0.0015348089546121035, 0.04177736644447648, 0.021332179280226023, 0.07710740425115076, -0.06214681057738472, 0.027712836449382442, -0.02189773787695846, -0.058581909824314334, 0.07309886254046993, -0.04311479295878163, -0.06880379821245101, 0.062161384756314296, 0.035461185152557986, -0.035589629265701445, 0.055258632974743226, -0.07223048387375332, 0.0090223319438395, 0.05610650904292674, -0.03710668255345535, 0.04731297850089397, 0.0291987295568221, 0.06495935728068636, -0.02283242328074133, 0.0024161835211934366, -0.07425836792999187, 0.05844986741430177, -0.08056231208554891, -0.016561919074702537, -0.00312492868924984, 0.07927117845413476, 0.06218437876785089, 0.07944932126331182, 0.023711789677716835, -0.012261841796786218, 0.061001353741964304, -0.03063619170073744, 0.07003745784295491, 0.07389414349124435, 0.06062349176694029, -0.04643060266476751, -0.014520902832680378, 0.07200237343726593, 0.03058502684458169, 0.07002671952470699, 0.02785768195243197, -0.023924075383212486, -0.08174546487136342, 0.06436534002764611, 0.0757738095542999, 0.07421155700609063, -0.06874778631128382, -0.03864780742259292, 0.0741499513921112, 0.035884897199354206, -0.01255460363346365, -0.045280975166740865, 0.037138333401483245, -0.04656240594353661, 0.017868556035232033, -0.06873172679426717, 0.05292114314145776, -0.012428666469652098, -0.03440798974768792, -0.06916058716906288, -0.0706426103335576, 0.01244677599149843, 0.013738447283465073, 0.04516131625429241, 0.056674079001186164, 0.010725643520411133, 0.015086960156222379, 0.07532347257800946, 0.0008563584975495429, -0.012827018041233299, 0.0005342334483916189, -0.055790936342896905, -0.0212624646570284, 0.062343178638217304, -0.06879757558036266, -0.06651059089242173, -0.041149684789142854, -0.028409157812257207, 0.021332317301314716, -0.014283298576320125, 0.07262759626098265, 0.0477225683850546, 0.018769956966551093, 0.004878735406494611, 0.029308195691835143, 0.08117859175531496, -0.06255741110883213, 0.004419864352063264, 0.0063992186484546805, -0.08167524879549894, 0.07518840186333905, -0.024456973421346076, 0.04228599238000938, 0.04757624366761248, -0.06504298684635901, -0.010821528611500342, -0.06261867790308769, -0.0731245969273325, 0.051635644606637554, -0.017904144488887764, -0.05198617499431647, -0.03723190364156824, 0.0037207574269742996, -0.057250543326173554, -0.019041514269485322, -0.07429976280100156, -0.0213076740012939, -0.05630961602085584, -0.014184226801936992, -0.03134107705371691, -0.04919728968404967, 0.07842909443200884, -0.0037669144101806678, 0.030822232317760358, -0.010940746609991694, -0.03656637406766632, 0.007283440474955489, -0.017303612482895258, -0.04783377937706735, -0.019557223678973765, 0.062579139015441, -0.06688938720509978, 0.06197197383026878, 0.05106145889008318, 0.04488584722903258, -0.02974958251797013, -0.011001544407715303, 0.0470167874214873, 0.025718793836569727, 0.03942942024239009, 0.05174059080425777, 0.017615595962208897, 0.03860297777657968, -0.03883465795383005, -0.04354385256786816, -0.052037543328243965, -0.022157072160680566, -0.0776978638157336, 0.04290538188050411, 0.01671684950330449, -0.07819743526274672, 0.04301779654779519, 0.07591922132252679, -0.011573040838320779, -0.040839044764575845, 0.0658627361093927, 0.010093010046941518, -0.06569372965609559, 0.039292657044236026, 0.02609081233543289, -0.02546647455972041, 0.05597171417930687, -0.059359231690248426, -0.0808231685790916, 0.02421294512257624, 0.05215270234152507, -0.027329001677312607, -0.04704211646128848, -0.0019465780894753167, -0.023625767885158504, 0.05895931635555478, -0.013018842924975783, 0.0736541302233325, 0.06028042282484569, 0.05689070656519541, -0.04937725117219272, -0.05232326659633647, 0.03774449988640707, -0.005330777308008363, -0.04080445361509739, -0.036114817780267275, -0.04333736906491231, 0.04200189454789614, -0.00012308356563078764, -0.06045334885951449, 0.056057224153252684, 0.012250280399934942, 0.03253293084262505, 0.02252116801149486, -0.04222687956740871, 0.06408076664482214, 0.06296681117381346, -0.0709205594733791, 0.04543804858552214, -0.04203526627042717, -0.058859576880252625, -0.05113383726729171, -0.04207862927754458, 0.07629357447078455, -0.044620500777689594, 0.004451452288149363, 0.07764040003038465, -0.0809548645667393, -0.06818612683561853, 0.034808216721553986, -0.049860626470453105, -0.04729068241825367, -0.007446891984874157, -0.0004816244866095314, -0.043344466906119476, 0.05066195584937035, 0.05661498685617725, -0.00190120759283073, -0.07831467548675947, -0.03449675292885595, -0.04839629323670196, 0.014590040804216376, 0.07713621268116813, -0.0015463905450927903, 0.06626152658038471, -0.07208696101124101, -0.01445871920104779, -0.0358417069069053, 0.07143448210997358, 0.007881862410276044, 0.07558536585853491, 0.036003928405650094, 0.012911825356896795, 0.010804079531732756, 0.005977581147790963, -0.016687299998511904, -0.044248365200280394, -0.049973148212363774, -0.025379162014948324, 0.02987245199185209, 0.02233681135344075, 0.023958248367475, -0.04996345750795383, -0.077566112777158, -0.04832684586830104, 0.06975754497621366, -0.05595231725563229, -0.0569239333083334, 0.08089591949930758, -0.0330672034014402, -0.013520884698241543, -0.08221247248695432, -0.02883472898059573, -0.0465097527115343, -0.007731938565108558, 0.010237489920836363, -0.048823154455412944, -0.06919289655498007, -0.008050782156445654, 0.03578462011175871, -0.012367371963700857, -0.033764099455011534, -0.06090107580309334, -0.012684015260081795, 0.07499474935678807, -0.0683966218681012, -0.07941964477093848, -0.05930557632288786, 0.003906237890599741, 0.03889125443313524, -0.0697411407629891, 0.07182875432394543, 0.07919091998389274, -0.010164139563641855, 0.04870773659660678, -0.019455889693153695, -0.05401841394722348, -0.04979887402936495, 0.01717491878795194, 0.07804194498299794, 0.06549488115102924, 0.06851239799051931, -0.024776489964106883, -0.07475506095584075, -0.056890003290608206, -0.003625744015841245, 0.046764372879676525, 0.0262450534931045, 0.06781666250631359, -0.009518448306177383, 0.047035905765442275, -0.0172543552542314, 0.07571117351935189, -0.04529483390874, 0.027309747342988838, -0.00718072132111425, -0.046213969538103084, 0.022192849418496096, -0.04020252437712539, -0.023585491534472675, -0.004612929540937651, 0.030051956164892035, 0.01545592808301499, -0.049750784796825105, 0.074917264954267, -0.0019053797574409572, -0.02295981577314232, -0.018554594543843866, -0.06118888890657911, -0.001523429877815314, -0.06763021644507415, 0.0594211795926896, 