{"layers": [{"weights": [[-0.008024104968938791, -0.007076163649134811, -0.07812380538539211, -0.055820930063100814, -0.042203702827239765, -0.07019882857688887, -0.013591991261532682, 0.016732016328995264, -0.04220326505189325, 0.06285433995062588, 0.06881482032367237, 0.05848164418016676, 0.01763265055999262, -0.06863952324893242, -0.05444496850959442, 0.01607296928660332, -0.021097313587584234, 0.01819443453950841, -0.039072706178449636, 0.07596748548283618, -0.017221378834505818, -0.03998607080570329, 0.009105042886265933, -0.051616778743859594, -0.055060671636760955, 0.06209460910724386, 0.05588666889252655, 0.0711745380891633, 0.005431405487184041, -0.00874536176618224, 0.026141825301194473, 0.013151791307988284, -0.049816092081357316, 0.038447485690702575, -0.0654667075063134, 0.012929336641864901, 0.05075518537339089, 0.02198320291611795, -0.0349942693331953, 0.058230534463665995, -0.036923270902026954, 0.0642887467784674, -0.038317563680581514, -0.03653037680865673, -0.06026515013764622, 0.05021105398555753, 0.017590763953532013, 0.061565125061685384, -0.049028624758702156, -0.04102767834023373, -0.0192458340080854, 0.016819444377614675, 0.07048229623768806, 0.06854519523487346, 0.08227379382381765, -0.011563308567966914, -0.0415304469933921, -0.06692095379356273, -0.0029275344500965987, -0.043217792958522065, -0.06522357012472035, -0.07710577692156531, 0.02661252866253087, -0.04181676806134614, 0.004966430805463107, 0.07771417106627018, 0.056883278306840195, 0.05728499725082058, 0.024078114465525095, 0.048419959005566324, 0.07252737573293969, 0.0934964641475779, 0.024585831366061323, -0.015329160707016811, -0.0572011311757289, 0.005169560100916589, -0.06854772130381934, 0.07514177978923808, 0.0167964819947585, -0.07599378287038094, -0.023782122742150517, -0.03069362892780093, -0.025149973100592256, -0.027202570108665662, 0.027265762540827312, -0.06089742722865919, 0.0012739120571619476, -0.008235805733253977, -0.04417005048219213, 0.002257633238190768, -0.015439119531320464, 0.01781024889289709, -0.02554822130699546, 0.10621815313427997, 0.09657910160686499, 0.017544443583079564, 0.07598169140718966, 0.04366468008840891, 0.04551974455507635, 0.0650246414579528, 0.09265750678395464, 0.05751083069496926, 0.08854146871278876, 0.0012038316087570418, -0.005902999341951662, -0.03700873247066729, -0.02096971277819314, -0.04674091402277766, 0.07704559485474494, -0.02210199982137248, -0.042980315437493796, -0.026223907436565146, 0.06472488497377554, -0.020240149115407675, -0.01126056327935237, -0.05829155809462696, -0.04628566450984773, 0.03468026955940824, -0.033576089368431025, 0.08423933687765471, -0.024484025161267277, 0.05026341271747797, 0.07281748094117121, 0.16118035235933229, 0.050228547712241965, -0.007090641139927642, 0.10158899150837843, 0.10552834155179931, 0.09831141579886427, 0.06061885552011486, 0.02863712717704682, -0.02908681417228196, -0.004847852557279527, -0.05822705648423958, -0.032027315367160844, -0.07312770841086519, -0.0050539094747853236, 0.055865617100173, 0.04814934225273063, -0.0636271926299953, -0.07117073109375226, -0.04117346322684696, -0.06734672320598563, 0.07746594552303407, -0.03355437314686638, -0.009206328279433096, -0.051793868618107745, -0.0019692384491720887, 0.03100399761243629, 0.05852657517564146, 0.12696134038131157, 0.02726116510470258, 0.10426519164169988, 0.043504880196034844, 0.16756691557009462, 0.13540877896702003, 0.14607795779133761, 0.15663474648490033, 0.11974406986017576, 0.05856983363650198, -0.029122047091365528, -0.036492815990240665, 0.021965331841117038, -0.08477632579286018, 0.046153067318916954, 0.0035313894881878584, 0.030288956864960633, 0.051731432755917704, -0.001680518067161904, 0.07209298610688486, -0.014601799063331164, 0.05111429305234507, 0.06962924700994029, 0.07814930521466225, 0.05291958154586818, -0.006423866846140526, 0.12200663627445127, 0.10119015313787025, 0.004653194864316571, 0.08098039920332574, 0.05901435959340685, 0.13343279015313608, 0.02782889967318443, 0.07484048282703969, -0.03668561720089124, 0.03394596283213422, 0.029759896886789306, 0.04747768130358096, -0.004086413017617245, 0.055131707779275084, 0.05430521428391766, 0.01862912854546913, -0.07980346120087074, 0.07362232539527976, -0.01385495369814695, 0.039777557535628436, 0.04762618401601715, -0.033466437699210885, 0.021597961280808382, -0.08532760672347034, 0.08176485952774834, -0.020301052516943096, 0.037062279184559205, 0.0710145102311899, 0.10019248772271697, -0.015125240838818043, -0.04370903337139627, 0.017723223524307878, -0.03672366663863891, 0.0016829004503583465, -0.009256257467600428, -0.06830514646401371, -0.00449740937372068, -0.14438453134446982, -0.03001352757425915, -0.1362524837505215, -0.07852025100377757, -0.029897573706158788, 0.08809284007005187, 0.007886775867686244, 0.0450438606141295, -0.06658736208951266, 0.06137305772261639, 0.036188554737240364, 0.06818382808691477, -0.058798640003513, -0.0029084979477384423, 0.037866113312424766, -0.0006092400175762796, 0.06429821483937725, 0.07243917817740654, 0.08690979921024371, 0.017056389695663043, -0.0433951327473567, 0.11304689552224396, -0.03480992633708917, 0.009138661301160648, -0.015900021493452838, -0.0619075866811502, -0.13996174428383973, -0.1047735195982181, -0.17107365080153536, -0.12259915666513091, -0.131553570627274, -0.12098678588354239, 0.031731543208217375, -0.008029545181565938, 0.00482236740087351, 0.049000977013841006, 0.07603354765413221, -0.01145207852848802, 0.050142093029184716, -0.039933850438161805, -0.013414750662489127, -0.036597651823030604, -0.05638383115348062, 0.06266220288736146, 0.014616149842552275, -0.05242250698079917, -0.03776883931557833, -0.04765527995891442, 0.022282110554300842, 0.06017119504153696, 0.10446749988101854, 0.10779895294293833, -0.02406650760713647, 0.041876094621357475, 0.03316037144556121, -0.01267309542394958, -0.10470072966117797, -0.030947272462881332, -0.033906416506974325, -0.02536454532890743, -0.1068505236171348, 0.05537621448581045, 0.031639264057973, 0.08031952980264498, 0.02358226581406517, 0.06174561043890821, 0.015884058541233155, 0.08081764146061234, -0.033322182843349084, -0.03306952327005741, 0.06784702494686792, -0.04915891478874547, 0.05028368985375043, 0.02611467685428707, 0.09327504343656505, -0.033177450408921796, 0.09091580760856817, 0.0367090732602908, 0.0163341004522376, 0.060011484910059865, 0.14038766112260978, 0.044232439536670276, 0.09053046618436132, -0.007449438312041304, 0.043864594246235254, -0.11467933040109447, 0.007133206404747833, -0.01082438769479208, -0.0550570864296346, 0.027574480718328676, 0.03381832876458523, 0.021167107251614508, 0.05336128084730539, 0.0020394081421949263, -0.05622392659662524, -0.06320648848846325, 0.01277900115266392, -0.05505187547814821, -0.044354593503765735, -0.010830664669467022, -0.09959839342017139, -0.09992649459621683, -0.09180924595257747, -0.06411513505528914, 0.09685671696555032, 0.035789136292619914, 0.0028402814660684083, 0.046759051353484495, 0.08990127548361063, 0.09443929237544227, 0.02233035579064689, 0.08249433041239215, 0.03628698784489213, -0.0008729769358164237, -0.004387496339172426, -0.14066435232635252, -0.0511865597615222, -0.10555943294475228, 0.057054985023966755, -0.036335557401617646, -0.04351267571749657, -0.053560073702874765, 0.03929131754277312, -0.04072719577271557, 0.07905114574617357, 0.063941263522845, 0.039861315526520044, -0.08035027901421282, -0.08330938695357502, -0.05928308407115691, -0.05121263220808884, -0.02795314346606499, 0.12270267448180777, 0.01979118866544027, 0.09981239354517878, 0.1535888210715012, 0.15026208626161888, -0.01080392150550298, 0.012061963509718181, 0.018484295606725973, 0.015154300178897722, 0.030134671453994948, -0.12029878112826756, -0.053538613615861805, -0.02468214162956196, -0.013604583673081037, -0.030268786011466552, 0.0446801217573303, -0.023690006635959916, 0.055789874702249984, 0.026135220007972398, -0.057359426606184136, -0.016374967168189203, 0.010969335339082847, -0.018306128406649462, 0.022353098187594532, -0.08042610305806708, 0.009107569835236971, 0.014017796737037225, 0.006347611243460851, 0.14545567039361432, 0.08056898458414868, 0.16547392866797078, 0.15589948210807503, 0.07093425127221215, -0.02820691739687609, 0.082182879537942, 0.09628802662429341, 0.09132391279884552, -0.030014146984269612, -0.13100940306494016, -0.03199564788139617, -0.162218731299332, -0.03337708898460068, 0.10731432230033103, 0.0940435982542123, -0.03127247024898315, -0.008004567704401017, -0.05604182043471688, 0.05697760325570012, -0.06354560428542753, 0.009382597514189022, -0.07740404943055565, -0.09880235622854289, -0.1251147178393957, -0.08082559833831417, -0.0016944963523617997, -0.03191226432261596, 0.08844268868031582, 0.11512409248599303, 0.1776847202595573, 0.05958335779975244, -0.014979110154592861, 0.016251982444030085, 0.06984146301992465, 0.09884576874250041, 0.1346212576744612, 0.07425693525522012, -0.10138756313314663, -0.13727157712170562, -0.0754883764372883, 0.03554090958381176, -0.02774861590767697, 0.08484475205009964, -0.032384251622038666, 0.0683478198642061, -0.055426039070659454, -0.04017975992205578, -0.0344721283686685, -0.013896217403778683, 0.007473121432053601, -0.03663507194011683, -0.017480738414003504, -0.05749232050528068, -0.05065962399430643, -0.018868464067816695, -0.02893113165989464, 0.05246503032918789, 0.06454954712773096, 0.07937331172009102, -0.010117269671024425, -0.0788833045017013, 0.031220619258596306, 0.10601346958088571, 0.0006461816422846505, 0.0137111302147348, -0.07794259040774724, -0.006591512539678148, -0.03805834615321572, 0.07239097846318476, 0.028012669531839233, 0.0014344773871317667, 0.08768649398855315, 0.041350662803972746, -0.043805996216764106, 0.07336592020536455, -0.03313007479558544, -0.027142613362737256, -0.02763389102713331, 0.011678296612003886, -0.061709338687418694, 0.057550172736079944, -0.009491022070434061, -0.039376172785086254, -0.058268434928268005, -0.07813335084125227, 0.03319562586213313, 0.028803884561684968, -0.02548438657126492, -0.005135020466523815, 0.038346282740920945, 0.11149333166214367, 0.10643199921767602, -0.05796314937871, -0.0221925578528969, -0.03675215048996693, 0.043254541014459816, 0.05073548574807607, 0.1059498367206943, 0.03824894977862023, -0.019940738868988183, 0.006566765961930129, -0.0441285834015543, -0.04546851321093454, 0.055541705360258806, -0.002407720859323139, 0.09435046323176799, 0.10365874043493617, 0.0555086557370786, 0.09393909258460859, 0.04909579456636656, -0.03200330648981479, -0.046981739784377224, -0.13419069336163586, -0.14022292967785296, -0.105134170012202, -0.11583491135712304, -0.016238462434575614, 0.08697955960786292, 0.08077063944863769, 0.05544250929080772, 0.029778743647953323, 0.012427932344783656, -0.017406046428199262, 0.02382677486212248, 0.051404096598437324, 0.10794606202734484, 0.05287776293687821, 0.029151260366041293, 0.062193725228577565, -0.027926662982504163, -0.005524505044346008, 0.026120138573495565, 0.004709032196201258, 0.06309910819406817, 0.04509359740022763, 0.05182641753892625, 0.12709649958298389, 0.08641419672297025, 0.0018986712478367552, 0.06972569036955338, -0.02257105322995745, -0.1310572970560296, -0.14164448849419897, -0.14279434551768966, -0.07826641327049146, 0.13533130239672675, 0.03332507442638504, 0.02224604137233293, 0.10197990423698321, -0.0011576554758154951, 0.07268218174879405, 0.14099504606965707, 0.1418264025768549, 0.11327981224319955, 0.02722934794699354, 0.03595423477146127, 0.04443469037527854, -0.01454166433915873, 0.039535964744331735, -0.04350164856606693, -0.04505971649864982, -0.033919335400017576, 0.05330398998610519, 0.1326840270691065, 0.07004840261081456, 0.09301196369752246, 0.062258655395816306, 0.023806080774520986, -0.05755182523986079, -0.034205008761521154, -0.049248216004687845, -0.13327155217131248, 0.033983242208515965, 0.14853768228021036, 0.0417604410067127, 0.08881936548702982, 0.01881170719284481, 0.08805634570245982, 0.007798417815162698, 0.1423557715934174, 0.07187042061526115, 0.05780205673569826, -0.016780384835316752, 0.07160526536588808, 0.08310069872806292, 0.03993614384906809, -0.06494030004034608, -0.07990248714644822, 0.0451850563409983, -0.03485463159427944, 0.11354731274003975, -0.02118669914185868, 0.11983904920839768, 0.08732978251723603, 0.13132602802792062, 0.022896307511008417, -0.035187488424281654, -0.05926146082928429, -0.007888611612959584, -0.05610092514249802, 0.08514389082726194, 0.11777577308254449, 0.10428122426441828, 0.19451411887704792, 0.08574264346519773, 0.033853122934908345, 0.13417199737063165, 0.08051934605337378, 0.054445594626847116, 0.04401236727694796, 0.050864317606500405, 0.06453491019116094, 0.04014896362868599, 0.08235491295438602, -0.06166092821367363, -0.029681744193442453, 0.0038101784849592186, 0.06734551470341285, 0.08751636149489385, -0.002514587230975305, -0.045965988762448874, -0.018188002310386697, 0.029740423856281936, -0.043045390669645286, 0.0600576423629598, -0.035458381922415225, -0.05150944635047066, 0.10644093032528554, 0.15188180496597448, 0.07807411853002479, 0.17822127053567643, 0.14585606860287, 0.17480381506165446, 0.007688372846009407, 0.013324162602257272, -0.009251533096922553, 0.028219547766688412, -0.020679142031646388, -0.03842523057716231, 0.003801216994768339, -0.0792166640823315, 0.004406118117372862, 0.06864002900159942, 0.00681744228550719, -0.013026684454205866, 0.037096822887111386, 0.06730205606818793, -0.010559176436822961, -0.007387791674946254, -0.013924552055204877, -0.018530561179596648, 0.004055201215554295, -0.009208485158799564, 0.05505192132364438, 0.11194096557794787, 0.11137768812730306, 0.07078785647639653, 0.22197531525858974, 0.16011286204564545, 0.049435246101283116, 0.1771384221000572, 0.0763796866248587, -0.04178332777423928, 0.06897886937039195, -0.042293860428644775, -0.016389748772408102, -0.0742402730473947, 0.021942970964066034, -0.08236632008503772, 0.02480270875326599, 0.07404568783374377, -0.05719205527725044, 0.04257954503232311, 0.07113877031666817, -0.09615992926894272, -0.07863527541943549, -0.06549647054045948, -0.0803140086714403, 0.04692239130074309, -0.001222558392538107, -0.06354761230161228, 0.06126467327520551, 0.029349333050861504, 0.05777175289440274, 0.17789281261125012, 0.1246957845877531, 0.11967270926347058, 0.18472758362755407, 0.030400726374326118, -0.031851546858465696, 0.004553512334851389, -0.05674953401865454, -0.08199044766618979, 0.055768224800916553, -0.017843529921030613, 0.07859330826822794, -0.07809461664408601, 0.014643475045377512, -0.0770505076888363, 0.06564686355437867, -0.009507990936164008, -0.03157418332199266, 0.0019106617099918593, -0.04729662594827129, -0.09680702601132361, -0.08146191465924636, -0.08074666879450655, -0.037301322798671176, 0.04321796466597847, -0.03787350831401792, 0.12382977343897043, 0.04573838671710575, 0.10709209782787353, 0.05961080751079069, 0.1446899245756249, 0.054229579292127676, 0.041103391023026216, -0.08175576919510595, -0.09315565887431577, -0.048722124165038065, -0.014708276718434946, 0.029084153322446564, 0.006529449534728944, 0.035981613801412585, -0.006700719980504264, -0.07993045904701193, 0.06846749156993401, 0.05258792979538705, -0.025848235684659115, -0.07118232057928166, 0.04290939779889884, -0.052614839802269504, -0.06898674188055615, 0.02766354829666386, -0.10909793308921859, -0.028033089254988885, -0.028592542139619394, -0.038871328260401974, -0.05649320694529595, -0.0627388361619109, 0.05707214962624891, 0.020919124353211783, -0.06531882922899893, 0.021551069377070204, 0.005976554689713542, -0.08037815329974152, -0.05778153279091157, 0.019374706739458698, 0.0010794016668643708, 0.00816857257077738, -0.03140869143966459, 0.038341415742168546, -0.07324361305090141, 0.030262415542293104, 0.060338871708106624, 0.07484893823121998, 0.06893775116285548, 0.04947975138567275, -0.0655045377367217, -0.002649841377178845, -0.0519846109269732, -0.08744661944673676, -0.07423449995329891, 0.046780023162722194, -0.10692947175739594, -0.045099490802062756, 0.017955751722176425, -0.02072068756672195, 0.02943645572183124, -0.020774278619374302, -0.10291023522476728, 0.017853453596141808, -0.01743933599096988, 0.04081509781780542, -0.003077613602620026, 0.06486297438898261, 0.06044464052373737, -0.03303224412242148, 0.007403801204365982, 0.03200450071119965, -0.009934807974763721, -0.03315775248123022, -0.07123477914120663, 0.03572035164261177, 0.01868140309319351, -0.016917502774195643, -0.025892945185494516, 0.012878365145056858, 0.046579344726529665, -0.08352913775410538, -0.06360741695956472, 0.02467166773024935, 0.015587036418870683, 0.07748513884493989, 0.05080611445338239, -0.033779441854738204, 0.05794627069964442, 0.0727295775224899, 0.006398943784402691, 0.06480025416889344, 0.04306072817513818, -0.055120498191421764, 0.040478372223999505, -0.052262178388993184, -0.08206839990056555, 0.06731356226786694, -0.07627160911876646, -0.043236648792498555, 0.0043470699846242826, -0.004739926210293782], [0.03973167826512952, -0.06832630860745445, -0.08044197342167961, -0.08185201993838674, -0.0027613858176319486, -0.0026470815060773522, 0.016449408224911637, 0.010532726006762645, -0.020656443564160097, 0.0066229967611122886, -0.039181967532687774, 0.04650671140498143, 0.04659831080478277, -0.0712223725275497, 0.06349405124835489, 0.07267676138372853, 0.07692687994395532, 0.033751461678687845, 0.057302668390184885, 0.038421900082298927, -0.03768825041112073, -0.019268934326534263, 0.0238879103707687, -0.06544933933120677, 0.029271633196717856, 0.028677991623961892, -0.051717605843870036, 0.011930209484396704, 0.03761405564008256, -0.038730907686850766, -0.019867472693922136, 0.02961605764755208, -0.00019996248975543378, -0.06892183333830687, 0.07223161009602529, -0.009349972404035312, 0.08156255643337854, 0.07358889403480844, 0.07980210860855748, 0.08019759454415049, 0.025524948399222987, -0.07726623796010806, -0.031822954217754516, 0.07398113740564877, 0.04966432169600971, 0.08302618653837573, 0.06625919286843826, -0.047398993339440976, -0.03400915838631092, 0.007102581123341367, -0.0008532193307282201, -0.07899220565145024, -0.014388459274350496, 0.03039832302570758, 0.04216290750990562, -0.07573604714054157, 0.05600306348608314, 0.07868648013918518, 0.051443337443509436, -0.021068210219238978, 0.06406466322397245, -0.035994059546311116, 0.020824540542053144, 0.06176248562999217, 0.03213158902311513, -0.027743792825539428, 0.06715285702201046, -0.0410816139294154, -0.038046770483139904, 0.09152665485845538, 0.09901289547417659, 0.011758734072126274, -0.031822622901554146, 0.03760612973313292, -0.005071137853273982, 0.004018164499877385, -0.05383200665991639, -0.0030415434304558657, -0.031054099626028488, 0.0039005207847989886, 0.053556612136300336, 0.03631555789284806, 0.016127880770836458, 0.003116528423059086, -0.036394580327047954, 0.03080098294970736, 0.0040561664720931865, 0.026889449763645656, -0.04550099516552445, 0.06809420975489834, 0.012736169382752625, 0.03389323128890009, 0.05481187778552928, 0.03762185194241662, 0.06628575546463616, 0.047493100940726556, 0.08684212220866787, 0.042679513957441025, 0.03321761344181664, -0.028056678969050685, 0.10380851913079575, 0.09323672890265133, 0.01840424503541333, -0.02813647582119606, 0.08314290872164183, -0.027407164209412076, 0.0609126541520493, 0.07025471318848964, -0.009194651996352554, -0.021885495254455455, -0.06959516420747185, -0.015647331384768624, -0.0772271077714104, 0.07546363053806812, 0.0534124135893767, -0.06734406452915238, -0.013607784843612664, 0.04259914015395311, -0.06757181263306057, -0.04493301199776946, 0.0401355602644759, 0.020527961584091283, -0.06358795501380869, 0.059160693421741115, -0.042950072778511546, 0.03746618998415002, -0.059807190542004826, -0.01349341366109584, 0.010147186505266045, 0.10519662953720046, 0.012438357576194601, 0.041018171825524856, 0.047793459592521785, 0.08036263696500491, 0.004617603930776506, 0.004852276930427521, 0.002003984825818911, -0.046362453908059716, 0.07533164152937233, -0.011198914968858867, 0.01797177885716611, 0.059271586412791344, 0.01872553715591731, 0.053308285273742574, 0.0348035868598026, 0.04818246902211576, -0.07379586202614595, 0.043826468428969555, 0.061916633160246946, -0.05807720036557975, 0.05553881908338311, 0.0006576586336259365, -0.10205656719812375, -0.09138299302190105, -0.04805128913161188, -0.026859523599672912, -0.018346832288328122, 0.03984791614908411, -0.07004280927312005, -0.029807255249153647, 0.06447368468277735, 0.054490336415059425, 0.1172123258432261, -0.043993857198516825, -0.03275420657614973, -0.0553401832678033, -0.04814612341848853, -0.06442328194857494, -0.03972572232366497, -0.013454788623389053, -0.005391943136380562, 0.07994021862687452, -0.018491759867445758, -0.0204496104537384, 0.04292916581253463, 0.009166326020605303, 0.004217473761781011, 0.031065422492343935, -0.020504872567229545, 0.0014168634441584487, -0.031129144013830747, -0.07727428400082725, -0.008464415169467096, 0.004134620460362771, -0.115016187751759, -0.10214815812429677, -0.07092150477341085, -0.08562192103553252, -0.061175505039562705, 0.060723970888524575, 0.07143886843399001, 0.11437784149587327, -0.009109440854854526, -0.05083921976880367, 0.01982638949153345, 0.04230396634406612, 0.03839077572797368, 0.04288288270387117, 0.009041085538830257, 0.0324992936640275, 0.03008752639669449, 0.08424579384036522, -0.06447597879963693, 0.08054097080828214, -0.01617009603354361, -0.005579086374116894, -0.0708079585230285, 0.036903357006153395, -0.07938440741107713, -0.08356791648553609, -0.11155459987306911, -0.039964647721076475, -0.12065431728364262, -0.071664563297535, -0.06401368637003804, -0.0977937604694396, -0.06312829993022426, 0.0690883739567248, 0.10751458220611132, 0.1046233714690795, 0.07612890932364735, 0.07686660641198428, -0.026974475861932464, -0.04558650501556494, -0.017490355519445035, -0.034967427729694835, -0.0418732257586266, -0.029677243586315016, -0.04704417202883684, -0.06690555549942225, 0.029583063833478602, -0.05145182188310335, 0.026645823661500936, -0.08326847090991125, -0.05147743913108684, -0.1211806770672707, -0.09151584313963515, -0.021799280967161938, -0.059315552272704256, -0.027755929938014144, 0.009429713618114082, -0.10384243219157051, -0.045326810822732364, -0.07686993149508987, -0.0041430486746070775, 0.05525641627720538, -0.0704402573468474, 0.10211600827092397, 0.027458421994302273, 0.02518364261439581, -0.04716724388994608, -0.07359928748110336, 0.07813191013225118, -0.0318567316080778, 0.025351376662229967, -0.03900514666519731, -0.07051398977961218, 0.03468880623060764, 0.0333846742746687, 0.05296010897355498, -0.03249068319282266, -0.0022141595553817253, -0.028808046252860518, 0.03610077500924672, -0.02671507451176421, -0.017312182581153496, -0.004881342490423049, 0.04569354519543507, -0.05619034434217515, -0.1346139393902552, 0.009300323545051286, -0.019039542718220368, -0.09564777188956618, 0.018627206643796322, 0.021163250677172535, 0.017930490828489996, -0.01299782253312366, -0.07438405018038736, -0.007006678743325691, 0.01738634069946772, -0.025019455436013256, 0.05917554704055845, -0.02225367922909368, 0.03093402481512887, -0.02986098153578281, -0.023189551982577605, -0.08029465251957872, -0.024361215000547297, 0.010457865427209754, 0.03274818220443113, 0.057993717692251416, 0.0035286684957701836, 0.06776340657038761, 0.14155249739798823, 0.043298800614878334, 0.055132597571413484, -0.008662430883815202, 0.03626931678318084, -0.03336446284522645, -0.060434096098836224, 0.005138523902157051, 0.04560545961596532, -0.07356051023347003, -0.07302691189387754, -0.05730749364750727, -0.06914485779127011, 0.05181397852875549, -0.011596466295061834, 0.06446993174692248, 0.035292877129717286, 0.025380777546308016, 0.05085960696743011, 0.06266159986754272, -0.039293950427406105, 0.04416741941965482, -0.06275796069274671, -0.02986922706453739, -0.010099155655433893, 0.0015636357615138644, 0.10454407480753074, 0.07374826941130365, 0.05094265821833219, 0.04762159155906682, 0.04439984840685513, 0.05069368361811124, -0.09001294535477442, -0.0776596791327245, -0.10300189918882995, -0.07150134616291919, -0.0688412159381807, -0.014108192903655474, -0.07175270124638715, -0.0005569026304779361, -0.06929256895404302, 0.02893873517884578, -0.021151195027087285, 0.052122344161223744, -0.04121299786159926, 0.015776817862810034, 0.004923664575549397, -0.02334173804406271, -0.082297609989737, 0.037592537885608256, 0.08473907576385448, 0.01729379909548545, 0.11782335398841141, 0.05994727256086923, 0.050120488195994975, 0.08571479069783951, 0.17872023894271483, 0.026120289510982973, -0.013256137783229328, -0.030565331175397854, -0.007591474207484344, -0.09470076464152699, -0.020621944152860647, 0.016140353140367273, 0.016330678716585605, 0.0151488109557266, 0.03488376728215044, -0.09208673208352697, 0.03816640567591387, -0.06528500042076026, -0.048078592346159875, 0.04337930719477953, -0.02216982436239907, 0.06486986597585122, -0.028048707052668917, 0.026980538957660914, -0.012336174727547321, 0.07060155645136709, 0.03671965984121968, 0.01984741660469741, 0.06403676382397179, 0.13601010321158283, 0.06289806640645075, 0.059562070491428934, -0.021952221584201424, 0.029322362891366364, -0.03070266985003512, 0.05142206739542326, -0.05264999232888468, -0.046689547447642414, 0.027713838528846645, -0.004330486017833648, 0.08406611499619528, -0.0011412584486567515, -0.038459948135569806, 0.053176291399658515, -0.01213093105537053, -0.045184348359308533, -0.02173799778722713, -0.0118894929604436, 0.003479692417666273, -0.0014625455470995486, -0.03387110261237021, -0.06291741004081775, -0.02623579246122991, 0.0921454880335783, 0.001469974541678857, 0.12184826561230007, 0.05606165848262172, 0.011662817635488168, 0.013827469241605899, 0.10108899610028586, 0.04776716738135906, 0.03913685173820319, 0.021673321876573684, 0.050090729110521905, -0.06729438309286091, 0.01744825545820088, 0.07628997064748402, 0.06072328758368044, 0.06186309109051724, 0.04139062663357402, 0.04061466444284327, 0.06502972523360502, -0.08280815028395655, -0.007774072152514953, -0.02633057280667164, 0.0008915862927294806, 0.07663959268405512, -0.08298036437593252, -0.026760608794857563, -0.08665146771823799, -0.059604777654162444, 0.04586332588030898, 0.02857278765547342, 0.09885444192622321, 0.07823002735246805, 0.01178321226295463, -0.03853720510735309, -0.004734500002267804, -0.08511187944690662, 0.0426927465488243, -0.06025490895987029, -0.10909745579667865, 0.034598737023724464, -0.06260197898982615, 0.0645671007136389, 0.10017037309134917, 0.02573523559963235, 0.06837715079892266, 0.03439130171521353, 0.03520742980070365, -0.06626156224790809, -0.03391192923858932, -0.08016146549310095, 0.020154981304203123, 0.06827069349985232, -0.0011732685539575726, -0.07679527683449566, 0.02663745183738788, 0.0773891199130323, -0.06706042995416929, 0.0005578612038797342, 0.03200674490957757, -0.06213610011050839, -0.038380538601000276, -0.03506853416139174, -0.07309581225867019, 0.007590842161539541, -0.05377793309305821, -0.0629076800331427, -0.10577341943546059, -0.08277004177774334, -0.06071048894150711, -0.01184349779359342, 0.06924514924998829, 0.13435588307495253, 0.030372696910406546, 0.004067512965572488, -0.031864162132549376, -0.04997072889309638, -0.015050458949093577, 0.00594683953203924, -0.030483914867289033, 0.04056714211336901, -0.04162865722955458, -0.017166154103257076, 0.042392985522739214, -0.013291158915299478, -0.03436199784763713, -0.01693972527115624, -0.06848971413277069, -0.08318060454224574, -0.04330616262185172, -0.02516361019830008, -0.02337615658462216, -0.12068106161229532, 0.01600995015516056, -0.04912689253304706, -0.003015067320562079, 0.011809208322202537, 0.0014085696514930589, 0.08726471765438608, 0.12136640045477794, 0.021118330646544982, 0.056718829685203004, 0.07842030526138459, -0.06822792041181935, 0.022326008951223542, 0.03152779938664504, -0.02697565984997516, 0.013625479350600506, 0.030068538183675282, -0.04170317590970311, -0.06130014867471236, -0.02354775853668645, -0.0133908719928047, 0.04198427942533207, 0.0631185846539325, -0.07390706997573886, -0.03399251198723624, -0.062295716951636736, -0.05530643310894157, -0.020960981048482114, -0.09345768369708227, -0.03035506553192377, -0.023573345507843246, -0.032931250665832294, 0.10890705863233002, 0.04747416919906796, 0.07123508686277964, 0.08926724436173548, -0.018255012805917317, 0.025187848701656912, 0.01143296132048371, -0.07778634991262998, -0.041718635920894795, 0.0621148137144528, 0.06234232319319927, 0.03506520943116083, 0.002717716415873138, -0.04780758587720555, -0.014225385443690102, -0.012760624889177442, 0.018433415486069925, 0.027585696565176572, -0.0541924998559347, -0.03772295949470391, -0.0036381910640906523, 0.013506522067537252, -0.00921684639591931, -0.023868989734828525, 0.012023250524381612, 0.07362000612917949, 0.005376979271345454, 0.04202838276716338, 0.09484094055476601, 0.1331195771601899, 0.08133383357829665, -0.02504282126830333, 0.0813050898161315, -0.07782611902206371, 0.05433960431798273, 0.014194216857489544, -0.053577886856716855, -0.0434183866386062, -0.007715335052284617, -0.03373435809220251, -0.041786761852996415, -0.047878818725416813, 0.013896406997934117, 0.02765719700966646, 0.032071190638582395, -0.06345478118961224, -0.012574526408936307, 0.05452730961045273, 0.033086033002798665, 0.0313637738418988, 0.09283116305981676, 0.10824926052125321, 0.16299339212419756, 0.14489369216839768, 0.19632480974403943, 0.15876941673922157, 0.17125444802372486, -0.006946601631653546, 0.09662862813545663, -0.026789459674805335, 0.02489030922011683, -0.0036868435574731076, -0.017195688125356424, -0.0011119750473625786, -0.02836990001618975, 0.013661675697807749, 0.032282250941706794, -0.06968470851642734, -0.02106640651589652, 0.07653689629864036, -0.031038522691071376, -0.003506119321837511, 0.013555773013979196, -0.01716489600044782, -0.06313476511026854, 0.05128991228675494, 0.04357585529176209, -0.014816428284868963, 0.07207181917445574, 0.03601480446050341, 0.09057997126034618, 0.1122291003531531, 0.07245679127466931, 0.10009238813320924, 0.12348136979187455, 0.02736805466843878, -0.055006877437565035, -0.09466582196033274, -0.09817127848300956, -0.11400130377614195, -0.015938061341230044, 0.036635416545882114, 0.023723106113142618, 0.010919659199584347, -0.044703262748466165, 0.05861766846611879, -0.030222004855387407, -0.04314485818885923, 0.059286065293498016, 0.053150762262294475, 0.035511116753312345, -0.05151464925808108, 0.05233659476509073, 0.034790495596747274, 0.03502743580685942, -0.08503122148625276, -0.08784029135027714, 0.003076882299871679, -0.055290128180329946, -0.006134938291266235, -0.05029368256093045, 0.04967124209858931, 0.003860986283536104, 0.05952438906902729, -0.0845445625239058, 0.034182832692024184, -0.09998758228408008, -0.02934385907497303, -0.00189783938063486, 0.0656130366621216, 0.047104573268614634, 0.04929464118727038, -0.03333215227527963, 0.027589571611070667, 0.023079526246128024, -0.06404469858548546, 0.05754545797746212, 0.005707962419783654, 0.07404289850491526, 0.034631322032851866, -0.014736890559833278, -0.010938593816130235, -0.027161575969797718, -0.034836818480256604, -0.029565521955281032, -0.0415076855300341, -0.10336965677836889, 0.032672963076843434, -0.06971987815802222, -0.005671691322469657, -0.03217047903336076, 0.009800330137736952, -0.07055226071432168, 0.020692072952726827, -0.001224667536782971, 0.022854666034690416, 0.05360848493934364, -0.04299523040675207, -0.06688772342990222, -0.01301666701802528, -0.03383677962634802, 0.0662502422140469, -0.05231643805292022, 0.06549245220556967, -0.038174137472726584, 0.044120915754995244, -0.07296850436131756, -0.0673853122629335, 0.04643251427811299, 0.007929450170243338, 0.049173316813940236, 0.030528817925392908, -0.04989008906826728, -0.017018536258418076, -0.0529039638296042, 0.014248176994517754, -0.01892802780239146, 0.02998612126921446, -0.041681354165273396, -0.01936597015757047, 0.024479442440822473, -0.07838378468059119, -0.04886745217600773, -0.05229243473696011, 0.05501737869893762, 0.007375804551556669, 0.0005874981736661787, -0.038068671099639, 0.07298665577801719, 0.024676143979986142, -0.06693217450672286, -0.06601433106909933, -0.0005595946871188394, 0.012854041655452286, -0.08152445798308061, -0.08004059401495382, 0.0032351379765153034, -0.07978041270741895, 0.01609339617445096, 0.05482646732509553, -0.02473851937802024, 0.03756061234311875, -0.09626424123443862, 0.01240072638788443, -0.05710908614293869, 0.006100086538985481, 0.017505318788597908, -0.03879274916296717, -0.02144921015183283, -0.09739354015434454, -0.0645083282360922, -0.03245123499536394, -0.03477000757904821, 0.01827533213145101, -0.034245940958471305, 0.07687887212893182, 0.0010223150555848854, -0.008322911789990882, -0.07951168536328584, 0.05206588496580035, 0.040579993653413166, -0.07289136705855992, 0.015336137325422054, -0.0577931107037102, -0.03028069006066625, 0.021534304024974273, 0.01874858374976141, -0.04079488569426925, 0.0033459910949959226, -0.06532338089196274, 0.007038975887527857, -0.05317890234965459, 0.049925665031284844, -0.03793381549897233, -0.024800620632604426, 0.036955820332911456, 0.042714542697065976, -0.04629642136052564, -0.0675522146919653, 0.02677469593660395, -0.07389760830259824, 0.019000139703215353, 0.060221388001193955, 0.006073908563554929, 0.024362992929220038, -0.010234432670348728, 0.07305164926250698, 0.05695632384231219, -0.05445915874111306, 0.040578907606576266, -0.07886663659225251, 0.01805991339352291, 0.04898416232954265, 0.000703114322808085, 0.06372753811766022, 0.07948663053897331, 0.07302815062669618, -0.03234978444174357, 0.05054658651401622, -0.04721478592126152, -0.07233413144706399, 0.05353461951549872, -0.03304741269229464, -0.0008326319618295059, -0.07076794619319308, 0.034342638707059725, -0.02173251720598489, -0.020842225706536117, 0.022670612877166568, -0.04924320176232519, -0.0739725790098896, -0.008260149397466447, -0.03921929226916149], [0.046194698701895465, 0.032631528919793464, 0.06827475400898488, -0.001685194628798951, 0.03628279003563639, -0.013513405124913867, 0.07053668820406676, -0.05703554697235668, -0.08101589591770783, 0.028402355735691404, -0.05567681776446268, 0.02867472784732409, 0.06875460949668175, -0.036329546607315355, 0.05172150914152937, -0.017176813844177578, -0.0770597773492628, 0.057317426435274925, 0.044844342254287094, 0.02416202744010762, 0.03263488687167444, 0.05958004005335603, -0.08080482199050434, 0.034145889340412724, -0.0013334732883955919, -0.04596135334969841, -0.0632702065053522, 0.01627893847674937, 0.007949855023201238, 0.053475709988194474, -0.034988166323449546, -0.044468767808698975, 0.0797237145298588, 0.004592861297792077, 0.00996539866273041, 0.045656049915516805, -0.05417057467330339, 0.08194614974431141, -0.0008022752969087469, 0.03792014299036586, -0.06208786273030734, 0.07874547232591171, 0.012316838563235606, 0.03275636668866729, 0.030875104672498908, 0.03528740135665507, 0.06827956488703835, 0.014787881690470675, 0.024059740883772922, 0.05290185835820387, -0.04821766227324942, -0.06178373992220721, -0.006955824582842791, 0.060593185150953875, 0.02019772852650754, 0.05078703187538921, -0.014959971563730034, -0.018790036877327297, -0.028919676844203185, 0.07706216710273313, 0.015861992137583613, 0.06957524411249331, 0.06359205751286613, -0.049146337757196436, -0.05189359407583412, -0.02507878657275229, -0.05257307398903937, -0.015946719057123256, -0.04225799861916863, 0.015999920611177696, 0.009442172788327893, 0.07902937635283151, 0.05246444246496496, -0.01794362814123219, 0.04260136159347506, 0.08012032812246513, -0.03757662183974509, -0.05483962120120856, -0.03603150798721282, 0.07941568826500293, 0.07601356158265844, -0.059750289863604006, -0.006133504575012843, 0.06392145438142119, 0.0035801161873984977, 0.010538388808401574, 0.003518673131008341, 0.055934573278631446, -0.05075169916376834, 0.04936250994673894, 0.022019267458446144, 0.05358379980115806, 0.037913997212081246, 0.02086827193734581, -0.09109188539692427, -0.11180068486382433, -0.1291867045157515, -0.1407345677308592, -0.01607570823478108, -0.10178963685873788, -0.13218187790493352, 0.01077313661517677, -0.027915630420907785, 0.01887188208269143, 0.03708791510883907, -0.016388453126439485, 0.034242719128963886, -0.02325668812962802, 0.05131537953826706, 0.009326637408882352, 0.04046600049217762, 0.00497934027233743, -0.04376147179089664, -0.04315782110460765, 0.07397149014080805, -0.07646374242995281, -0.07918346441416854, 0.04399338439498968, 0.017595061752040137, -0.04651757331431094, -0.11685690303421092, -0.1050350613816573, -0.015380019733863963, -0.05038631827769815, -0.09403171729443781, -0.10766746738022794, 0.001114741815680125, -0.1414814213243111, -0.06980281121403466, -0.14041363484753416, -0.10341976408439028, -0.033174867280855724, 0.028754151698629837, 0.04421263447961376, 0.04160130728308349, 0.059207470218751855, -0.025054159294399664, -0.07230027479794464, 0.012989080529174666, -0.03679882317101433, 0.022098806835201056, -0.04993855936476321, -0.06357522802505557, 0.011517719292467483, 0.04685028114049531, 0.0597401752250799, -0.09319001929657905, -0.0541653549862768, -0.021534832994878, -0.03399685171540787, -0.02653712939920517, -0.05932714996473823, 0.02305893857536556, -0.044310091608121376, -0.046987562812358705, -0.0926093521368306, -0.012111952939425883, -0.0022021047491968984, -0.025701599197944305, -0.049458325454732915, 0.007678916972905524, 0.08497003446419385, -0.028960346829299176, 0.09265790509144792, 0.04222012677011567, -0.02087774916817047, -0.019969162041112036, 0.0176248779654694, -0.007698952617748968, 0.04085076284143619, -0.05752618263719252, 0.015384874039010597, -0.0941294710089187, -0.0703082290150869, -0.046362348838487125, 0.03407070160368263, -0.015951819289651854, 0.030860259840029613, -0.06130153572687511, 0.004740853561477488, -0.13029752285617452, -0.1607201924279536, -0.12982155790668318, -0.20585963354924522, -0.19574877157994847, -0.02831559808104736, -0.10222713832351651, -0.07872244458381798, 0.014581713986031537, -0.06247347539944546, 0.05726329963253951, 0.15181527257107894, 0.00308394736559433, -0.05038426563001088, 0.007990894797443351, 0.004246252385488358, -0.04649710231871586, -0.07500041335690438, 0.05261669640004804, -0.07147004075758374, -0.08707548814251972, 0.04161195533157408, -0.04255046940530719, -0.027775064106231533, 0.05022272459646516, -0.028730325411543117, -0.03523037960960489, -0.0076185877180604935, -0.16224711688598498, -0.13439145595955193, -0.045019334051573864, -0.07420038073368894, -0.13231677741421163, -0.04345898310152377, -0.00953540518406591, -0.08657706322497767, 0.029671596246230586, 0.011137443330433473, -8.985955281922507e-05, 0.09932475462860182, 0.014460740699000918, 0.001928325616311906, -0.03397310747318267, -0.03292038382993391, -0.0817267662874901, -0.04504345833549549, -0.07798042726135591, 0.0558046777674051, -0.0038731005187769172, -0.03700748067625019, -0.08565885235561144, -0.06988751711322555, -0.052819624468198566, -0.06202460854320806, -0.0128445673984295, -0.020932187060364527, -0.059088950607224626, -0.0933288659094492, 0.03315811866918144, 0.023677278848545456, -0.05527494354146916, -0.0405238453815981, -0.03334665827112287, -0.01731010830108547, -0.0620225817547665, -0.08853162998112109, -0.016041031065070308, 0.03140174934487596, 0.1273498642125161, 0.027796588261969138, 0.03972451372768255, -0.028540396482500664, 0.07879619126635681, -0.04038859177975508, -0.01157180406030866, 0.012946250909009433, -0.05299702768114829, -0.0034360788038736824, 0.05085623529833475, 0.007647208341307781, -0.08286399736767955, -0.04268423954039403, -0.006976343728345789, 0.07114338197860684, 0.19872585252297453, 0.24035822374228547, 0.18622667990920225, 0.03863760511677363, -0.07859612384699115, -0.08198608461050443, -0.01589938345391409, 0.023894141129406323, -0.04778735898313377, 0.04254163285022985, 0.07299216794278257, 0.08480865519780735, 0.15945002072199782, 0.04319200187783222, 0.03251008932726941, 0.03990406937116784, 0.02616175629707421, 0.003347919006865832, -0.06556829388756712, -0.01372847481333705, 0.057061379444367885, 0.05231141100847833, 0.03808733929082183, 0.09862581092807784, 0.15248055988921283, 0.15088144551450577, 0.28881646702905645, 0.30232610672850385, 0.5248166442618926, 0.5197631585993017, 0.28138139423691066, 0.07679374986727996, -0.11255007233706724, -0.13602855691676896, -0.1363802064360815, -0.07842419551569157, -0.048886147307416236, -0.0663276758615125, 0.02479613067550948, 0.007486541254062474, 0.030385380790074534, -0.045229935790419444, 0.04985736173671663, -0.06303470016824884, -0.042681681299992016, 0.05741874966532297, -0.023234148582279894, -0.07553832967136398, 0.027277671675664954, 0.076566464082049, 0.2815683639265188, 0.2475636565650081, 0.31607620433749267, 0.3804457268298895, 0.37133599707605924, 0.47202565218012543, 0.48122739403380027, 0.45201603710500016, 0.18400752632654138, 0.04126581877871964, 0.034187125216225, -0.10116905294149667, -0.06744133223085018, -0.10189736632642031, -0.03752035638415575, -0.05647282782734249, 0.12450982291673976, 0.11187018307945112, 0.06542470717617854, 0.03808115688969444, 0.015716631535698536, 0.059490530373308106, -0.0065133138239381145, 0.02116372459291293, -0.014836871339425394, -0.07507901789575414, 0.007972274986951433, 0.21091849013411657, 0.2724459410423734, 0.29921824689829357, 0.3484370110487161, 0.2617881292665745, 0.18579787614624535, 0.180443644226347, 0.3008749696176301, 0.22881335643015108, 0.14581280460463242, 0.11092648207303313, -0.1055847968641602, -0.008791800705375817, -0.01767972241825602, 0.05334385427426195, -0.027185334003704657, -0.012918321789112227, 0.05515115149863079, 0.1757587649812594, 0.01233368430088828, 0.013262118619499438, 0.0175226833935619, 0.053979384481103655, -0.050114583750547524, -0.04227053240999822, 0.002758992900165172, 0.010518275978665543, 0.14544429185865362, 0.1711134251466259, 0.30831676518226353, 0.2536027886565616, 0.18320970601114997, 0.12392119371423596, 0.05110063974782884, 0.061263287813239746, 0.14711377295547998, 0.024743024055290618, 0.0622244465718536, 0.02881629467867892, -0.04095952278076683, -0.10097460365080087, -0.03628600663625275, -0.020516832210096453, 0.0470634412507003, 0.13336120017363418, 0.0977945612304749, 0.14085215971979462, -0.01600915145327063, -0.020819921501996005, 0.05559575724632603, -0.055434729447699255, 0.033584577260094284, 0.004766914521879276, -0.06075727357060771, -0.0614677367181029, 0.08687848326136899, 0.1958188799070217, 0.11833468577340323, 0.0685269242239759, 0.0813905616154996, -0.06434988079694044, -0.013725227753575762, -0.07477477642480078, -0.07015247590904944, -0.05561944843988605, -0.018676825183540444, -0.02276123117509491, 0.01835515414900533, 0.013939581488865229, -0.0073461188232746225, -0.024281154580568995, 0.08302444457970694, 0.036587588871483875, 0.012249751320514469, 0.14464226378815934, 0.04763874433089887, 0.01606719377388543, 0.04250811485387336, -0.04087941344162123, -0.029064718401051806, 0.08017578678143777, -0.06967827241959343, -0.09033642310063894, -0.0540044322645813, 0.06700145834921653, -0.014302836110006456, 0.060803128366417034, 0.02715140993654181, -0.011935359699110625, -0.13168803424507788, 0.04082434289335673, 0.03282186667211592, -0.07392331710364818, -0.05137352894396297, -0.005336672981300582, -0.06358961315737427, -0.03826782903684209, -0.10116468513527778, -0.017777980601856768, -0.07432745209964006, 0.06646346449069178, -0.02151581912298235, 0.029141594604462775, -9.770281522007232e-05, 0.025459510981890407, -0.051551550440790087, 0.0027965203231132196, -0.07320171297752764, -0.07831187120838554, 0.0036153992660551046, -0.1160317595371323, -0.12144456291757003, -0.010257251154553362, 0.0011113617205945692, -0.029775875438136503, -0.017304219305479353, -0.031133845893587017, 0.05109855147472946, 0.06861084131079499, -0.004438846697773753, -0.07411745916891636, 0.012685186118441884, -0.02818327641437286, 0.01853844256553346, -0.0318329307586981, 0.014991342662378747, -0.021354023133723993, 0.04310118126765116, 0.08070713923738852, 0.09098591269974877, -0.04112456466057719, -0.050948504699332826, -0.10757094616227317, -0.08275704047529, 0.049356534969074765, 0.06955843638323383, -0.06121340386666159, -0.05589858233839126, -0.14106882111683175, -0.07341386625472124, -0.13925204428664273, -0.08041343895960666, 0.08593313849780713, 0.008192787644107476, 0.10139344738468074, 0.04252792448128993, 0.020783341581322685, 0.052043213244356276, -0.008185338285982374, -0.022986397319912727, -0.009581546955199598, -0.059036635552051006, 0.01246585877287257, -0.04667236059349425, -0.017919411630120678, 0.08127343978404418, 0.09323723078215551, 0.056641956235778855, 0.01775016274587111, 0.012368921102057553, -0.10388188830194467, -0.04895818490853388, 0.02439028744843465, -0.050644426352661066, 0.006976726859551234, -0.01189621989351563, -0.1252741855607506, -0.09180847388860447, -0.015904103724589315, -0.039330803961703534, 0.015846343920521058, -0.03313366510805916, 0.0435325938954622, 0.10604740620484879, 0.13142809811219927, -0.027493070573590676, -0.015273676354594637, 0.05074002119079188, -0.04384340915318839, -0.029361144718847296, -0.026279630526720353, -0.10769732267176159, -0.004170179243994048, -0.003897379428771693, -0.05412539062881904, -0.07048234040968963, 0.01079030306335085, 0.027801466449214763, -0.058172927297366395, -0.0004039971757454261, 0.0474196249438405, 0.06879615969528942, -0.046195905669685, 0.005661603159011436, -0.06903795272653786, -0.07947560390800926, -0.13086851611971692, -0.004764230172121238, -0.025137628814418545, 0.041850638875382644, -0.05458923566623436, 0.09422136033664674, 0.07312540763356057, 0.07615096051293058, -0.07365140670274109, -0.024156270144225514, 0.040500779223295195, -0.05889293189510711, -0.05210155623749011, -0.06942458330819073, 0.05898345792955749, 0.0761331247121159, 0.07362736260123622, -0.015793022838949712, -0.0680911592130051, -0.050502145605041286, -0.0385995390581629, -0.058817496384884906, -0.03292237024589521, -0.05613533435413945, 0.06786613019694034, -0.05180613194934132, -0.05379771442940073, -0.048679531054124425, -0.08662020777976355, -0.05345473496090812, -0.10448559864409236, 0.024079518371902593, -0.06579400002152692, -0.02464229060673242, -0.02715072625931449, -0.009413599179149006, 0.0775599921025647, 0.003937201119206588, 0.08348113955669466, 0.026674940027156546, 0.06331413065714818, -0.003914872076028349, 0.0860596263749443, 0.016832597058741235, 0.08760680683046403, 0.025475954418431868, -0.01682889057796542, 0.04383342422848272, -0.023460303303081714, -0.04412354583559524, -0.00936073635778648, 0.04361202153902642, -0.016855102635547216, 0.008017453511179315, -0.07502586905045253, -0.1650532093074759, -0.08601119661227548, -0.07839018863784601, -0.0012939525702943438, 0.041237880480157925, 0.08240016010257434, -0.05899146877823588, 0.06415223168710237, 0.04486930083560439, 0.0640515327422412, -0.02211492575080435, 0.0798637112846379, 0.08014707473560055, 0.008367667104649415, 0.0821129010239408, -0.018963616126473105, 0.0841634924918384, 0.04737768548292839, 0.017071521429018462, 0.057649259766259224, 0.05017336003925644, -0.037301371793073884, -0.055101939849821875, 0.03748203445929959, -0.019856736871125286, 0.008699999461812265, -0.03910471487894703, -0.12434305752318008, -0.020222177568333537, -0.020255323116204246, -0.11083773458310382, -0.05511756311832263, 0.01883043879244433, 0.07924360405275856, 0.0195794148742079, -0.0023205673811126904, 0.10423169460959857, 0.051967690320178166, -0.020956921470687954, -0.043388550700000694, 0.09348976365291672, 0.10929620814846117, 0.08784639382274888, -0.03340045021487612, 0.038121553615504344, 0.0910663580157802, -0.027297592396695297, -0.0701201214077603, 0.07929448654384186, 0.03218955129733103, -0.02332973129340948, -0.04612842695676625, -0.0034456684890145843, 0.060629134238653785, 0.010231506616002483, -0.012926581756695775, -0.03522000799226283, -0.11667675325120798, -0.13983719441915848, -0.10376975224209764, 0.036748869811013524, -0.007570924931387184, -0.021686600126907825, 0.08307982614412802, 0.026124970194102, 0.03202881437499978, 0.05272688118222226, 0.05377260680009116, 0.043009002894973114, -0.03362644502760298, 0.09253845875871525, 0.09903412066134783, 0.045854970897595486, 0.05878079635294593, 0.02769168712368922, 0.03730566747052106, -0.009506179874421867, 0.07946600925314015, 0.04728571233298354, -0.010154265406227004, -0.019693328299834636, 0.0684537997245124, 0.06481748824081558, 0.04094239137023935, -0.10441812425083592, -0.04731305955808608, -0.0077704900784864315, -0.06994032856538622, -0.09467365060601887, 0.02926577090649509, 0.024782398590509784, 0.022835102500173652, -0.0200251588645387, 0.030298542248718436, -0.0329977866469759, -0.04590364376652137, 0.02858853982652698, -0.03988050699047555, 0.005128727116115497, -0.002978026275013446, 0.011312529754600016, 0.050260288741330886, -0.06064581116849116, 0.0030815633669186286, -0.02674045115814903, -0.02590142988549833, -0.037968368516094184, 0.01937936398340654, 0.0593675728022488, -0.00725381036682646, -0.003030212857857183, 0.037858993679787914, -0.0692751755151491, -0.006011106127510445, 0.009037492048286636, 0.029552711398446924, -0.05425512441478783, -0.10074449799485424, -0.13585139056947879, -0.1665770710488164, -0.11026765412303469, 0.002687433616614175, -0.005007785410347145, 0.03533904502449927, 0.031133077010559777, -0.047139046545785476, -0.07113454098329622, 0.06694582425947042, -0.028554159527912643, 0.03381472355451978, 0.06509179672790183, -0.03868061202244685, 0.031083249702332182, -0.0656158066685796, -0.026523664278023662, -0.00042602621097574027, 0.01908680530377578, 0.07567482867630215, 0.013475534485518588, 0.04930616777354823, -0.009670703340939318, 0.012566571559989378, 0.01769359440081111, -0.029174836898302015, -0.030354279187891856, -0.0839377666947538, -0.08466525618538864, 0.026727546685681364, -0.07592582127170498, -0.034862059802574584, -0.01701114871811071, -0.06539457793479372, -0.0054701652092648476, 0.0022123411621757104, 0.08381736490246151, 0.03968602538042565, -0.012066887185357192, -0.030481442354219807, -0.06834282774461019, -0.03231369610950748, 0.03372566878088427, 0.04706218287749277, -0.07659176167849777, 0.07846140186479869, -0.052277027874353954, 0.08030859902312684, 0.051635989588319095, -0.07248204292545811, -0.012747919492640841, 0.031547490531192594, 0.04133605716249179, -0.036001935317858696, -0.08509016501741051, 0.0235931435394952, -0.0878778639062918, -0.07945590360195343, 0.02329266056303838, 0.06911800529507565, 0.016931929847945167, -0.031491614720929345, 0.07550698200951715, -0.04395998828978835, 0.0073122314559957826, -0.07051761583015942, -0.024659296390394173, 0.03288665636407961, -0.03338516346307061, -0.04195223293195059, 0.004804320362787733, -0.03646623690981269, -0.007280214006000369, -0.04917773909893868], [-0.02935022721885002, -0.01306057463918305, 0.04099788255872464, 0.04697341875406272, -0.05165023536433681, 0.0004582926748373927, -0.0034520665899874475, 0.02719751040179938, -0.026763490891213573, 0.055726924008343295, -0.0443507594582431, 0.05384382320526466, 0.008435582248597084, -0.009916944037508292, -0.06835413405665398, -0.014217472342847856, 0.022635987943398987, -0.07674291714758213, -0.040276577550715904, 0.04660241949889757, 0.02914778825191411, 0.03764160343007694, -0.017554524434574493, -0.06824336488103849, -0.009555901615451272, -0.07402925773092947, -0.05423819421888993, 0.07560697277700393, -0.06749057639279044, 0.061267121563057775, -0.0431111822560357, 0.07714648843079283, 0.042391888027915776, -0.04306848512890094, -0.018719208139678808, -0.06079703064793637, -0.07195182212003093, -0.059278548012158795, -0.048462799394245124, 0.0480694637440396, 0.07112261940752872, 0.04773937121966191, 0.055554078322345615, -0.05796465204809958, -0.02729216754585492, 0.04350583425044492, -0.054722532530011025, -0.044605333057724655, -0.02017428499850044, -0.05394961750649015, -0.06366099285546219, 0.0457702192179903, -0.010567974930885718, 0.029457373357023708, 0.0592399226430197, 0.05676381486427231, 0.020749737788360614, -0.06192815430536427, 0.006000931783660643, 0.01893821468052932, 0.024328154003745172, 0.04677056719703708, 0.051610026814994395, 0.060601517615623844, -0.07172341056910661, 0.031945690473866084, 0.023938116378593048, 0.053233644819161895, 0.012714961814628738, 0.007720917478374198, 0.04099089532746393, -0.020982082983087402, -0.06057806365984343, 0.07762151023835866, 0.0722337936428043, -0.05704208707120841, -0.08339639215825094, -0.021073236009969694, 0.08032307552225242, -0.05089968348432897, 0.0460691671947852, -0.041777872101042855, -0.024249903097046468, 0.02522406350525391, 0.06699163491076777, 0.06088960043005031, -0.07846479151968903, -0.012315903155132292, 0.04189752135372084, -0.024570157419584817, -0.025154336432280607, -0.046934199949577315, -0.054271470185015463, 0.04245323315566951, -0.061169935563594346, -0.09703512285320318, 0.06096363070021676, -0.02989125224922792, -0.06376749803145203, -0.009783018126969136, 0.046308695199144274, 0.01907130278557254, 0.07255268303111732, 0.04352407812508207, -0.0701995177553956, -0.030863272217945544, -0.06741765404359319, 0.06034850306426691, -0.051019651891918476, -0.007725996288236862, -0.061957510569268244, -0.0018383287969154722, -0.058589053153931786, -0.06389044856050825, -0.020700343105026, -0.004791082078605538, -0.002531443983530694, -0.00682109219204153, 0.0016025106587391924, 0.05637968704742656, 0.04676568011159769, -0.03653913285020197, 0.026268299740163172, 0.04150859129306702, -0.03512907859171716, -0.05423088856883256, 0.030612628806776367, 0.0377458053596475, -0.065447896457143, 0.008370753712219133, 0.07239136896696823, -0.007082729684794301, 0.06718334405509564, -0.02650019502859252, -0.0036914256735493273, 0.008674844987950013, 0.05364129544700397, 0.022788199670002705, 0.053691553483261364, -0.04047865736210472, 0.043144019350588175, -0.001164065386182932, 0.021750900601923872, 0.04009827946572437, 0.00348336129189563, -0.028558558140738245, -0.07145589720526246, 0.017888474642541043, 0.05370336145135246, -0.0657950692720152, -0.10337738206524935, -0.027398111890392866, 0.006333566463880375, -0.007097683427443542, -0.1181870304771287, -0.023432436470256196, -0.10137399168126252, -0.13481109191935017, -0.0029508694861904074, 0.012288140162009032, -0.07215817641714886, 0.002136813529936659, 0.06563869883457711, 0.02792542290414176, -0.005032255908116973, -0.0759783121387116, -0.0025568061768006015, 0.011693305324767464, 0.044786350562504386, 0.0464894718797694, 0.0809632385724147, 0.03212686247741606, -0.057151629274315156, 0.04091866580317609, 0.06270115290645728, 0.06547219187688408, -0.08903852385122457, -0.07910363263112605, -0.09869453992666899, 0.013131296321836518, -0.09626029374683524, -0.15465339951948126, -0.1124620060661998, -0.1719160437985331, -0.1112210808565276, -0.1348035941832887, -0.10555102364730937, 0.018351733805001647, -0.06004973927168838, 0.07082923423005281, 0.08636882645179572, 0.002913468823290763, -0.07493417147287333, 0.07650228812947861, -0.05030790425428927, -0.07494556420636919, 0.009062660756893194, -0.05598219404572805, -0.0417242000156027, 0.04112776466184925, -0.010265437349107526, -0.05627668769390938, -0.045365805614232556, -0.06914872625387475, 0.029266463376154857, -0.03280768200448539, 0.04984175296942217, 0.007398260033147114, -0.026551794246522986, -0.042202548418528524, -0.04596733887767516, -0.04995458522935583, -0.11408815828626735, 0.01689155542014393, 0.023112741624470683, -0.030921065796090084, -0.028365190660693356, -0.00154703188514982, 0.08117297773632516, -0.047267857972974156, -0.06114758384127998, -0.07216254735858812, 0.07291033644344107, -0.009327585897130562, 0.012321933153649824, 0.03536641612030844, -0.006637788730311879, -0.00459902487227483, -0.026611997121776646, -0.011802927621093086, -0.010361497651275814, -0.016840307784482783, -0.011393372042186314, 0.06377804724992467, -0.030625684224995953, -0.023611506626150358, -0.015743362481320758, 0.005800364352133412, 0.005480074459105825, -0.01859920194608731, 0.04367996162378255, -0.04324864235055654, -0.016405894177872197, 0.061543279171464745, 0.05534842076314309, -0.024701610250493226, -0.04120059157800881, 0.025070683645482837, -0.0017179311020303375, -0.05908487189246234, -0.025948861644519216, 0.055018285027132845, 0.030452425494520048, -0.05444302772707103, 0.05792612923394917, -0.04125664315322035, 0.04401966691709817, -0.008655524898113571, -0.05825222092909958, 0.014232826767107836, -0.01148900648116912, 0.03912629087872138, 0.03966100487659596, 0.054728882022559266, -0.06798265135879393, -0.03631907003158107, 0.03063172297780703, 0.020239263747524217, 0.008552112410617776, 0.029566806245762103, 0.03045237964437043, 0.023133392020247803, 0.04153790547360242, -0.07052372809308921, 0.05623980094623583, -0.05673571529323247, -0.049690803331734874, -0.0627188094644614, 0.011236041592200152, 0.0012867657375883151, -0.03980206891156374, 0.05540473783454159, 0.07208652817869902, -0.009229173094926945, 0.0054320486373916664, 0.035267890459961405, 0.018255729802644387, 0.05621823233159783, -0.012554884485384743, -0.04186556613399984, -0.03964939288706232, 0.03887355839158198, 0.03106911165671406, -0.05323691070933078, 0.07394099314063246, 0.15386521666372477, 0.06503993579558663, 0.013866884140034747, 0.01627514062125975, 0.032931998059710824, 0.05463237984213269, -0.04897092731094202, -0.022518422006989412, 0.01723873772302931, 0.015689375865318534, 0.015182432886356402, 0.03554344101829039, 0.07431744634705557, 0.02301392814667609, 0.0414829731027411, -0.02900663352695009, 0.07231125915359832, 0.06581145001699239, -0.011070433573165376, 0.07279238710871433, -0.059719899921216665, 0.06653901203460563, 0.026141576140076447, -0.014179215801720792, -0.04886013952214853, -0.12816964498586794, -0.030024180641343188, -0.012374154666213827, 0.06976837883360142, 0.15141947214634802, 0.08110253539397001, 0.08147845096509156, -0.025907708500485988, 0.004960356934348167, -0.07154573693535897, -0.08838659842517275, -0.03421587182687286, -0.0689282683805394, 0.028204694657090832, -0.029071360068447093, 0.010449509681288046, -0.07949074921852492, 0.05263499343428562, -0.006117202352348236, -0.03328610963790329, 0.005767518732213605, -0.0797772057274544, 0.06472823264225142, 0.019785980095241185, -0.05439752588811716, -0.05437660892207085, -0.0983883769643206, -0.11987039078593452, -0.15037077015775407, -0.03620453302586276, 0.04764089337762512, 0.059980668646998726, -0.003236649583404062, 0.000177683591830386, -0.04713313498550443, 0.004524101741098319, -0.042802272831346765, 0.025369889386526116, -0.046725279761407765, -0.1014200203525724, 0.001352060752008112, 0.05138586121432981, -0.07862231863181213, -0.03165524891809354, -0.06653144244061064, -0.06304453742095525, -0.04972341004798864, 0.044476872538239814, 0.004375593775589348, -0.007867545778315728, 0.03347079245025577, -0.07934314953839833, -0.010153498764841123, -0.13170373316133413, -0.18487205784178243, -0.1373182767968865, -0.18081594266068376, -0.03748154281402692, 0.03326401497601483, 0.04250605928621808, -0.07934830864937385, -0.04792666941526041, -0.011550067167335747, -0.0565203348936737, 0.04651413084033837, -0.025276621577938013, -0.07241022577028697, 0.027868992460112676, -0.09885201668938659, -0.0008096039606704958, 0.04096213375763136, -0.00867080184904358, 0.048331482084308944, 0.061816859120766225, 0.010448524877841476, 0.036447677879964745, 0.0014702719479309171, -0.09097025192887002, -0.00941690568565784, -0.0401144149098413, -0.1082923375501065, -0.13936050526873703, -0.10485561982075062, -0.133644894519339, -0.09782459380149447, -0.06417885127704445, 0.006842348656555798, 0.0954158817317489, 0.060771441273022704, -0.04414841651842493, -0.08846899757952362, 0.022264748591843707, 0.051563988944311516, -0.05955550770852095, -0.018221323563207905, 0.02835331773191472, -0.05056304861081631, 0.017517313617326963, -0.03907441926956474, 0.028112169956921822, 0.0500630321345479, -0.0039024539866310518, 0.004449258265510283, 0.06908839532155432, 0.03392615051694735, 0.04795254643069434, 0.03243985237400098, -0.02108390155355358, -0.09999103375818309, -0.13207453149160575, -0.1055682485437219, -0.014190992076862738, -0.026709190395287928, 0.03106905145316193, 0.054472572363957174, 0.11072122559216327, -0.10450613902310762, -0.08159328912190082, -0.062490471108042185, 0.04521965225407665, 0.016438468669310844, -0.057157052656234324, 0.0515911687992877, 0.0375397161264919, 0.060510701381208294, 0.0776899991739605, -0.03139996560162928, 0.031146315477264642, -0.028329507228652552, -0.063361153144514, -0.06769349754663329, 0.013946066561637759, -0.07377054640707491, -0.021680133599636282, -0.12157415033884351, -0.084180259886046, -0.04787031039117784, -0.13353703029343714, -0.12090745073631652, 0.037285441111359056, -0.043008233304847855, 0.04937628579846988, 0.02335326782995787, 0.030815078399471507, -0.012243509251255414, 0.012807719869138473, -0.0374400421760296, -0.10080060327576425, -0.0044947133344713334, 0.0498303221387704, -0.06131319797167487, 0.0521721975833974, -0.06795457849066691, 0.009913029951998623, -0.04657536988523446, -0.012231221580354992, 0.04970301932722819, 0.058187622150926516, 0.04775541124129935, 0.007437909858563736, -0.028676688890131852, -0.10172074678982691, -0.029834761246503666, -0.008892956983390465, -0.027444369947982553, -0.09431168681535408, -0.021504212326880528, 0.033278892194838906, 0.040196255008362256, 0.15356486965877708, 0.11530309377065796, 0.02237028732464503, -0.1174836884521605, -0.12247239446484044, -0.055509804455410316, -0.0701386423870046, -0.030751665043195986, 0.049937106570586906, 0.04478781406751899, -0.0009091359758595979, -0.008741071462627259, -0.06295183137725154, 0.032581924987709183, -0.022251544906757004, -0.02064721413748845, -0.03941267733180964, -0.06809247386955873, -0.08930354090096242, -0.0034527376575624502, -0.05513558621806433, -0.03175863135580119, -0.1259408337989905, 0.017041115365886976, -0.04004673506916503, 0.016417205725993412, 0.10071225233025591, 0.09951509729187247, 0.03083114670922085, 0.09698749515542741, -0.06838735377713412, -0.06162498473542652, -0.03484804202656737, -0.12680534800759852, -0.06943322475141084, -0.04789441592275904, -0.03261132489251735, -0.004013020141739699, 0.02610467782558856, -0.011391810148406756, 0.05459675054826524, -0.07130163487392437, 0.006498661555089255, 0.009427120808196233, 0.030865386808249295, -0.007864182449388198, 0.044797025723842074, 0.0295972323536091, -0.06065451985956512, -0.020154327006175206, 0.03695819760302283, 0.0005421278908485218, 0.07450417183320147, -0.056023615671543604, 0.0591742217523539, 0.13088322152865187, 0.04081904153965045, -0.04740351371346134, -0.06709848280470558, -0.10385863334360972, -0.11718547590753967, -0.15173288306114835, 0.016325082622630393, -0.12437110313933859, 0.011988928935028188, -0.12711222906565917, -0.0977827728440523, -0.009406909254395992, -0.061314769189156904, 0.011535168880187885, 0.005570367099315584, -0.011646058594265513, 0.03003962588064969, -0.037598647770075815, -0.021333634503317375, 0.01839064732393404, 0.025678953973684804, -0.024981998130983108, -0.02271261647914028, 0.04421959464956705, 0.02255539269806922, 0.014661589681329227, 0.10510029854484403, 0.06674414323934841, -0.0032623774658266124, 0.028771461487263863, -0.06262477100980388, -0.07050376393206323, -0.07868168726856203, 0.004890956806075919, -0.020616087467365266, -0.014808100903169828, 0.010199394473917007, 0.005817911915193235, -0.09073471843962444, -0.03606419477828653, -0.02988872772920276, 0.0672316063258642, -0.047543586090088914, 0.04411119769578066, -0.007930367871431214, 0.05145289228593171, -0.0672714538379457, -0.015539408436098398, 0.0724677690349644, 0.07694312908605114, 0.04402361268382943, 0.05258450192167133, -0.057204673702536325, 0.008590976948882919, 0.0004350965166413558, -0.007660288828675857, -0.08349639299326796, -0.016122085646405042, -0.08313417794682826, -0.09766624744109095, -0.0019897195710045766, -0.051817002932820336, -0.010142573817752286, -0.10153961578577597, -0.08969766336509911, -0.021364088142989707, -0.09938458634909136, -0.05341721758215552, 0.07275553069084997, 0.07194319767118536, 0.00497433553473365, 0.05385676363014772, 0.04151154619865597, -0.0294738770429679, 0.032160608562869356, -0.04412982088360704, 0.06436325198711548, -0.040234249355003034, 0.06689820341625617, -0.050318635251081587, 0.04528102732636587, -0.031284199847375564, -0.0075601402539420956, -0.07051487976137356, -0.07584228575346447, -0.017940415547331664, -0.03299781465853373, -0.11500126421633845, -0.1198681051924969, -0.09554203907127788, -0.12518978490443833, 0.005090709966771106, -0.0361952515575865, -0.0870091665215054, 0.035747416816331874, -0.08080029381658414, -0.055041633284995256, -0.016649818192292762, -0.025121726245626752, 0.010882597433226185, -0.07913188559254558, 0.07489445073404902, 0.02791337037652216, 0.05237685613043002, 0.08667999727094389, 0.10859812852565152, -0.05201294917105184, 0.0352585287704051, -0.019800763049993984, -0.024715576874248232, -0.11004881762361028, -0.036025445512917746, -0.1263625505056761, -0.13171281323083628, -0.04423463616984735, -0.10097782970508032, -0.07739184046486434, -0.039951963965761186, -0.12128787301067182, 0.043178650519215364, -0.01721257956601604, 0.010626725383411322, 0.062037959259508876, -0.017841698353266832, 0.07381986845279806, -0.07633302841203846, 0.06207726634905348, 0.07430631964282698, 0.03147322648750257, 0.03552931124949523, 0.04282624821558147, 0.024680035343510133, 0.08291869519408948, 0.06428911310245096, -0.00877838753774337, -0.06782445379284578, -0.04148442681821799, 0.0071885896560556495, -0.11734496895520813, 0.006254788724993249, 0.007922244697490704, 0.002718458112813064, -0.10119893527991156, -0.06677886475580856, -0.009405122845799292, 0.00189503443493922, -0.10207040150715882, -0.005883762561796969, -0.041330699003783083, -0.08533636943320444, 0.06912756821329455, -0.06797169456878002, -0.06827924629241848, 0.0330156315586569, -0.037950791039360686, -0.002786298250499041, -0.05078608486557981, -0.058705210245945334, -0.07541578986561685, 0.012977470100922976, 0.0592752160137784, 0.03590906843692069, 0.013121392231500845, 0.0387445813153642, 0.04258080272387899, -0.004372450609193287, 0.0907993574782293, -0.035884510165671256, -0.06635265696966491, 0.0791153154739308, 0.013875423493076626, 0.05144778801197405, -0.027752503454934366, 0.046087340477071435, 0.04911458669924154, 0.06920603631097214, 0.021171638552368855, -0.03634706178755421, -0.08116130434309328, -0.028502243035457314, 0.0727420702089629, -0.03737275183138105, 0.045839686077413545, 0.013142153414980444, -0.07446937771432376, -0.018343426572022214, 0.06265283710680529, 0.010838707854373375, 0.062256995958677334, -0.036602716337184336, -0.018000555602430978, 0.06529220911045497, 0.019896849540099203, 0.07657274291294015, 0.008614051064100082, -0.0069429092441266275, -0.039130533825436464, 0.07505747811521242, -0.031810113707377734, -0.05077250379587339, 0.07451256536612595, -0.04881422549510215, 0.028637820976804375, -0.06155542370158159, 0.03677115897996404, 0.07516570502001133, -0.04782862464225656, 0.07336957683009608, -0.003830176016661761, -0.08225909957171529, -0.05701410890562223, -0.04058989002699053, -0.050902367641730395, 0.039348412682305794, 0.08231285876280882, 0.07416270332461002, 0.07770270775601203, 0.05929967282906557, 0.02746367677832706, -0.07705017244990812, -0.03240870990534296, -0.060522534852581245, 0.052358992065648334, -0.074605007794634, -0.056925419793019974, 0.08110101139539173, 0.03956591732478753, -0.04155765706372209, -0.06262517538827303, 0.03199304464178676, 0.07599446083938435, -0.07159899737760997, -0.024679033955946915, -0.04718692076320004, -0.02322774953140079, -0.06876109262147972, 0.060898739109182774, 0.015730789431624183, 0.061628799367273134], [-0.04611505073990906, -0.059384172038708195, 0.03219038794065776, 0.014075577922185611, -0.02894283890796987, 0.011313476078300237, 0.01642531634069576, 0.05052614162117187, 0.07982707513886092, -0.07963297024817559, 0.03589007376740248, -0.04298588527121966, 0.016358223423039508, 0.03646395849041187, -0.0619193109529144, 0.07412630501386226, -0.049912325707193575, 0.03225544359965815, 0.01793938784262016, -0.06524679343797607, -0.03163947256743076, 0.00908722660093687, 0.029740369759903903, -0.039800792770853376, -0.008254725139122645, -0.054753446895635764, 0.04903811949223583, 0.034918425161891684, 0.04714683388363178, -0.07453042899740298, 0.013597308679344286, 0.05158203234949031, -0.0516275286532749, 0.08095744349102083, -0.016875880897338758, 0.01990679867856845, 0.010340461515692592, -0.026906075092675317, 0.06260329412549354, -0.07824682242473387, 0.06756890932273904, -0.03676369879304345, -0.03328638501005864, -0.0706931865845731, -0.04168154574781781, 0.021935382560966523, -0.07261097967242562, -0.06989914962107743, 0.0574289754957113, -0.003680322646808692, -0.03158969250832044, 0.07647981341984089, 0.07081127986277613, -0.07120014650729722, 0.027693060016607016, -0.0680190071464819, -0.05078543270679462, 0.07154200706944408, -0.057051867091127535, -0.01480368445996951, 0.04597968812679559, -0.07025165613510753, 0.05344421414435001, -0.02704564951370477, -0.011663726191563141, 0.029044919531976004, -0.05998870819390207, 0.026901398310351477, -0.03811921518584274, -0.08574491453794474, -0.03649239662877191, -0.010013780392256397, 0.02854843360671439, 0.030964094295168356, -0.012100777529663315, -0.045679867116923865, 0.008420304283716257, 0.02821466353394741, -0.042648756259012134, 0.019918011852433515, -0.035451298868981906, -0.02683975885906781, -0.021261403593040944, 0.06369710834234027, -0.03291913058533573, 0.04012701159743958, -0.021442406551566498, 0.012900980959920563, -0.07408766395709902, 0.0065623508211657515, 0.014418020897246824, 0.06711785727641224, -0.05778509342657515, 0.06959747092814074, -0.03684112410498716, -0.04281243091943624, -0.07419531429375854, -0.030266892888392495, -0.00014203288588259794, 0.04283499972895086, -0.06734497170639935, 0.03690593178695709, -0.023753420511209936, -0.07106970977222654, -0.07767604264491568, -0.024786511269959597, -0.07346627269815618, -0.023821835507549318, -0.03273248483235211, 0.05744604683561967, 0.05125064834254338, -0.05864480978966161, 0.048808469506546805, 0.00814091045628658, 0.07612726462035245, -0.025099773655829716, 0.019057273500617675, 0.03775584853896462, -0.052415796894495596, 0.02212580389437747, 0.01053489963381214, 0.018178463493832307, -0.05221740098315473, 0.05909615359376745, 0.036946508251217314, -0.03519445630502106, 0.0175196400303584, -0.0772761962439609, -0.01689648816860178, 0.02422279789019475, 0.05889578482982445, -0.026410633692429835, -0.021386947509304224, 0.008904125478984469, -0.04962187276779376, -0.02505538175479564, -0.038558310432275936, -0.018724056325499772, -0.006887122702242632, 0.02089091445729988, 0.06220668612399532, -0.03389426199755924, -0.05126541002983139, 0.06165005710825728, 0.0016876037988449411, -0.07067092920205979, 0.02230444643052253, 0.09014821652737677, -0.06381443778626744, 0.04599721391435079, 0.054230804366898866, 0.031291526439345754, 0.027755283347296815, 0.045632105123205986, 0.05741626325280723, -0.06471245372290989, -0.013958022981267585, -0.066962752702941, -0.06467677280541854, 0.01911187534133927, 0.053814923113496886, -0.005540046433947578, -0.07364115570227733, -0.07224020791110856, -0.05467944429541844, -0.05368578004485594, 0.05821442706323441, -0.011828740166446599, -0.05285563713755852, 0.07831371210424891, 0.06742701502294883, 0.08051899324862395, 0.001163063272912278, 0.015048720193726672, 0.07117519504690462, 0.10136802125809662, 0.06699845856488326, 0.050814692183754694, 0.03773433033903465, 0.03520335122520864, 0.02110288775808846, 0.0002875574223190743, 0.05189882591942204, 0.07155624370375034, 0.06283548586253898, 0.07551963916013618, 0.046451865821249744, 0.04337157632309784, 0.048168145489092484, -0.03326355038565948, 0.05250740821375292, 0.02354723690774295, 0.017954970599912693, 0.06174497494708748, 0.023525149788669618, -0.05590616543370284, -0.012560348559075507, 0.009391369790212016, -0.027705268946054497, 0.021048257581593687, 0.019795589249241973, -0.04419766088140528, -0.05337775177696294, 0.10162554892068988, 0.06378043953197308, 0.05035240502669179, 0.022350389428243956, -0.010724656858294906, 0.06472264876186777, 0.03620823743417892, -0.04490044235721125, -0.045261549386562405, -0.08031941746364592, -0.058739917024015056, 0.031822710253742385, 0.049195714068800155, 0.047228684656360466, 0.048027890990405504, -0.034928309430324246, 0.029336120974597577, 0.013562777604694206, 0.03381729385239715, -0.0012179552644373975, -0.02451108900546743, -0.01616648796538004, 0.0555178576272493, 0.009769803667600125, 0.010860168923083108, -0.043540363228713325, 0.07802052242628979, 0.06543748248341588, 0.024030245291402557, -0.007819841815913107, -0.017459928162812353, 0.009356614491995695, 0.09955187658032966, 0.039240002760665624, -0.051661966722359016, 0.04487574471084322, -0.002810949730437028, -0.05650971451599105, 0.008680604224469016, 0.08379818959628159, 0.0208947993496753, 0.02259882290146249, -0.010183081690229308, 0.011677601974173337, -0.024679529367174772, -0.09782301222982122, -0.059327444670645664, 0.040697575826885136, -0.07686196334722042, -0.05941862989907189, 0.013552695370165693, 0.05419744434744393, -0.008662463531428344, -0.05237854749749151, 0.03627804598173748, -0.007263961669152191, -0.024748276465546948, 0.09359448917602992, 0.05596260563940827, 0.03201373390634024, -0.03529695198407597, 0.024616505611336156, -0.05878447403494308, 0.022156305570930256, 0.10983394299454893, 0.00371568841578609, 0.09826166163217778, 0.03215804770095346, 0.08754705679808611, -0.004389943919264279, -0.03957189809052664, -0.06045307998472429, -0.05853999058026031, -0.07616745609956305, 0.07538588840234439, -0.08147575154069162, 0.06705028460081029, 0.05092521398105978, 0.02835519484030246, 0.03883609603694614, 0.09502735783687694, -0.01233343986662704, 0.0009386684139879319, -0.02802580001452609, 0.056113800765360676, -0.028785531833802218, -0.04158508565898956, 0.06095014786814661, -0.048045699724859524, -0.07953477958657293, -0.00804168897874877, 0.0823822685710873, 0.11185618818121044, 0.049908107655949045, 0.09346701067533394, 0.034640531130552814, 0.012911008920682733, 0.08504885935526439, 0.01907984786069356, -0.0133096138669719, 0.05636598346387823, 0.05374268631975731, 0.0019929518268549506, -0.05143143315213014, -0.061964636187650426, -0.04905434178515567, 0.06792028159570764, -0.016407850252606878, -0.0439365551526022, -0.05099687769722261, -0.028771835410127424, -0.034122426521159016, -0.05801117618911444, 0.024640172442570767, -0.01641128540447302, -0.021092023420543646, -0.0911192575829663, -0.03715816921214462, 0.019434739004730157, -0.023548879114400765, -0.026234240782353684, 0.11126316414954344, 0.12266095517325547, 0.0684147111680294, 0.06590793679125186, 0.06499828239396413, 0.07441915963752897, -0.030977125272108316, -0.027952657785730646, -0.03350927538718979, 0.056148606120094695, -0.006512753687352742, -0.06200131825036447, -0.03533151219047482, -0.034587850216082114, -0.011176564248115911, 0.03671196996364574, -0.07289637081912916, -0.05145346501361444, -0.07564058911748194, -0.0011227888802697178, -0.10544590771365575, 0.03099320621614191, 0.051446472734482246, 0.013713405793034181, -0.0190422185080572, -0.05243662646436131, 0.024358296578765874, -0.012522497943530095, 0.03459848499618356, 0.09323489598606569, 0.07957029252032469, 0.019360813343388072, -0.06024487013821259, -0.07880556909911428, 0.006273790663781355, -0.07995289694798241, 0.016652901918002776, 0.043214696898615935, -0.061543744526158815, 0.04351097988817697, -0.07426555844856242, 0.051886865436927235, 0.006138694635612011, 0.026265733769331102, 0.037712992374214584, 0.04998416196494049, -0.014670083951329412, -0.033298113348760705, -0.014150824904134022, -0.07230071062040802, 0.0719626025975291, 0.018537788938113753, 0.023662119962446455, 0.027787143589553948, 0.036071826591818276, 0.011164403799986827, -0.0718759133206496, 0.023819398791208708, -0.03222448823333516, 0.03683699830421547, -0.02925815029381115, 0.05438338635668452, 0.02613462131411055, 0.08768843113451105, 0.035440521110318965, 0.05398141743576274, 0.05684598115610669, 0.04443834355272217, 0.05975525038055686, 0.06102699772112327, 0.08409519716560525, -0.010593098645793842, 0.029984328455708295, 0.058404696492648844, -0.07131553744378889, -0.020852451078908936, -0.017425667206499584, -0.07068737653438986, 0.006390323301155685, 0.06223814095273381, 0.011255320931603061, -0.06139653193804839, 0.019713750416274444, -0.07797136718291742, -0.00010053393164604287, -0.0782924108164112, 0.019296873742957243, 0.03425980164879201, -0.0623043993014315, 0.07293541528660749, 0.03672817541571656, 0.004780057632026984, 0.06239834337480446, -0.029222483032885174, -0.06401181142975688, 0.07341563625631237, -0.07268358302953588, 0.0328364665817617, 0.04054295952270405, 0.043366244898527355, -0.04218392564044665, 0.012676625021874527, 0.013835595937364746, -0.08223728429741645, -0.03274827854240859, -0.05111035193146896, 0.017994252894168547, 0.00579340083074007, 0.04317529280322824, -0.11700192157891087, -0.11034348312603988, 0.05834416073250546, -0.04292637468788086, 0.0740206655704801, -0.02117615657094641, -0.05112135416696885, 0.10724566322802362, 0.10543976165561901, 0.008665985597172823, 0.0862632257733505, 0.021268920785709685, -0.03702198559929255, -0.05490588710102249, -0.0601325951514824, 0.0005740922581892391, -0.03463080895656536, 0.008238504910975473, -0.05528882710499137, 0.04374305256429558, -0.02233232680377434, -0.024683323697050695, -0.035362965642644476, -0.055649963275598444, -0.040539972183769986, -0.06982833845248895, -0.005629571997117882, -0.027212760697563374, -0.006446274239772648, -0.010851442060620987, -0.08179787246242846, 0.08318878409129994, 0.058673353353433176, 0.05731097275081571, 0.027729715234390075, 0.08978806563994644, 0.10327615069565771, 0.029484422521750698, 0.0659208009498167, -0.026758508707267578, 0.022015877672284318, -0.05733645800848061, -0.02770599188853792, 0.05700297371883808, -0.05636164323540447, -0.05571759668901614, 0.010988253771547345, 0.0844617155647898, -0.0331804969933007, -0.007438946130815804, -0.02324576059350234, -0.05688919228034632, -0.019776059237149052, -0.02113153327386142, -0.020999469635325327, -0.046037307737133465, 0.006997187667586558, 0.0407202162858042, 0.1052788457522879, -0.007091556940465204, 0.08392608000719226, 0.08816208727708888, 0.04203772182539669, 0.08349387785045098, 0.03759590590939755, 0.06347735397885929, 0.005738300774750429, 0.001515728232998064, -0.006334189192405098, 0.013817359975701455, 0.07940254335914229, 0.004470767321453496, 0.002775122769597354, -0.0334399054210878, 0.043955006809255584, -0.026846231856256425, 0.035280632350224064, -0.059444811031202055, -0.03769920813118094, 0.08044064561516427, 0.06053034903050286, 0.048808621494102825, -0.018992927808333695, -0.01642753859835854, 0.028835334440618664, -0.005924889298999777, -0.0006680923204183476, 0.05879164566377129, -0.00012682473390707326, -0.04807560870434109, 0.06674044969400299, 0.05146562994779563, -0.06544723706150815, -0.028392532356854135, 0.003396746459319877, 0.02181615494408216, -0.05557924906391432, 0.050590337896455895, -0.05269806722526317, -0.0012551272370672475, -0.009779294321176519, 0.06257484263596781, 0.04096968067972824, -0.053344621101516415, 0.04304168494823354, -0.007110683111666025, 0.0020376127619722646, -0.061506784212199024, -0.035529755605470593, -0.006705210038889161, 0.08468762933354822, 0.09444879172919132, 0.02068128424389511, -0.0049286166657629, 0.07848857333587504, 0.060762594021203785, -0.047124291300534464, -0.009242141025172467, -0.08416380226109582, -0.07567507788577499, -0.08006824883626473, -0.048987076698787727, 0.008387560137545358, 0.029965108519579117, -0.04001906782900781, 0.0788801697921619, -0.07645617373827396, -0.022550876359603622, -0.012113505729057502, -0.03882655782691756, 0.03606798376522122, 0.0641482290986055, -0.029147569062216497, 0.025935263982082877, 0.007566855908875228, 0.04380184541227819, 0.05422291625347271, 0.08376811120735102, -0.05559942683500482, 0.07543140934801483, 0.06792231002988107, 0.07251516706159014, 0.054807850298842824, 0.0007837771048465896, 0.06818220795516239, 0.06986072696350455, -0.02449633645506824, 0.011633033183952488, -0.06201913979440589, 0.06134423594039318, 0.061044579361560165, 0.017290882382852056, 0.03985093686770809, -0.0412987785004891, -0.07575679485295723, -0.07744161270050458, -0.06854630386642177, 0.013704003729584361, 0.054815340202418156, 0.05614937585785706, 0.049256600465966305, 0.05452437361883838, 0.07935943526898098, 0.0243503291532295, 0.01673264293949189, -0.050007442615382, -0.03634416558201902, 0.055686189776294734, -0.08684728922925063, 0.02469363694891522, 0.07175056065106517, -0.053395284246281226, 0.03959292830846589, -0.05226891849248688, -0.02427191311237723, -0.06153733423001962, -0.015542463364324112, -0.02884277496648632, 0.04644242441412266, -0.03951166308100284, -0.05524436299250647, -0.07805681272175886, 0.0030252304467651924, 0.025184641362817686, 0.0017308528086352993, -0.06618420007039358, 0.0725270101794864, -0.0273642839442001, -0.010507617648630093, -0.052988896617602164, -0.03018529533459858, 0.05649883014243788, -0.060540053365453435, -0.023938760427670288, -0.04542444612857356, -0.008776652855837504, -0.07097357077901945, 0.0785510123633482, 0.0030679030574824245, 0.09628627772722226, -7.623196598240118e-06, 0.0502046421023597, 0.01897634029148529, -0.05993710447459451, -0.09895989205471852, 0.014782919077250036, -0.0863429716622161, 0.021985338014028997, 0.03287867631317506, 0.00447861208703717, -0.03128450262900168, 0.025639515537131237, 0.07862247990172955, 0.039626882616823574, 0.03352994319767881, -0.0654701942914637, -0.006353149346586375, -0.042705721000908324, 0.017946369384941176, 0.006835606294117056, 0.060381427307393466, 0.059519857438987946, -0.052660279284487514, -0.04449376293556736, 0.06901505140556134, -0.05612728307776846, 0.031442515598208896, -0.06285820904827981, -0.05741594360790217, -0.07406691060161351, -0.05990931352552521, 0.019855745190679393, -0.08175980233807205, 0.013475759028536422, 0.011747351776814484, 0.03797283951488255, 0.04316995094297258, -0.07817000128264519, -0.03209669498445175, -0.0032647472202784345, 0.058219707295347006, 0.05118785212376386, 0.03710699072202974, -0.030402266450813453, 0.02162209040308003, -0.051577126041803235, 0.017784439761875173, 0.05766809384109848, 0.06440745708558929, 0.012328598514210072, 0.03728123660620783, -0.031074088806473974, -0.036614893628184896, 0.03031321446459469, -0.04917011689512222, -0.07518132184179521, 0.017366494585588484, -0.03795714903789209, 0.04054223359195834, -0.09316858731800566, -0.04177616690299753, 0.048568593423239735, -0.028182114989876942, -0.037815214977607994, 0.027742526515041253, -0.0005369955729570456, 0.05095848920754217, 0.0017433499555308902, -0.04536898983629764, -0.007598100123359799, 0.037507791847281265, -0.004475291782798985, 0.03185361941060898, -0.034710039683244764, -0.01855543751493674, 0.006616015959147411, -0.0005531943335495003, 0.06786696997923239, -0.003707472873669001, 0.030105411940798743, 0.07851320227164224, -0.007358516828717538, 0.05075872746115526, -0.05688875097639014, -0.08161036179969772, 0.020734173350227054, -0.03622742734254668, -0.06290908345619567, -0.0693419850437956, -0.017663765362816327, -0.07940504561498841, 0.07823368484932758, 0.07777804174870805, -0.01178267112513951, 0.022969171075379224, -0.019150407969373427, -0.07022792072857002, 0.03384035592852206, -0.0029696110117458595, -0.04838812330275033, 0.08295843002641597, 0.06823868957283286, 0.07719080105460494, 0.04332189520223541, 0.08746082423589968, 0.013162820085504198, 0.022315318433808753, -0.0023926030685048325, -0.0641342317837115, -0.024660156169349433, 0.05748368828107407, -0.06119539998309435, 0.06502970653409061, -0.06249348355614256, -0.01625381769991953, 0.026748229773453203, 0.03669640043547899, 0.04057753328277109, -0.019071641312819, -0.023816134118554808, -0.02816253946520997, 0.0034537018513943973, 0.0043058549041130375, 0.0628816792999373, -0.00080206977572909, -0.05988768423801449, 0.06455053464770699, -0.02029460229645538, 0.06512697473527274, -0.06441932017288166, -0.07699164640216488, 0.004531231435028508, 0.05989698270482609, 0.06208511314871651, 0.06956137060842353, 0.006141424608814773, 0.01722599556082272, -0.05145086653733453, 0.0545418173577207, -0.03622778445736926, 0.04974150416865761, -0.06596856321400305, 0.02011657771845685, -0.014534934937964022, -0.08005382656864246, 0.015862534517806413, 0.00912559412529833, 0.05055488852254196, -0.016934777865183593, 0.013109618336477533, 0.04197018187387912], [0.051595534205227014, 0.04458108909223051, 0.012549272651707178, -0.03007862539367936, 0.07254218812835711, -0.04769446278330781, -0.05158181104685544, 0.024863476178550944, -0.009568155071515452, 0.08139641081852647, -0.0009366027524571604, -0.0689889789370783, -0.004805192130840593, 0.003005353023127406, -0.0675218701236613, 0.029854535644240083, 0.04527715697263936, -0.019296703946820874, -0.058858831723087604, -0.05599634337707499, 0.025580011141346986, -0.01137578980897371, -0.08223304015584726, -0.07202113697608396, 0.07307552209235517, -0.07507231181832591, -0.07241783403416542, 0.011064029803600448, -0.06636177440852899, 0.011287530151164394, 0.019281657431992606, -0.01218041507691162, 0.005464683837715762, -0.016070390519105728, 0.01921154291995021, -0.031987988140762084, -0.003611136318539764, 0.02773922491116196, -0.02697259960027191, 0.059629972761537926, -0.03429165164866109, 0.03845310592349782, -0.0020141639404464185, -0.04436990343030859, 0.04832585822679773, 0.06996514450315701, 0.0696889249676427, 0.07125946952366309, -0.03600690444354642, 0.02441745242453874, 0.07017384321663835, 0.013660111345710007, -0.04588217184976503, -0.002472739774103665, 0.002143773120974333, 0.06505159193991612, 0.012398437556755284, -0.04652363470447921, 0.07679599537187196, 0.005253504950159002, 0.01628452715048609, 0.023975657973403723, 0.04802750037438579, -0.04790972282246179, 0.06662915596292596, -0.006312787304168848, 0.03067816567551031, 0.011912265712640976, -0.06546813161657206, -0.015910007122006565, 0.005119317734169138, -0.022421549864367157, 0.04033632776445887, 0.035930687277983445, -0.0004785757782940884, 0.04249010030844384, 0.07703360670378033, -0.08358566312260901, -0.00968088733278404, -0.067531407164309, 0.06381498559819516, 0.023327131698968512, 0.034945682070076714, 0.05196156310730687, -0.021883522573692277, 0.034585468146009164, 0.06677237091101926, 0.07818488805987803, 0.054369921285964885, -0.002563178270754106, -0.04445380785850468, 0.019057050083591685, -0.07790724490448067, -0.0038362982419466968, -0.03337152421440455, -0.09395806600008881, -0.08918132741470754, -0.0032516205957271605, 0.020872960226681173, -0.0633843000365041, 0.010026275989222285, -0.02024656511453828, 0.03781610654121863, -0.06466683645259866, -0.06220526375539615, -0.04876403897973528, -0.0028915537042723365, 0.03497352073295437, 0.07564729772447384, 0.07269649717651482, -0.029480633198946407, 0.003315723977481372, 0.045218373355597016, -0.015929821407683606, 0.020891149643016253, 0.01674003711320276, 0.08178313852600215, -0.07447025757863919, -0.07203175009624638, -0.06256924171979454, -0.0689952550618611, 0.011292544434722846, -0.08817557604524225, -0.04757338498738157, 0.022897006333810366, 0.038869358333095634, -0.07666278946353017, -0.020749250630333674, 0.00286340793383104, -0.0821705009572147, -0.1157342102201075, -0.06734112583178813, -0.06353615560864241, -0.017909299991190595, 0.026448486448701444, -0.09028571358589993, -0.09749767434761678, 0.005419171261565761, -0.020383968732912882, 0.07739514098227564, 0.03870779159293242, 0.041986525185267354, -0.0769581287055537, 0.0702413397584648, 0.06593356014812185, -0.07653674061786227, -0.012833551490529999, 0.04555629291563407, 0.06379844046860178, 0.05130337446849488, 0.05876051954502398, -0.022749141554320576, 0.008852568708122484, -0.02627495775125686, -0.039070023543570476, -0.013918701783764736, 0.06689586957061865, -0.07943889056906127, 0.04035995525297097, -0.00732428527611415, -0.0657725383862258, -0.09247586470642404, -0.06397721867226078, -0.11120112912775214, -0.10621128931841378, -0.08034463708822934, -0.08172897935784267, -0.0625326499668157, 0.023600297623398728, 0.012531385211883357, -0.025970950525737915, 0.06192385086090225, 0.026833150070092338, -0.07088683725387135, 0.08095899560834335, -0.0010748882690254074, 0.014727619521733288, 0.11142435322691237, 0.05478130915961982, 0.15000209515851343, 0.03489985793728725, 0.04886256755085028, 0.08655621969841935, 0.08303882659965245, 0.0010934014427689406, 0.11092312971038622, 0.02563409193876184, -0.03756177233874973, -0.045708322387305454, -0.10115911866326877, -0.10310312001478536, -0.09938365371927345, -0.039879946096892646, -0.09402544624701796, 0.04095689146507423, 0.07163138108244985, -0.031342233818977, -0.06541134598464383, 0.025685369024990315, 0.009862035405665243, -0.06768879636649136, 0.015380815620009097, -0.042189925339519936, 0.11781619678175767, 0.04186689287840598, 0.03273089467249685, 0.1819039534031132, 0.04604041062130043, 0.14154139526856815, 0.0558165488331309, 0.1199316450946542, 0.04670431212226837, 0.06035073792700928, 0.00021411169060715603, -0.009557607910144095, -0.022407507518785192, 0.007166090421784125, 0.019639502267787084, -0.04212334755066519, -0.11651054398252281, -0.10775143390222863, -0.058551314578151166, 0.0013194525921114942, -0.006157733601593266, 0.04252699484215071, 0.0696744157572471, 0.02539356685585113, -0.027959785531236063, -0.03921374155625518, -0.03778693960926963, 0.03129007490984112, 0.13192066546119258, 0.08526592887898839, 0.15638332161797214, 0.1652925907155099, 0.11531995822372429, 0.10652742431934939, 0.07154028364475735, 0.06347331962166732, -0.005629143700738111, -0.03205800066164076, 0.05399339180543271, 0.0340491491609845, 0.02186536413768953, 0.004050210851961034, 0.04060454371670559, -0.13310380533834423, -0.159992074713245, -0.13251998779743202, -0.05584940085757866, -0.09301750849268405, 0.05635412335665621, 0.057939752896792984, -0.0484384187287159, 0.05103937727160867, 0.07077532870711058, -0.029264589162124693, 0.0704794926788704, 0.0649343344301506, 0.1539602457162105, 0.13125721962048853, 0.07004077228515235, 0.12744463171066364, 0.1471601249748455, 0.13640171495363318, 0.13314709077939937, 0.09284845615551635, 0.010215729602410975, 0.05146099731742121, 0.02352201983260174, 0.05277762012196049, 0.022402821369870683, -0.08081327246292672, 0.02227671455603851, -0.011534204839299494, -0.07503484799021293, -0.12539398373643645, -0.10813228045852018, -0.014699538717511174, 0.01789718022550637, -0.00025516274908126324, -0.007556819750019481, -0.07487062340444517, 0.03331619159574881, 0.07878257333346175, 0.09151677510386144, 0.023265696858766317, 0.12456964181441567, 0.1334531091981551, 0.14576623589857865, 0.04231993114547403, 0.09164209490212122, -0.06599013269813173, 0.009070931669882045, -0.0013226318163372572, -0.09102723081553496, -0.0535633441517117, -0.0032155794204481673, 0.06541412539294975, -0.030339428923998397, 0.055712847571906504, -0.006909631057663887, -0.016646195539109163, -0.10486709165013884, -0.14394063592705725, -0.17416604773689476, -0.10452328678045784, 0.035101502908389176, 0.04007703465198555, -0.009884136437826804, 0.040919829075401044, 0.05905696510534272, 0.007067385358849853, 0.06157597058095812, 0.024210381981990436, -0.01070547780412287, 0.05294275500366691, -0.001683866862289622, -0.002265147000144071, -0.1311717715817336, -0.14628620810624549, -0.16337582594464584, -0.11798263638849814, -0.014156262852971464, -0.012887392411436816, -0.023632586437246222, 0.03340723322537683, 0.05628922649313573, 0.03883816296633433, 0.007294159150987909, -0.0306430726677363, 0.026487770297070855, -0.12394439920508518, -0.07618700332685131, 0.009052849185501291, 0.03373057718568818, 0.03687252079575487, -0.0001731465650417603, -0.027356800642781138, -0.06268793813956795, -0.021648923340295473, -0.016964684269650074, -0.08795552307791368, 0.036557104887191855, 0.015703749828285735, -0.06233162934743192, -0.09798503599755846, -0.16326204339970807, -0.2761178450180326, -0.2901142380857875, -0.05364790424660772, 0.12330586982793852, 0.1824907585104102, 0.05928484649712347, 0.04123924329635276, 0.0688336055038324, 0.08565206160422008, 0.05674718237489361, 0.05463991688595009, 0.003283241352594109, -0.09365067215752505, -0.009048088704023799, 0.01609220973030746, -0.0628724175729734, 0.051117615644584447, -0.032166095063378586, -0.05555749280613912, -0.05246706537643036, -0.02571698669893943, 0.05943957487268879, -0.02624013915809012, -0.10426605889167456, 0.03011907404180575, -0.07081319192415092, -0.14309889844418833, -0.20271326745933568, -0.1986676540335963, -0.0668440070940875, -0.0330062617313538, 0.11868513872256159, 0.17368085143994547, 0.1593039509494728, 0.034434282077786184, 0.14396707658382674, 0.12714301442891146, 0.04858952269628152, 0.006773083738259032, -0.059089126594783936, -0.045261894742303785, -0.04387557047792303, 0.0565565192061686, 0.013259862594100096, 0.00749074533792197, 0.03873528809646728, 0.03971493833379685, -0.06725827758180924, 0.00030805341242237693, -0.03942485783613103, 0.030667154185051983, 0.03750638226228524, 0.03946369409579652, -0.055972287158596895, -0.03476302165210837, -0.07233505600351202, -0.08445214716185255, -0.020195503666753233, 0.13172623254135446, 0.2309940377289621, 0.12007509564689615, 0.20453121610466604, 0.13016898559929696, 0.06254636244315039, 0.046316217614749564, 0.046296110665563564, 0.07852040704908225, 0.04245502829359958, -0.03913625393823479, -0.03329292121888521, 0.07297351189986774, 0.055102752021552445, 0.019481324231539185, -0.06282107940971678, -0.042128844637076605, -0.05893433009470641, 0.049683540849151824, 0.030671976458224143, 0.11294297197067865, 0.07308676472093756, 0.1244319065584904, 0.03687942744480781, 0.09935377670708251, 0.06353080098409775, -0.025683590231478235, 0.12624263606946298, 0.13671124914138022, 0.1447341809503498, 0.21194228462620152, 0.07927826948402186, 0.038013033518639376, 0.1193943210108529, 0.07036666043122355, 0.08546956306814492, -0.018707834259060106, 0.06804944219062334, 0.009657506097109587, 0.04385794264504383, 0.08338157065943441, -0.028154307879156185, -0.05066860574044503, 0.03863121630384708, 0.025438202178926058, -0.07265594762201366, -0.048723066138999814, 0.06166546063794014, -0.007782143643950281, 0.16935163256803373, 0.09681663561911376, 0.18549543484444997, 0.17568521023071895, 0.14846015828812115, 0.1895286790546188, 0.20043401407612996, 0.1855985336711145, 0.18655382260051034, 0.08652958492323387, 0.05773802111816635, 0.026310148688844185, 0.016409088922863323, 0.08215527248017115, -0.0021746234137886263, 0.04597234729922877, -0.03708835785035639, -0.0654613464102764, -0.03285992960427313, -0.06467509627473116, 0.05578759463658781, -0.06313163706961089, 0.0751459220568458, 0.006207742101549281, -0.024429640372696144, -0.09463203014754308, -0.11669700207434507, 0.026151568611698237, -0.005058779675814553, 0.13568337611350426, 0.2872228457016815, 0.2601832507409387, 0.20352028181496729, 0.26771132361693195, 0.1780957397819967, 0.17636676776617785, 0.09245767433707684, -0.03381661197732648, -0.06693748685910875, -0.01950639129189895, 0.0034270895310492765, 0.039440671452169056, -0.001404160627217171, -0.016129671623076134, 0.024926007789702432, 0.08312098698665778, 0.005398713229123675, 0.01715636358410649, -0.0695789936994514, -0.06038503375911095, 0.058689482538144246, -0.0883057971284761, 0.04485421124950024, 0.004216646292439037, -0.1115287374316856, -0.10078290644746524, -0.0019674711580639657, 0.06303384790048265, 0.05508546771830423, 0.16877383567210033, 0.029764631713691026, 0.09273949656629264, 0.011882757113848699, -0.01630412977820513, 0.013858068814109373, 0.029875168444178493, -0.07020458336393272, 0.03420212330488077, 0.03238186880518371, -0.015618567722326528, -0.05057446363588529, -0.005436908889033217, -0.04319910489225661, 0.0684732582619583, -0.054772041822912426, -0.058461014139070455, 0.08065544028456924, 0.06188119772090209, 0.0008579261656794094, 0.04599471155350234, -0.05031019550133139, -0.02157769572493049, -0.05236761891091803, -0.135482307552665, -0.07905403087609665, -0.03505102969935668, -0.13449646791147146, -0.13294304659643164, -0.12308017680422824, -0.0482103769264191, -0.039213208545616406, -0.006916385589223764, -0.08885818481694546, -0.009853977389463234, 0.045382323354004946, -0.009081414441142861, 0.09647858636834365, 0.09371729019483988, 0.05748472378454351, 0.035694169354924664, -0.07393236662773842, -0.02130170560339506, 0.09004382747768275, 0.018733974979334312, -0.020855166786849438, -0.034863542448877446, 0.04815534158888781, 0.07427902390025039, -0.021751017759541497, -0.09377089631818364, 0.026059414287022797, -0.007824774213071095, -0.03778371098387599, -0.09641107012201953, -0.151204943877488, -0.08121207465852633, -0.16209712154013073, -0.1566182022238563, -0.18622926187424632, -0.05631901180417678, -0.029202067831675317, -0.0732993826234629, -0.013940967220497927, 0.06209028637750421, 0.07295928793357068, -0.03208269959069127, -0.045620180570322515, 0.07057181058687577, 0.08653903898092365, -0.02642806485568403, 0.07550744345075744, -0.07714382019159238, -0.0530228972245588, 0.007992409529638091, -0.06530679184892411, -0.06249220583719816, 0.054546413149083914, -0.040417590216313776, -0.01792876367899843, -0.07159070517536367, -0.12444814138798649, -0.06601172425012809, -0.054562514857896524, 0.0014265934392437344, -0.05119665236782894, -0.05945525225947946, -0.05938697340292168, -0.019321339254112703, -0.09048262463368005, 0.08053609297800783, 0.014772130460198556, 0.0213557475282913, 0.06717314128157002, 0.013355514744311214, 0.02814551742221124, 0.023848055094849774, 0.07930137051770451, -0.04040861786481939, 0.0448696313666242, 0.05459231635609069, 0.060250499369117264, 0.07219676744943773, -0.020477913059497477, -0.07529340954299406, 0.0050583036494281294, -0.05954446812856719, 0.046783814224578515, -0.03020170246306537, -0.008048051030700075, -0.07751847005315812, -0.084961955884671, -0.04806114384688801, -0.08231451996631692, 0.0058794732913963815, -0.08788525957365574, -0.03502715014317687, 0.059017510315104854, 0.04140204151519384, 0.04055186210285341, 0.05538832986979947, 0.008214401218123907, 0.062039815634475665, 0.03740280446085565, -0.059662443046267916, 0.07882796584676188, -0.027740714489665086, 0.07371366044303129, 0.02318402668225897, 0.030285125790662032, 0.04455149042617438, -0.06228753903513355, 0.028841501006728824, -0.017068431415468495, 0.07613477048126639, -0.07079768493626519, 0.060204469569806005, 0.002100389015303456, 0.005957205825162882, -0.009278051966624297, -0.00588227761187758, 0.002581865206770806, 0.01931865225909695, 0.01658209884963631, 0.0633217297481901, -0.001512832604443498, 0.09232503378723642, 0.07831545863349343, 0.10943155547240935, 0.06709993248835464, 